function [y1] = A3_16_Col(x1)
%MYNEURALNETWORKFUNCTION neural network simulation function.
%
% Auto-generated by MATLAB, 10-Feb-2022 20:06:45.
%
% [y1] = myNeuralNetworkFunction(x1) takes these arguments:
%   x = Qx255 matrix, input #1
% and returns:
%   y = Qx16 matrix, output #1
% where Q is the number of samples.

%#ok<*RPMT0>

% ===== NEURAL NETWORK CONSTANTS =====

% Layer 1
IW1_1 = [2.0536779324055647322 2.0536779324055647322 2.0536779324055647322 2.0556660039761420755 2.0556660039761420755 2.0556660039761420755 1.5725646123260432763 1.5725646123260432763 1.5725646123260432763 1.6679920477137168966 1.6679920477137168966 1.6679920477137168966 1.8190854870775339247 1.8190854870775339247 1.8190854870775339247 1.4453280318091443757 1.4453280318091443757 1.4453280318091443757 1.435387673956261656 1.435387673956261656 1.435387673956261656 2.6640159045725644305 2.6640159045725644305 2.6640159045725644305 2.4473161033797214969 2.4473161033797214969 2.4473161033797214969 3.582504970178926218 3.582504970178926218 3.582504970178926218 1.6441351888667987691 1.6441351888667987691 1.6441351888667987691 2.9065606361829021687 2.9065606361829021687 2.9065606361829021687 1.7375745526838957122 1.7375745526838957122 1.7375745526838957122 1.3439363817097407239 1.3439363817097407239 1.3439363817097407239 1.4115308151093428624 1.4115308151093428624 1.4115308151093428624 1.8369781312127229089 1.8369781312127229089 1.8369781312127229089 2.1292246520874744675 2.1292246520874744675 2.1292246520874744675 2.2763419483101379193 2.2763419483101379193 2.2763419483101379193 1.5168986083498996464 1.5168986083498996464 1.5168986083498996464 2.0576540755467194188 2.0576540755467194188 2.0576540755467194188 2.5407554671968184401 2.5407554671968184401 2.5407554671968184401 3.0536779324055656204 3.0536779324055656204 3.0536779324055656204 1.6361829025844922825 1.6361829025844922825 1.6361829025844922825 1.7057654075546708761 1.7057654075546708761 1.7057654075546708761 2.3399602385685884798 2.3399602385685884798 2.3399602385685884798 1.5347912524850884086 1.5347912524850884086 1.5347912524850884086 1.644135188866798325 1.644135188866798325 1.644135188866798325 1.1908548707753470186 1.1908548707753470186 1.1908548707753470186 1.3359840954274346814 1.3359840954274346814 1.3359840954274346814 1.4453280318091443757 1.4453280318091443757 1.4453280318091443757 1.4890656063618286087 1.4890656063618286087 1.4890656063618286087 1.2147117296222655902 1.2147117296222655902 1.2147117296222655902 1.3161033797216694641 1.3161033797216694641 1.3161033797216694641 1.9642147117296213654 1.9642147117296213654 1.9642147117296213654 1.4612326043737566827 1.4612326043737566827 1.4612326043737566827 1.375745526838965338 1.375745526838965338 1.375745526838965338 2.658051689860834621 2.658051689860834621 2.658051689860834621 2.135188866799204277 2.135188866799204277 2.135188866799204277 1.6063618290258441235 1.6063618290258441235 1.6063618290258441235 1.3240556660039757286 1.3240556660039757286 1.3240556660039757286 1.3538767395626232215 1.3538767395626232215 1.3538767395626232215 1.9701789264413516189 1.9701789264413516189 1.9701789264413516189 1.763419483101390961 1.763419483101390961 1.763419483101390961 2.5685884691848910322 2.5685884691848910322 2.5685884691848910322 2.7733598409542739027 2.7733598409542739027 2.7733598409542739027 2.5566600397614305251 2.5566600397614305251 2.5566600397614305251 2.8886679920477127403 2.8886679920477127403 2.8886679920477127403 2.6779324055666000604 2.6779324055666000604 2.6779324055666000604 2.9065606361829026127 2.9065606361829026127 2.9065606361829026127 3.0934393638170964991 3.0934393638170964991 3.0934393638170964991 3.1848906560636174312 3.1848906560636174312 3.1848906560636174312 3.2485089463220671036 3.2485089463220671036 3.2485089463220671036 3.0556660039761420755 3.0556660039761420755 3.0556660039761420755 3.1033797216699796628 3.1033797216699796628 3.1033797216699796628 2.0974155069582502975 2.0974155069582502975 2.0974155069582502975 1.9045725646123257135 1.9045725646123257135 1.9045725646123257135 2.0715705765407550487 2.0715705765407550487 2.0715705765407550487 2.1829025844930418643 2.1829025844930418643 2.1829025844930418643 2.2942345924453273476 2.2942345924453273476 2.2942345924453273476 2.1769383697813111667 2.1769383697813111667 2.1769383697813111667 2.433399602385685867 2.433399602385685867 2.433399602385685867 2.5646123260437372338 2.5646123260437372338 2.5646123260437372338 1.9582504970178920001 1.9582504970178920001 1.9582504970178920001 1.9105367793240544128 1.9105367793240544128 1.9105367793240544128 2.5268389662027823661 2.5268389662027823661 2.5268389662027823661 3.061630218687872329 3.061630218687872329 3.061630218687872329 3.1351888667992038329 3.1351888667992038329 3.1351888667992038329 3.0258449304174939165 3.0258449304174939165 3.0258449304174939165 3.0636182902584483401 3.0636182902584483401 3.0636182902584483401 3.0636182902584492282 3.0636182902584492282 3.0636182902584492282 2.6262425447316100069 2.6262425447316100069 2.6262425447316100069 2.7176938369781313831 2.7176938369781313831 2.7176938369781313831 2.3777335984095424593 2.3777335984095424593 2.3777335984095424593 2.9165009940357853324 2.9165009940357853324 2.9165009940357853324 2.5765407554671964085 2.5765407554671964085 2.5765407554671964085 2.2345924453280310296 2.2345924453280310296 2.2345924453280310296 2.5009940357852880055 2.5009940357852880055 2.5009940357852880055 2.6540755467196812667 2.6540755467196812667 2.6540755467196812667 1.9840954274353863607 1.9840954274353863607 1.9840954274353863607 1.974155069582503419 1.974155069582503419 1.974155069582503419 2.1312127236580509226 2.1312127236580509226 2.1312127236580509226 2.3757455268389660041 2.3757455268389660041 2.3757455268389660041 2.0417495029821060015 2.0417495029821060015 2.0417495029821060015 2.0198807157057641071 2.0198807157057641071 2.0198807157057641071 2.0079522862823049323 2.0079522862823049323 2.0079522862823049323;3.0313199105145427481 3.0313199105145427481 3.0313199105145427481 3.6599552572706928188 3.6599552572706928188 3.6599552572706928188 3.326621923937362002 3.326621923937362002 3.326621923937362002 3.3847874720357973288 3.3847874720357973288 3.3847874720357973288 5.0201342281879206553 5.0201342281879206553 5.0201342281879206553 1.8970917225950796325 1.8970917225950796325 1.8970917225950796325 2.8724832214765103622 2.8724832214765103622 2.8724832214765103622 6.2527964205816459753 6.2527964205816459753 6.2527964205816459753 6.548098434004469226 6.548098434004469226 6.548098434004469226 6.7360178970917150565 6.7360178970917150565 6.7360178970917150565 5.1655480984340034212 5.1655480984340034212 5.1655480984340034212 6.6263982102908220995 6.6263982102908220995 6.6263982102908220995 2.0268456375838912464 2.0268456375838912464 2.0268456375838912464 1.7337807606263995197 1.7337807606263995197 1.7337807606263995197 1.8210290827740491792 1.8210290827740491792 1.8210290827740491792 2.5346756152125240469 2.5346756152125240469 2.5346756152125240469 2.1431767337807583473 2.1431767337807583473 2.1431767337807583473 3.0581655480984322182 3.0581655480984322182 3.0581655480984322182 2.595078299776287345 2.595078299776287345 2.595078299776287345 5.2460850111856753841 5.2460850111856753841 5.2460850111856753841 1.6935123042505586533 1.6935123042505586533 1.6935123042505586533 2.5279642058165534557 2.5279642058165534557 2.5279642058165534557 2.4720357941834429916 2.4720357941834429916 2.4720357941834429916 4.6331096196867989079 4.6331096196867989079 4.6331096196867989079 6.1700223713646513701 6.1700223713646513701 6.1700223713646513701 4.3870246085011217474 4.3870246085011217474 4.3870246085011217474 5.1834451901566023224 5.1834451901566023224 5.1834451901566023224 2.9753914988814291753 2.9753914988814291753 2.9753914988814291753 2.0313199105145431922 2.0313199105145431922 2.0313199105145431922 2.8791946308724831738 2.8791946308724831738 2.8791946308724831738 2.0380313199105155597 2.0380313199105155597 2.0380313199105155597 1.8143176733780761456 1.8143176733780761456 1.8143176733780761456 1.2997762863534660926 1.2997762863534660926 1.2997762863534660926 2.2908277404921686404 2.2908277404921686404 2.2908277404921686404 3.7404921700223718872 3.7404921700223718872 3.7404921700223718872 1.8657718120805357742 1.8657718120805357742 1.8657718120805357742 2.2192393736017876904 2.2192393736017876904 2.2192393736017876904 1.416107382550335636 1.416107382550335636 1.416107382550335636 0.99776286353467535939 0.99776286353467535939 0.99776286353467535939 1.192393736017896666 1.192393736017896666 1.192393736017896666 0.85458612975391579081 0.85458612975391579081 0.85458612975391579081 1.1297539149888147225 1.1297539149888147225 1.1297539149888147225 0.79194630872483251505 0.79194630872483251505 0.79194630872483251505 3.5234899328859095036 3.5234899328859095036 3.5234899328859095036 3.3847874720357995493 3.3847874720357995493 3.3847874720357995493 3.2237136465324445211 3.2237136465324445211 3.2237136465324445211 2.8724832214765099181 2.8724832214765099181 2.8724832214765099181 3.9328859060402647785 3.9328859060402647785 3.9328859060402647785 3.4809843400447468831 3.4809843400447468831 3.4809843400447468831 3.465324384787470624 3.465324384787470624 3.465324384787470624 2.572706935123041383 2.572706935123041383 2.572706935123041383 3.7494407158836677851 3.7494407158836677851 3.7494407158836677851 3.6107382550335578308 3.6107382550335578308 3.6107382550335578308 3.7583892617449650153 3.7583892617449650153 3.7583892617449650153 4.167785234899324287 4.167785234899324287 4.167785234899324287 4.3355704697986494622 4.3355704697986494622 4.3355704697986494622 3.955257270693513405 3.955257270693513405 3.955257270693513405 4.2595078299776245601 4.2595078299776245601 4.2595078299776245601 4.2550335570469757229 4.2550335570469757229 4.2550335570469757229 2.9217002237136471265 2.9217002237136471265 2.9217002237136471265 3.2505592841163348794 3.2505592841163348794 3.2505592841163348794 2.4093959731543588276 2.4093959731543588276 2.4093959731543588276 3.2617449664429578604 3.2617449664429578604 3.2617449664429578604 2.6353467561521237705 2.6353467561521237705 2.6353467561521237705 2.5794183445190168591 2.5794183445190168591 2.5794183445190168591 3.0268456375838961314 3.0268456375838961314 3.0268456375838961314 3.348993288590607964 3.348993288590607964 3.348993288590607964 2.2438478747203567387 2.2438478747203567387 2.2438478747203567387 3.6778523489932868351 3.6778523489932868351 3.6778523489932868351 2.8568232662192429849 2.8568232662192429849 2.8568232662192429849 2.9552572706935156255 2.9552572706935156255 2.9552572706935156255 1.7539149888143179545 1.7539149888143179545 1.7539149888143179545 2.7516778523489939801 2.7516778523489939801 2.7516778523489939801 2.1767337807606259581 2.1767337807606259581 2.1767337807606259581 4.8366890380313130038 4.8366890380313130038 4.8366890380313130038 1.9284116331096197161 1.9284116331096197161 1.9284116331096197161 2.0850111856823256851 2.0850111856823256851 2.0850111856823256851 1.6017897091722588243 1.6017897091722588243 1.6017897091722588243 2.0425055928411626205 2.0425055928411626205 2.0425055928411626205 1.8232662192393738199 1.8232662192393738199 1.8232662192393738199 2.3534675615212514721 2.3534675615212514721 2.3534675615212514721 1.3445190156599551301 1.3445190156599551301 1.3445190156599551301 4.9552572706935027469 4.9552572706935027469 4.9552572706935027469 2.0022371364653235304 2.0022371364653235304 2.0022371364653235304 1.8299776286353452992 1.8299776286353452992 1.8299776286353452992;2.0127226463104328502 2.0127226463104328502 2.0127226463104328502 3.7760814249363856554 3.7760814249363856554 3.7760814249363856554 3.139949109414759576 3.139949109414759576 3.139949109414759576 3.0330788804071255882 3.0330788804071255882 3.0330788804071255882 3.7379134860050879929 3.7379134860050879929 3.7379134860050879929 2.5292620865139952002 2.5292620865139952002 2.5292620865139952002 3.0636132315521646952 3.0636132315521646952 3.0636132315521646952 5.4910941475827010905 5.4910941475827010905 5.4910941475827010905 5.2162849872773566773 5.2162849872773566773 5.2162849872773566773 6.3053435114503830761 6.3053435114503830761 6.3053435114503830761 4.3180661577608150381 4.3180661577608150381 4.3180661577608150381 6.0000000000000008882 6.0000000000000008882 6.0000000000000008882 2.7709923664122135811 2.7709923664122135811 2.7709923664122135811 2.1933842239185752376 2.1933842239185752376 2.1933842239185752376 2.5165394402035636823 2.5165394402035636823 2.5165394402035636823 2.8524173027989800921 2.8524173027989800921 2.8524173027989800921 3.3664122137404577373 3.3664122137404577373 3.3664122137404577373 3.6921119592875326632 3.6921119592875326632 3.6921119592875326632 3.2137404580152688638 3.2137404580152688638 3.2137404580152688638 4.2697201017811696744 4.2697201017811696744 4.2697201017811696744 3.7837150127226468754 3.7837150127226468754 3.7837150127226468754 3.559796437659033419 3.559796437659033419 3.559796437659033419 1.7404580152671753623 1.7404580152671753623 1.7404580152671753623 2.5089058524173037945 2.5089058524173037945 2.5089058524173037945 4.0916030534351159886 4.0916030534351159886 4.0916030534351159886 1.8346055979643771661 1.8346055979643771661 1.8346055979643771661 2.844783715012723313 2.844783715012723313 2.844783715012723313 1.3867684478371506973 1.3867684478371506973 1.3867684478371506973 1.3486005089058523687 1.3486005089058523687 1.3486005089058523687 1.3740458015267176251 1.3740458015267176251 1.3740458015267176251 1.351145038167939294 1.351145038167939294 1.351145038167939294 1.3053435114503821879 1.3053435114503821879 1.3053435114503821879 1.3027989821882954846 1.3027989821882954846 1.3027989821882954846 1.8931297709923664563 1.8931297709923664563 1.8931297709923664563 1.8702290076335876812 1.8702290076335876812 1.8702290076335876812 1.3664122137404577373 1.3664122137404577373 1.3664122137404577373 2.5470737913486019011 2.5470737913486019011 2.5470737913486019011 1.9083969465648857877 1.9083969465648857877 1.9083969465648857877 1.3027989821882952626 1.3027989821882952626 1.3027989821882952626 1.2977099236641225222 1.2977099236641225222 1.2977099236641225222 1.1374045801526719845 1.1374045801526719845 1.1374045801526719845 1.5470737913486010129 1.5470737913486010129 1.5470737913486010129 1.2162849872773533466 1.2162849872773533466 1.2162849872773533466 1.7709923664122135811 1.7709923664122135811 1.7709923664122135811 2.6513994910941494076 2.6513994910941494076 2.6513994910941494076 3.1145038167938920992 3.1145038167938920992 3.1145038167938920992 3.1043256997455479507 3.1043256997455479507 3.1043256997455479507 2.2213740458015278634 2.2213740458015278634 2.2213740458015278634 2.3358778625954204067 2.3358778625954204067 2.3358778625954204067 2.5419847328244284945 2.5419847328244284945 2.5419847328244284945 3.0178117048346071449 3.0178117048346071449 3.0178117048346071449 2.6793893129770998129 2.6793893129770998129 2.6793893129770998129 2.3409669211195938132 2.3409669211195938132 2.3409669211195938132 2.1730279898218829437 2.1730279898218829437 2.1730279898218829437 0.91348600508905830608 0.91348600508905830608 0.91348600508905830608 0.97964376590330770611 0.97964376590330770611 0.97964376590330770611 1.0814249363867682874 1.0814249363867682874 1.0814249363867682874 0.77353689567430017338 0.77353689567430017338 0.77353689567430017338 0.79643765903307872644 0.79643765903307872644 0.79643765903307872644 1.0636132315521626968 1.0636132315521626968 1.0636132315521626968 1.3155216284987281128 1.3155216284987281128 1.3155216284987281128 1.6259541984732823749 1.6259541984732823749 1.6259541984732823749 0.59796437659033085943 0.59796437659033085943 0.59796437659033085943 0.57506361323155219534 0.57506361323155219534 0.57506361323155219534 1.2290076335877866409 1.2290076335877866409 1.2290076335877866409 1.9160305343511458975 1.9160305343511458975 1.9160305343511458975 2.2264631043257008258 2.2264631043257008258 2.2264631043257008258 1.9923664122137418886 1.9923664122137418886 1.9923664122137418886 1.880407124681933384 1.880407124681933384 1.880407124681933384 1.6463104325699748909 1.6463104325699748909 1.6463104325699748909 1.4122137404580150655 1.4122137404580150655 1.4122137404580150655 1.536895674300255088 1.536895674300255088 1.536895674300255088 1.2468193384223913434 1.2468193384223913434 1.2468193384223913434 1.5623409669211199002 1.5623409669211199002 1.5623409669211199002 1.185750636132316016 1.185750636132316016 1.185750636132316016 0.91857506361323093547 0.91857506361323093547 0.91857506361323093547 1.3155216284987276687 1.3155216284987276687 1.3155216284987276687 1.1984732824427486442 1.1984732824427486442 1.1984732824427486442 0.50890585241730290633 0.50890585241730290633 0.50890585241730290633 0.4910941475826972602 0.4910941475826972602 0.4910941475826972602 0.74554707379134843581 0.74554707379134843581 0.74554707379134843581 1.0229007633587787751 1.0229007633587787751 1.0229007633587787751 0.88040712468193382811 0.88040712468193382811 0.88040712468193382811 0.54961832061068705002 0.54961832061068705002 0.54961832061068705002 0.55470737913486023452 0.55470737913486023452 0.55470737913486023452;2.8861111111111115157 2.8861111111111115157 2.8861111111111115157 5.1027777777777760804 5.1027777777777760804 5.1027777777777760804 5.5194444444444430431 5.5194444444444430431 5.5194444444444430431 5.1597222222222205446 5.1597222222222205446 5.1597222222222205446 5.7611111111111084071 5.7611111111111084071 5.7611111111111084071 5.1472222222222230315 5.1472222222222230315 5.1472222222222230315 5.8777777777777799884 5.8777777777777799884 5.8777777777777799884 6.0569444444444444642 6.0569444444444444642 6.0569444444444444642 5.9013888888888885731 5.9013888888888885731 5.9013888888888885731 5.8874999999999984013 5.8874999999999984013 5.8874999999999984013 6.0500000000000007105 6.0500000000000007105 6.0500000000000007105 6.1583333333333323267 6.1583333333333323267 6.1583333333333323267 3.9833333333333320603 3.9833333333333320603 3.9833333333333320603 4.494444444444443576 4.494444444444443576 4.494444444444443576 5.1097222222222207222 5.1097222222222207222 5.1097222222222207222 2.863888888888887152 2.863888888888887152 2.863888888888887152 3.3805555555555546476 3.3805555555555546476 3.3805555555555546476 4.8013888888888898165 4.8013888888888898165 4.8013888888888898165 5.4499999999999992895 5.4499999999999992895 5.4499999999999992895 5.8569444444444433984 5.8569444444444433984 5.8569444444444433984 3.7388888888888884843 3.7388888888888884843 3.7388888888888884843 4.247222222222221788 4.247222222222221788 4.247222222222221788 2.4611111111111103611 2.4611111111111103611 2.4611111111111103611 4.4263888888888880402 4.4263888888888880402 4.4263888888888880402 5.4013888888888867967 5.4013888888888867967 5.4013888888888867967 4.0972222222222223209 4.0972222222222223209 4.0972222222222223209 5.1861111111111091176 5.1861111111111091176 5.1861111111111091176 3.274999999999999023 3.274999999999999023 3.274999999999999023 1.9152777777777769685 1.9152777777777769685 1.9152777777777769685 2.6833333333333317938 2.6833333333333317938 2.6833333333333317938 1.9055555555555550029 1.9055555555555550029 1.9055555555555550029 1.7416666666666658081 1.7416666666666658081 1.7416666666666658081 1.2861111111111105387 1.2861111111111105387 1.2861111111111105387 2.7083333333333325932 2.7083333333333325932 2.7083333333333325932 4.1972222222222210775 4.1972222222222210775 4.1972222222222210775 2.2513888888888886619 2.2513888888888886619 2.2513888888888886619 2.6347222222222215215 2.6347222222222215215 2.6347222222222215215 1.6944444444444437536 1.6944444444444437536 1.6944444444444437536 1.0236111111111108052 1.0236111111111108052 1.0236111111111108052 1.3194444444444437536 1.3194444444444437536 1.3194444444444437536 0.89583333333333325932 0.89583333333333325932 0.89583333333333325932 1.1444444444444439313 1.1444444444444439313 1.1444444444444439313 0.69722222222222185462 0.69722222222222185462 0.69722222222222185462 2.1458333333333321491 2.1458333333333321491 2.1458333333333321491 2.3347222222222216992 2.3347222222222216992 2.3347222222222216992 2.1499999999999994671 2.1499999999999994671 2.1499999999999994671 2.5874999999999999112 2.5874999999999999112 2.5874999999999999112 2.090277777777777235 2.090277777777777235 2.090277777777777235 2.5041666666666659857 2.5041666666666659857 2.5041666666666659857 2.9930555555555553582 2.9930555555555553582 2.9930555555555553582 2.9402777777777773238 2.9402777777777773238 2.9402777777777773238 3.2138888888888876849 3.2138888888888876849 3.2138888888888876849 2.8791666666666659857 2.8791666666666659857 2.8791666666666659857 2.8930555555555557135 2.8930555555555557135 2.8930555555555557135 1.3222222222222217436 1.3222222222222217436 1.3222222222222217436 1.3583333333333327264 1.3583333333333327264 1.3583333333333327264 1.6083333333333325044 1.6083333333333325044 1.6083333333333325044 1.1916666666666662078 1.1916666666666662078 1.1916666666666662078 1.3249999999999995115 1.3249999999999995115 1.3249999999999995115 1.7374999999999996003 1.7374999999999996003 1.7374999999999996003 2.029166666666666341 2.029166666666666341 2.029166666666666341 2.1833333333333331261 2.1833333333333331261 2.1833333333333331261 1.3305555555555550473 1.3305555555555550473 1.3305555555555550473 1.3958333333333325932 1.3958333333333325932 1.3958333333333325932 1.751388888888888884 1.751388888888888884 1.751388888888888884 2.455555555555553493 2.455555555555553493 2.455555555555553493 2.5847222222222225874 2.5847222222222225874 2.5847222222222225874 2.0694444444444433095 2.0694444444444433095 2.0694444444444433095 2.7111111111111108052 2.7111111111111108052 2.7111111111111108052 2.5194444444444439313 2.5194444444444439313 2.5194444444444439313 1.5875000000000001332 1.5875000000000001332 1.5875000000000001332 1.5416666666666662966 1.5416666666666662966 1.5416666666666662966 1.0097222222222221877 1.0097222222222221877 1.0097222222222221877 2.0138888888888879514 2.0138888888888879514 2.0138888888888879514 1.813888888888888884 1.813888888888888884 1.813888888888888884 1.5402777777777771906 1.5402777777777771906 1.5402777777777771906 1.968055555555555447 1.968055555555555447 1.968055555555555447 1.8597222222222220545 1.8597222222222220545 1.8597222222222220545 1.24722222222222201 1.24722222222222201 1.24722222222222201 1.1402777777777772794 1.1402777777777772794 1.1402777777777772794 1.4652777777777776791 1.4652777777777776791 1.4652777777777776791 1.6486111111111103611 1.6486111111111103611 1.6486111111111103611 1.7708333333333328152 1.7708333333333328152 1.7708333333333328152 1.3958333333333334814 1.3958333333333334814 1.3958333333333334814 1.1180555555555551361 1.1180555555555551361 1.1180555555555551361;2.725130890052356758 2.725130890052356758 2.725130890052356758 3.3979057591623051948 3.3979057591623051948 3.3979057591623051948 3.0549738219895292701 3.0549738219895292701 3.0549738219895292701 2.9175392670157065389 2.9175392670157065389 2.9175392670157065389 3.7107329842931942032 3.7107329842931942032 3.7107329842931942032 2.5811518324607320984 2.5811518324607320984 2.5811518324607320984 3.0327225130890052007 3.0327225130890052007 3.0327225130890052007 4.8691099476439756444 4.8691099476439756444 4.8691099476439756444 4.8089005235602089172 4.8089005235602089172 4.8089005235602089172 5.3769633507853393795 5.3769633507853393795 5.3769633507853393795 3.9960732984293185766 3.9960732984293185766 3.9960732984293185766 5.2866492146596852919 5.2866492146596852919 5.2866492146596852919 2.3821989528795808333 2.3821989528795808333 2.3821989528795808333 2.0641361256544503711 2.0641361256544503711 2.0641361256544503711 2.1727748691099475487 2.1727748691099475487 2.1727748691099475487 2.4005235602094239233 2.4005235602094239233 2.4005235602094239233 2.8756544502617815695 2.8756544502617815695 2.8756544502617815695 3.2630890052356025244 3.2630890052356025244 3.2630890052356025244 2.5549738219895283819 2.5549738219895283819 2.5549738219895283819 3.5562827225130893005 3.5562827225130893005 3.5562827225130893005 3.3599476439790585403 3.3599476439790585403 3.3599476439790585403 3.5772251308900542277 3.5772251308900542277 3.5772251308900542277 2.0759162303664919769 2.0759162303664919769 2.0759162303664919769 3.270942408376964039 3.270942408376964039 3.270942408376964039 4.7094240837696315083 4.7094240837696315083 4.7094240837696315083 3.0589005235602084731 3.0589005235602084731 3.0589005235602084731 3.7683246073298444223 3.7683246073298444223 3.7683246073298444223 1.878272251308900298 1.878272251308900298 1.878272251308900298 1.5628272251308901186 1.5628272251308901186 1.5628272251308901186 1.9973821989528792731 1.9973821989528792731 1.9973821989528792731 1.6492146596858630048 1.6492146596858630048 1.6492146596858630048 1.3612565445026179045 1.3612565445026179045 1.3612565445026179045 1.3442408376963348449 1.3442408376963348449 1.3442408376963348449 2.112565445026178157 2.112565445026178157 2.112565445026178157 2.1204188481675387834 2.1204188481675387834 2.1204188481675387834 1.3664921465968589143 1.3664921465968589143 1.3664921465968589143 2.8481675392670151581 2.8481675392670151581 2.8481675392670151581 2.1753926701570680535 2.1753926701570680535 2.1753926701570680535 1.3612565445026181266 1.3612565445026181266 1.3612565445026181266 1.2094240837696341728 1.2094240837696341728 1.2094240837696341728 1.1924083769633513352 1.1924083769633513352 1.1924083769633513352 1.7316753926701566879 1.7316753926701566879 1.7316753926701566879 1.4227748691099482148 1.4227748691099482148 1.4227748691099482148 2.4790575916230355169 2.4790575916230355169 2.4790575916230355169 3.1191099476439805294 3.1191099476439805294 3.1191099476439805294 3.1178010471204196108 3.1178010471204196108 3.1178010471204196108 3.3403141361256554198 3.3403141361256554198 3.3403141361256554198 2.6884816753926705779 2.6884816753926705779 2.6884816753926705779 3.1544502617801044586 3.1544502617801044586 3.1544502617801044586 3.2709424083769649272 3.2709424083769649272 3.2709424083769649272 3.5916230366492150061 3.5916230366492150061 3.5916230366492150061 3.3036649214659683516 3.3036649214659683516 3.3036649214659683516 3.2316753926701577981 3.2316753926701577981 3.2316753926701577981 3.1780104712041898907 3.1780104712041898907 3.1780104712041898907 1.7565445026178012622 1.7565445026178012622 1.7565445026178012622 1.4934554973821989599 1.4934554973821989599 1.4934554973821989599 1.9018324607329846199 1.9018324607329846199 1.9018324607329846199 1.7421465968586387074 1.7421465968586387074 1.7421465968586387074 1.8887434554973827616 1.8887434554973827616 1.8887434554973827616 2.1191099476439796412 2.1191099476439796412 2.1191099476439796412 2.2212041884816757786 2.2212041884816757786 2.2212041884816757786 2.4175392670157060948 2.4175392670157060948 2.4175392670157060948 1.5824607329842939052 1.5824607329842939052 1.5824607329842939052 1.7945026178010479168 1.7945026178010479168 1.7945026178010479168 2.5536649214659696838 2.5536649214659696838 2.5536649214659696838 3.0196335078534040086 3.0196335078534040086 3.0196335078534040086 3.0523560209424092093 3.0523560209424092093 3.0523560209424092093 2.9725130890052362531 2.9725130890052362531 2.9725130890052362531 3.0536649214659692397 3.0536649214659692397 3.0536649214659692397 3.0130890052356025244 3.0130890052356025244 3.0130890052356025244 2.4973821989528799392 2.4973821989528799392 2.4973821989528799392 2.6256544502617797932 2.6256544502617797932 2.6256544502617797932 2.0863874345549739964 2.0863874345549739964 2.0863874345549739964 2.8520942408376974697 2.8520942408376974697 2.8520942408376974697 2.4607329842931942032 2.4607329842931942032 2.4607329842931942032 2.2643979057591616666 2.2643979057591616666 2.2643979057591616666 2.604712041884814866 2.604712041884814866 2.604712041884814866 2.8455497382198955414 2.8455497382198955414 2.8455497382198955414 2.039267015706807129 2.039267015706807129 2.039267015706807129 2.002617801047120949 2.002617801047120949 2.002617801047120949 2.3730366492146606205 2.3730366492146606205 2.3730366492146606205 2.6374345549738231753 2.6374345549738231753 2.6374345549738231753 2.0589005235602093613 2.0589005235602093613 2.0589005235602093613 2.435863874345550073 2.435863874345550073 2.435863874345550073 2.3965968586387438322 2.3965968586387438322 2.3965968586387438322;2.2188841201716735796 2.2188841201716735796 2.2188841201716735796 2.8025751072961369026 2.8025751072961369026 2.8025751072961369026 1.5793991416309012266 1.5793991416309012266 1.5793991416309012266 1.508583690987124637 1.508583690987124637 1.508583690987124637 2.5815450643776824968 2.5815450643776824968 2.5815450643776824968 0.84120171673819754687 0.84120171673819754687 0.84120171673819754687 1.3497854077253221838 1.3497854077253221838 1.3497854077253221838 5.6223175965665239673 5.6223175965665239673 5.6223175965665239673 5.2424892703862662202 5.2424892703862662202 5.2424892703862662202 6.6137339055793979981 6.6137339055793979981 6.6137339055793979981 3.5751072961373382419 3.5751072961373382419 3.5751072961373382419 6.6459227467811139434 6.6459227467811139434 6.6459227467811139434 0.72103004291845518292 0.72103004291845518292 0.72103004291845518292 0.64806866952789721203 0.64806866952789721203 0.64806866952789721203 0.88412017167381973248 0.88412017167381973248 0.88412017167381973248 0.62017167381974269702 0.62017167381974269702 0.62017167381974269702 0.81330472103004303186 0.81330472103004303186 0.81330472103004303186 3.156652360515021627 3.156652360515021627 3.156652360515021627 1.8927038626609440364 1.8927038626609440364 1.8927038626609440364 5.7210300429184561821 5.7210300429184561821 5.7210300429184561821 1.3197424892703866206 1.3197424892703866206 1.3197424892703866206 3.4356223175965667771 3.4356223175965667771 3.4356223175965667771 2.5343347639484981038 2.5343347639484981038 2.5343347639484981038 4.9206008583690987734 4.9206008583690987734 4.9206008583690987734 6.4763948497854064712 6.4763948497854064712 6.4763948497854064712 4.4356223175965672212 4.4356223175965672212 4.4356223175965672212 5.8755364806866952065 5.8755364806866952065 5.8755364806866952065 2.9957081545064374595 2.9957081545064374595 2.9957081545064374595 1.6223175965665237452 1.6223175965665237452 1.6223175965665237452 2.4656652360515018962 2.4656652360515018962 2.4656652360515018962 1.5686695278969957634 1.5686695278969957634 1.5686695278969957634 1.5364806866952784858 1.5364806866952784858 1.5364806866952784858 1.1137339055793993303 1.1137339055793993303 1.1137339055793993303 2.600858369098713041 2.600858369098713041 2.600858369098713041 4.3948497854077261948 4.3948497854077261948 4.3948497854077261948 1.9442060085836907479 1.9442060085836907479 1.9442060085836907479 2.7210300429184544058 2.7210300429184544058 2.7210300429184544058 1.5643776824034332229 1.5643776824034332229 1.5643776824034332229 0.9699570815450641037 0.9699570815450641037 0.9699570815450641037 1.1909871244635190646 1.1909871244635190646 1.1909871244635190646 0.93347639484978528479 0.93347639484978528479 0.93347639484978528479 1.139484978540772131 1.139484978540772131 1.139484978540772131 0.73819742489270367969 0.73819742489270367969 0.73819742489270367969 1.7639484978540775906 1.7639484978540775906 1.7639484978540775906 1.2961373390557944241 1.2961373390557944241 1.2961373390557944241 0.88197424892703890631 0.88197424892703890631 0.88197424892703890631 1.3347639484978541802 1.3347639484978541802 1.3347639484978541802 1.3197424892703863986 1.3197424892703863986 1.3197424892703863986 1.6502145922746787043 1.6502145922746787043 1.6502145922746787043 2.5021459227467817144 2.5021459227467817144 2.5021459227467817144 1.8111587982832622057 1.8111587982832622057 1.8111587982832622057 2.9012875536480695615 2.9012875536480695615 2.9012875536480695615 2.2703862660944209573 2.2703862660944209573 2.2703862660944209573 2.8583690987124468208 2.8583690987124468208 2.8583690987124468208 1.2210300429184550719 1.2210300429184550719 1.2210300429184550719 1.1351931330472104786 1.1351931330472104786 1.1351931330472104786 1.3154506437768240801 1.3154506437768240801 1.3154506437768240801 1.1094420600858367898 1.1094420600858367898 1.1094420600858367898 1.2832618025751074686 1.2832618025751074686 1.2832618025751074686 1.7639484978540771465 1.7639484978540771465 1.7639484978540771465 1.6909871244635192866 1.6909871244635192866 1.6909871244635192866 2.1974248927038626533 2.1974248927038626533 2.1974248927038626533 1.3776824034334764768 1.3776824034334764768 1.3776824034334764768 1.6909871244635192866 1.6909871244635192866 1.6909871244635192866 2.0472103004291843931 2.0472103004291843931 2.0472103004291843931 2.6931330472103005569 2.6931330472103005569 2.6931330472103005569 2.9506437768240347808 2.9506437768240347808 2.9506437768240347808 2.2188841201716740237 2.2188841201716740237 2.2188841201716740237 2.8969957081545074651 2.8969957081545074651 2.8969957081545074651 2.7532188841201716833 2.7532188841201716833 2.7532188841201716833 1.9463519313304724623 1.9463519313304724623 1.9463519313304724623 1.6673819742489273121 1.6673819742489273121 1.6673819742489273121 1.2854077253218880728 1.2854077253218880728 1.2854077253218880728 2.2896995708154510574 2.2896995708154510574 2.2896995708154510574 2.4420600858369096997 2.4420600858369096997 2.4420600858369096997 1.7896995708154506133 1.7896995708154506133 1.7896995708154506133 2.0879828326180258635 2.0879828326180258635 2.0879828326180258635 1.9098712446351928662 1.9098712446351928662 1.9098712446351928662 1.6266094420600858417 1.6266094420600858417 1.6266094420600858417 1.472103004291845707 1.472103004291845707 1.472103004291845707 1.8326180257510724658 1.8326180257510724658 1.8326180257510724658 1.7017167381974245277 1.7017167381974245277 1.7017167381974245277 2.4957081545064374595 2.4957081545064374595 2.4957081545064374595 1.6437768240343351156 1.6437768240343351156 1.6437768240343351156 1.3712446351931331101 1.3712446351931331101 1.3712446351931331101;3.009182736455464191 3.009182736455464191 3.009182736455464191 5.2598714416896239499 5.2598714416896239499 5.2598714416896239499 5.7309458218549123032 5.7309458218549123032 5.7309458218549123032 5.3865932047750249012 5.3865932047750249012 5.3865932047750249012 5.865932047750228584 5.865932047750228584 5.865932047750228584 5.4591368227731882357 5.4591368227731882357 5.4591368227731882357 5.9990817263544560234 5.9990817263544560234 5.9990817263544560234 6.388429752066115519 6.388429752066115519 6.388429752066115519 6.2075298438934778389 6.2075298438934778389 6.2075298438934778389 6.3002754820936619495 6.3002754820936619495 6.3002754820936619495 6.3911845730027545542 6.3911845730027545542 6.3911845730027545542 6.5757575757575761344 6.5757575757575761344 6.5757575757575761344 4.1083562901744734575 4.1083562901744734575 4.1083562901744734575 4.8264462809917354491 4.8264462809917354491 4.8264462809917354491 5.2176308539944908915 5.2176308539944908915 5.2176308539944908915 3.0468319559228671523 3.0468319559228671523 3.0468319559228671523 3.1808999081726363478 3.1808999081726363478 3.1808999081726363478 4.7134986225895332268 4.7134986225895332268 4.7134986225895332268 5.5812672176308550931 5.5812672176308550931 5.5812672176308550931 6.1707988980716228511 6.1707988980716228511 6.1707988980716228511 3.3544536271809008987 3.3544536271809008987 3.3544536271809008987 3.69605142332415193 3.69605142332415193 3.69605142332415193 4.0826446280991746107 4.0826446280991746107 4.0826446280991746107 5.9696969696969723884 5.9696969696969723884 5.9696969696969723884 6.2387511478420556443 6.2387511478420556443 6.2387511478420556443 5.8741965105601483543 5.8741965105601483543 5.8741965105601483543 6.224977043158860468 6.224977043158860468 6.224977043158860468 5.5068870523415993645 5.5068870523415993645 5.5068870523415993645 4.7520661157024806087 4.7520661157024806087 4.7520661157024806087 5.4646464646464680825 5.4646464646464680825 5.4646464646464680825 4.7630853994490358616 4.7630853994490358616 4.7630853994490358616 4.8402203856749306254 4.8402203856749306254 4.8402203856749306254 4.0817263544536270814 4.0817263544536270814 4.0817263544536270814 3.3544536271809017869 3.3544536271809017869 3.3544536271809017869 5.280991735537190479 5.280991735537190479 5.280991735537190479 3.766758494031221538 3.766758494031221538 3.766758494031221538 2.5858585858585869666 2.5858585858585869666 2.5858585858585869666 1.8842975206611571881 1.8842975206611571881 1.8842975206611571881 2.2653810835629006881 2.2653810835629006881 2.2653810835629006881 3.0991735537190088223 3.0991735537190088223 3.0991735537190088223 2.7630853994490349734 2.7630853994490349734 2.7630853994490349734 1.6639118457300270393 1.6639118457300270393 1.6639118457300270393 1.4995408631772260133 1.4995408631772260133 1.4995408631772260133 1.7731864095500455836 1.7731864095500455836 1.7731864095500455836 2.1248852157943081131 2.1248852157943081131 2.1248852157943081131 2.2203856749311303709 2.2203856749311303709 2.2203856749311303709 2.3810835629017459425 2.3810835629017459425 2.3810835629017459425 1.8319559228650146299 1.8319559228650146299 1.8319559228650146299 1.979797979797980112 1.979797979797980112 1.979797979797980112 2.3094582185491288051 2.3094582185491288051 2.3094582185491288051 2.4416896235078064947 2.4416896235078064947 2.4416896235078064947 2.4802571166207534326 2.4802571166207534326 2.4802571166207534326 2.1955922865013777212 2.1955922865013777212 2.1955922865013777212 2.1689623507805335656 2.1689623507805335656 2.1689623507805335656 1.0890725436179982122 1.0890725436179982122 1.0890725436179982122 1.2874196510560151907 1.2874196510560151907 1.2874196510560151907 1.417814508723599376 1.417814508723599376 1.417814508723599376 0.61616161616161613246 0.61616161616161613246 0.61616161616161613246 0.69513314967860428961 0.69513314967860428961 0.69513314967860428961 1.2350780532598719663 1.2350780532598719663 1.2350780532598719663 1.661157024793388004 1.661157024793388004 1.661157024793388004 1.7043158861340672594 1.7043158861340672594 1.7043158861340672594 0.84481175390266316505 0.84481175390266316505 0.84481175390266316505 1.0055096418732782926 1.0055096418732782926 1.0055096418732782926 1.3884297520661159631 1.3884297520661159631 1.3884297520661159631 2.0064279155188247117 2.0064279155188247117 2.0064279155188247117 2.1955922865013786094 2.1955922865013786094 2.1955922865013786094 1.8448117539026636091 1.8448117539026636091 1.8448117539026636091 2.0018365472910932823 2.0018365472910932823 2.0018365472910932823 1.8714416896235077648 1.8714416896235077648 1.8714416896235077648 1.3737373737373741456 1.3737373737373741456 1.3737373737373741456 1.4242424242424247538 1.4242424242424247538 1.4242424242424247538 1.1542699724517906379 1.1542699724517906379 1.1542699724517906379 1.5766758494031223314 1.5766758494031223314 1.5766758494031223314 1.4380165289256197081 1.4380165289256197081 1.4380165289256197081 1.1946740128558313021 1.1946740128558313021 1.1946740128558313021 1.4977043158861340633 1.4977043158861340633 1.4977043158861340633 1.4086317722681362952 1.4086317722681362952 1.4086317722681362952 1.000000000000000222 1.000000000000000222 1.000000000000000222 0.87327823691460038091 0.87327823691460038091 0.87327823691460038091 1.1505968778696049615 1.1505968778696049615 1.1505968778696049615 1.3498622589531683591 1.3498622589531683591 1.3498622589531683591 1.3902662993572081351 1.3902662993572081351 1.3902662993572081351 0.91460055096418724219 0.91460055096418724219 0.91460055096418724219 0.78879706152433415323 0.78879706152433415323 0.78879706152433415323;3.9089481946624862196 3.9089481946624862196 3.9089481946624862196 5.3076923076923083755 5.3076923076923083755 5.3076923076923083755 6.1993720565149130763 6.1993720565149130763 6.1993720565149130763 6.16326530612244472 6.16326530612244472 6.16326530612244472 6.2574568288854015563 6.2574568288854015563 6.2574568288854015563 6.0753532182103597847 6.0753532182103597847 6.0753532182103597847 6.2339089481946619031 6.2339089481946619031 6.2339089481946619031 6.0062794348508647957 6.0062794348508647957 6.0062794348508647957 6.229199372056516637 6.229199372056516637 6.229199372056516637 5.9152276295133434658 5.9152276295133434658 5.9152276295133434658 6.1004709576138171911 6.1004709576138171911 6.1004709576138171911 5.8288854003139753956 5.8288854003139753956 5.8288854003139753956 4.3767660910518113582 4.3767660910518113582 4.3767660910518113582 5.266875981161694753 5.266875981161694753 5.266875981161694753 5.5934065934065921866 5.5934065934065921866 5.5934065934065921866 3.15384615384615552 3.15384615384615552 3.15384615384615552 3.3704866562009452302 3.3704866562009452302 3.3704866562009452302 4.7488226059654685685 4.7488226059654685685 4.7488226059654685685 5.6891679748822578944 5.6891679748822578944 5.6891679748822578944 5.6985871271585528675 5.6985871271585528675 5.6985871271585528675 3.5525902668759847813 3.5525902668759847813 3.5525902668759847813 3.9403453689168008722 3.9403453689168008722 3.9403453689168008722 4.6310832025117729671 4.6310832025117729671 4.6310832025117729671 5.5023547880690744094 5.5023547880690744094 5.5023547880690744094 5.5572998430141291593 5.5572998430141291593 5.5572998430141291593 5.4772370486656214439 5.4772370486656214439 5.4772370486656214439 5.7598116169544733012 5.7598116169544733012 5.7598116169544733012 5.4740973312401894901 5.4740973312401894901 5.4740973312401894901 5.2496075353218252246 5.2496075353218252246 5.2496075353218252246 5.5149136577707995599 5.5149136577707995599 5.5149136577707995599 5.1585557299843030066 5.1585557299843030066 5.1585557299843030066 5.4411302982731584166 5.4411302982731584166 5.4411302982731584166 4.9136577708006310417 4.9136577708006310417 4.9136577708006310417 4.2967032967033018664 4.2967032967033018664 4.2967032967033018664 5.4034536891679749715 5.4034536891679749715 5.4034536891679749715 5.1632653061224527136 5.1632653061224527136 5.1632653061224527136 3.4803767660910538417 3.4803767660910538417 3.4803767660910538417 3.1601255886970189835 3.1601255886970189835 3.1601255886970189835 3.5557299843014176233 3.5557299843014176233 3.5557299843014176233 4.8712715855573023305 4.8712715855573023305 4.8712715855573023305 4.1585557299843056711 4.1585557299843056711 4.1585557299843056711 2.7786499215070654678 2.7786499215070654678 2.7786499215070654678 2.3265306122448992099 2.3265306122448992099 2.3265306122448992099 2.551020408163266584 2.551020408163266584 2.551020408163266584 2.8649921507064375348 2.8649921507064375348 2.8649921507064375348 2.692307692307694289 2.692307692307694289 2.692307692307694289 2.8791208791208804385 2.8791208791208804385 2.8791208791208804385 2.9450549450549470265 2.9450549450549470265 2.9450549450549470265 2.9277864992150735013 2.9277864992150735013 2.9277864992150735013 2.9136577708006310417 2.9136577708006310417 2.9136577708006310417 2.9843014128728428958 2.9843014128728428958 2.9843014128728428958 3.0062794348508674602 3.0062794348508674602 3.0062794348508674602 2.8854003139717452342 2.8854003139717452342 2.8854003139717452342 2.8194662480376799785 2.8194662480376799785 2.8194662480376799785 2.6200941915227655699 2.6200941915227655699 2.6200941915227655699 2.7268445839874435599 2.7268445839874435599 2.7268445839874435599 2.4693877551020424477 2.4693877551020424477 2.4693877551020424477 2.5463108320251208738 2.5463108320251208738 2.5463108320251208738 2.532182103610677526 2.532182103610677526 2.532182103610677526 1.9591836734693905964 1.9591836734693905964 1.9591836734693905964 2.1852433281004728371 2.1852433281004728371 2.1852433281004728371 2.0345368916797514913 2.0345368916797514913 2.0345368916797514913 1.9748822605965481447 1.9748822605965481447 1.9748822605965481447 1.7111459968602851234 1.7111459968602851234 1.7111459968602851234 2.5290423861852437959 2.5290423861852437959 2.5290423861852437959 3.0298273155416026725 3.0298273155416026725 3.0298273155416026725 3.2119309262166426677 3.2119309262166426677 3.2119309262166426677 3.2605965463108361746 3.2605965463108361746 3.2605965463108361746 2.7268445839874431158 2.7268445839874431158 2.7268445839874431158 2.9638932496075351963 2.9638932496075351963 2.9638932496075351963 3.3249607535321850094 3.3249607535321850094 3.3249607535321850094 2.8901098901098922767 2.8901098901098922767 2.8901098901098922767 3.127158555729988354 3.127158555729988354 3.127158555729988354 2.769230769230771827 2.769230769230771827 2.769230769230771827 4.3799058084772397592 4.3799058084772397592 4.3799058084772397592 1.4866562009419177492 1.4866562009419177492 1.4866562009419177492 1.7959183673469414355 1.7959183673469414355 1.7959183673469414355 1.6452119309262187574 1.6452119309262187574 1.6452119309262187574 1.35949764521193317 1.35949764521193317 1.35949764521193317 1.1083202511773955212 1.1083202511773955212 1.1083202511773955212 2.0329670329670355144 2.0329670329670355144 2.0329670329670355144 1.4536891679748837891 1.4536891679748837891 1.4536891679748837891 4.2182103610675074634 4.2182103610675074634 4.2182103610675074634 1.6169544740973338381 1.6169544740973338381 1.6169544740973338381 1.4788069073783376428 1.4788069073783376428 1.4788069073783376428;2.7179487179487162862 2.7179487179487162862 2.7179487179487162862 2.4376068376068356081 2.4376068376068356081 2.4376068376068356081 2.3521367521367499975 2.3521367521367499975 2.3521367521367499975 2.4017094017093993941 2.4017094017093993941 2.4017094017093993941 2.8119658119658099693 2.8119658119658099693 2.8119658119658099693 1.9760683760683745991 1.9760683760683745991 1.9760683760683745991 2.131623931623929824 2.131623931623929824 2.131623931623929824 3.1948717948717924031 3.1948717948717924031 3.1948717948717924031 3.1982905982905958098 3.1982905982905958098 3.1982905982905958098 3.9914529914529901511 3.9914529914529901511 3.9914529914529901511 2.4307692307692283507 2.4307692307692283507 2.4307692307692283507 3.1606837606837583365 3.1606837606837583365 3.1606837606837583365 1.8461538461538449241 1.8461538461538449241 1.8461538461538449241 1.6888888888888877737 1.6888888888888877737 1.6888888888888877737 1.7521367521367501308 1.7521367521367501308 1.7521367521367501308 1.8376068376068364074 1.8376068376068364074 1.8376068376068364074 2.157264957264955374 2.157264957264955374 2.157264957264955374 2.2461538461538439471 2.2461538461538439471 2.2461538461538439471 1.752136752136751241 1.752136752136751241 1.752136752136751241 2.0273504273504254769 2.0273504273504254769 2.0273504273504254769 2.5076923076923050004 2.5076923076923050004 2.5076923076923050004 2.8478632478632457392 2.8478632478632457392 2.8478632478632457392 3.2649572649572622396 3.2649572649572622396 3.2649572649572622396 3.6376068376068348975 3.6376068376068348975 3.6376068376068348975 3.9658119658119641571 3.9658119658119641571 3.9658119658119641571 3.7811965811965788653 3.7811965811965788653 3.7811965811965788653 3.3042735042735027484 3.3042735042735027484 3.3042735042735027484 3.458119658119656048 3.458119658119656048 3.458119658119656048 3.9042735042735032813 3.9042735042735032813 3.9042735042735032813 4.1521367521367507081 4.1521367521367507081 4.1521367521367507081 4.0068376068376068133 4.0068376068376068133 4.0068376068376068133 3.7965811965811950834 3.7965811965811950834 3.7965811965811950834 3.6119658119658111239 3.6119658119658111239 3.6119658119658111239 2.8837606837606815091 2.8837606837606815091 2.8837606837606815091 2.5487179487179458803 2.5487179487179458803 2.5487179487179458803 2.8153846153846124878 2.8153846153846124878 2.8153846153846124878 3.0239316239316220702 3.0239316239316220702 3.0239316239316220702 2.9914529914529892629 2.9914529914529892629 2.9914529914529892629 2.7316239316239285806 2.7316239316239285806 2.7316239316239285806 2.9367521367521343123 2.9367521367521343123 2.9367521367521343123 2.7931623931623916768 2.7931623931623916768 2.7931623931623916768 2.7384615384615362821 2.7384615384615362821 2.7384615384615362821 2.4717948717948696746 2.4717948717948696746 2.4717948717948696746 2.3162393162393142276 2.3162393162393142276 2.3162393162393142276 2.7572649572649554628 2.7572649572649554628 2.7572649572649554628 2.6427350427350408957 2.6427350427350408957 2.6427350427350408957 2.9914529914529892629 2.9914529914529892629 2.9914529914529892629 2.4581196581196564921 2.4581196581196564921 2.4581196581196564921 2.8273504273504244111 2.8273504273504244111 2.8273504273504244111 3.2786324786324767544 3.2786324786324767544 3.2786324786324767544 3.3282051282051261509 3.3282051282051261509 3.3282051282051261509 3.3846153846153823608 3.3846153846153823608 3.3846153846153823608 3.0273504273504245887 3.0273504273504245887 3.0273504273504245887 3.1333333333333301951 3.1333333333333301951 3.1333333333333301951 1.7059829059829052511 1.7059829059829052511 1.7059829059829052511 1.6376068376068366739 1.6376068376068366739 1.6376068376068366739 1.8461538461538449241 1.8461538461538449241 1.8461538461538449241 1.5658119658119651341 1.5658119658119651341 1.5658119658119651341 1.6991452991452984378 1.6991452991452984378 1.6991452991452984378 1.7982905982905972309 1.7982905982905972309 1.7982905982905972309 2.0495726495726485084 2.0495726495726485084 2.0495726495726485084 2.0666666666666650976 2.0666666666666650976 2.0666666666666650976 1.4051282051282039109 1.4051282051282039109 1.4051282051282039109 1.4683760683760671562 1.4683760683760671562 1.4683760683760671562 2.5555555555555531377 2.5555555555555531377 2.5555555555555531377 3.4153846153846121325 3.4153846153846121325 3.4153846153846121325 3.5555555555555526936 3.5555555555555526936 3.5555555555555526936 3.5743589743589709862 3.5743589743589709862 3.5743589743589709862 3.1846153846153817391 3.1846153846153817391 3.1846153846153817391 3.2461538461538430589 3.2461538461538430589 3.2461538461538430589 3.0051282051282024455 3.0051282051282024455 3.0051282051282024455 3.2547008547008520196 3.2547008547008520196 3.2547008547008520196 2.7965811965811941953 2.7965811965811941953 2.7965811965811941953 3.1982905982905958098 3.1982905982905958098 3.1982905982905958098 2.8393162393162376667 2.8393162393162376667 2.8393162393162376667 1.897435897435896246 1.897435897435896246 1.897435897435896246 2.2051282051282035113 2.2051282051282035113 2.2051282051282035113 2.4085470085470062074 2.4085470085470062074 2.4085470085470062074 1.535042735042733808 1.535042735042733808 1.535042735042733808 1.4974358974358965568 1.4974358974358965568 1.4974358974358965568 1.8991452991452977273 1.8991452991452977273 1.8991452991452977273 2.2700854700854682378 2.2700854700854682378 2.2700854700854682378 1.9880341880341860783 1.9880341880341860783 1.9880341880341860783 1.6136752136752126052 1.6136752136752126052 1.6136752136752126052 1.5965811965811953499 1.5965811965811953499 1.5965811965811953499;3.0144546649145844697 3.0144546649145844697 3.0144546649145844697 3.699080157687249848 3.699080157687249848 3.699080157687249848 4.1721419185282497821 4.1721419185282497821 4.1721419185282497821 3.9224704336399445204 3.9224704336399445204 3.9224704336399445204 4.4980289093298253533 4.4980289093298253533 4.4980289093298253533 3.904073587385019195 3.904073587385019195 3.904073587385019195 4.2549277266754259585 4.2549277266754259585 4.2549277266754259585 4.7608409986859383523 4.7608409986859383523 4.7608409986859383523 4.6688567674112979589 4.6688567674112979589 4.6688567674112979589 4.9474375821287752686 4.9474375821287752686 4.9474375821287752686 4.3403416557161635936 4.3403416557161635936 4.3403416557161635936 4.8909329829172154547 4.8909329829172154547 4.8909329829172154547 2.8975032851511159926 2.8975032851511159926 2.8975032851511159926 3.0223390275952688455 3.0223390275952688455 3.0223390275952688455 3.1353482260183973551 3.1353482260183973551 3.1353482260183973551 2.5650459921156372189 2.5650459921156372189 2.5650459921156372189 2.750328515111693406 2.750328515111693406 2.750328515111693406 3.0302233902759496686 3.0302233902759496686 3.0302233902759496686 2.8751642575558475912 2.8751642575558475912 2.8751642575558475912 3.4402102496714834778 3.4402102496714834778 3.4402102496714834778 2.8278580814717462211 2.8278580814717462211 2.8278580814717462211 2.957950065703020659 2.957950065703020659 2.957950065703020659 3.8147174770039384839 3.8147174770039384839 3.8147174770039384839 4.8226018396846255243 4.8226018396846255243 4.8226018396846255243 4.9986859395532192707 4.9986859395532192707 4.9986859395532192707 4.9960578186596578121 4.9960578186596578121 4.9960578186596578121 4.7766097240473062158 4.7766097240473062158 4.7766097240473062158 4.5834428383705656529 4.5834428383705656529 4.5834428383705656529 4.8777923784494072734 4.8777923784494072734 4.8777923784494072734 5.1668856767411277531 5.1668856767411277531 5.1668856767411277531 4.9737187910643889666 4.9737187910643889666 4.9737187910643889666 4.8725361366622870207 4.8725361366622870207 4.8725361366622870207 4.5545335085413931608 4.5545335085413931608 4.5545335085413931608 2.884362680683311364 2.884362680683311364 2.884362680683311364 3.1064388961892253072 3.1064388961892253072 3.1064388961892253072 2.9750328515111710281 2.9750328515111710281 2.9750328515111710281 2.8423127463863329112 2.8423127463863329112 2.8423127463863329112 2.6412614980289084166 2.6412614980289084166 2.6412614980289084166 2.7201051248357424051 2.7201051248357424051 2.7201051248357424051 3.1865965834428391368 3.1865965834428391368 3.1865965834428391368 3.0341655716162936329 3.0341655716162936329 3.0341655716162936329 2.5177398160315358489 2.5177398160315358489 2.5177398160315358489 2.1813403416557153314 2.1813403416557153314 2.1813403416557153314 2.2733245729303535043 2.2733245729303535043 2.2733245729303535043 2.7122207621550580292 2.7122207621550580292 2.7122207621550580292 2.6859395532194469958 2.6859395532194469958 2.6859395532194469958 2.9592641261498022764 2.9592641261498022764 2.9592641261498022764 2.4047306176084086715 2.4047306176084086715 2.4047306176084086715 2.7766097240473053276 2.7766097240473053276 2.7766097240473053276 3.1957950065703002451 3.1957950065703002451 3.1957950065703002451 3.26675427069645119 3.26675427069645119 3.26675427069645119 3.2759526938239136307 3.2759526938239136307 3.2759526938239136307 3.0249671484888289719 3.0249671484888289719 3.0249671484888289719 3.1248357424441497443 3.1248357424441497443 3.1248357424441497443 1.5019710906701697617 1.5019710906701697617 1.5019710906701697617 1.4099868593955311447 1.4099868593955311447 1.4099868593955311447 1.6767411300919832229 1.6767411300919832229 1.6767411300919832229 1.4244415243101171686 1.4244415243101171686 1.4244415243101171686 1.5203679369250975295 1.5203679369250975295 1.5203679369250975295 1.78318002628120853 1.78318002628120853 1.78318002628120853 2.0407358738501955031 2.0407358738501955031 2.0407358738501955031 2.1287779237844923763 2.1287779237844923763 2.1287779237844923763 1.3166885676741124644 1.3166885676741124644 1.3166885676741124644 1.498028909329828684 1.498028909329828684 1.498028909329828684 2.5808147174770037502 2.5808147174770037502 2.5808147174770037502 3.321944809461232051 3.321944809461232051 3.321944809461232051 3.3324572930354769973 3.3324572930354769973 3.3324572930354769973 3.3823915900131384937 3.3823915900131384937 3.3823915900131384937 3.1747700394218099085 3.1747700394218099085 3.1747700394218099085 3.2404730617608388243 3.2404730617608388243 3.2404730617608388243 2.8961892247043352633 2.8961892247043352633 2.8961892247043352633 3.1116951379763460039 3.1116951379763460039 3.1116951379763460039 2.5597897503285151899 2.5597897503285151899 2.5597897503285151899 3.0525624178712194023 3.0525624178712194023 3.0525624178712194023 2.712220762155057141 2.712220762155057141 2.712220762155057141 2.02496714848882986 2.02496714848882986 2.02496714848882986 2.1918528252299598336 2.1918528252299598336 2.1918528252299598336 2.4954007884362670033 2.4954007884362670033 2.4954007884362670033 1.7779237844940853908 1.7779237844940853908 1.7779237844940853908 1.6925098554533508644 1.6925098554533508644 1.6925098554533508644 2.1287779237844932645 2.1287779237844932645 2.1287779237844932645 2.3508541392904072076 2.3508541392904072076 2.3508541392904072076 2.0420499342969771206 2.0420499342969771206 2.0420499342969771206 2.0762155059132711976 2.0762155059132711976 2.0762155059132711976 2.0525624178712229551 2.0525624178712229551 2.0525624178712229551;2.7373167981961685769 2.7373167981961685769 2.7373167981961685769 3.9695603156707988113 3.9695603156707988113 3.9695603156707988113 3.5659526493799322822 3.5659526493799322822 3.5659526493799322822 3.452085682074407913 3.452085682074407913 3.452085682074407913 4.3359639233370916855 4.3359639233370916855 4.3359639233370916855 2.9481397970687730492 2.9481397970687730492 2.9481397970687730492 3.4385569334836523225 3.4385569334836523225 3.4385569334836523225 6.104847801578356048 6.104847801578356048 6.104847801578356048 5.8072153325817374991 5.8072153325817374991 5.8072153325817374991 6.6031567080045068252 6.6031567080045068252 6.6031567080045068252 4.8996617812852338858 4.8996617812852338858 4.8996617812852338858 6.6448703494926677493 6.6448703494926677493 6.6448703494926677493 2.2480270574971807918 2.2480270574971807918 2.2480270574971807918 2.4317925591882763037 2.4317925591882763037 2.4317925591882763037 2.5794813979706883167 2.5794813979706883167 2.5794813979706883167 1.8917700112739568308 1.8917700112739568308 1.8917700112739568308 2.0439684329199550028 2.0439684329199550028 2.0439684329199550028 3.7959413754227715465 3.7959413754227715465 3.7959413754227715465 3.4047350620067633464 3.4047350620067633464 3.4047350620067633464 5.8060879368658451227 5.8060879368658451227 5.8060879368658451227 2.4261555806087944376 2.4261555806087944376 2.4261555806087944376 3.3912063134160086442 3.3912063134160086442 3.3912063134160086442 3.4126268320180375149 3.4126268320180375149 3.4126268320180375149 5.0766629086809471616 5.0766629086809471616 5.0766629086809471616 6.2931228861330295032 6.2931228861330295032 6.2931228861330295032 4.5828635851183747718 4.5828635851183747718 4.5828635851183747718 5.6662908680947019491 5.6662908680947019491 5.6662908680947019491 3.7001127395715895929 3.7001127395715895929 3.7001127395715895929 3.6042841037204040866 3.6042841037204040866 3.6042841037204040866 3.8940248027057480229 3.8940248027057480229 3.8940248027057480229 3.7418263810597509611 3.7418263810597509611 3.7418263810597509611 3.3494926719278468319 3.3494926719278468319 3.3494926719278468319 3.384441939120631293 3.384441939120631293 3.384441939120631293 2.7497181510710264618 2.7497181510710264618 2.7497181510710264618 4.1431792559188265201 4.1431792559188265201 4.1431792559188265201 2.6809470124013525805 2.6809470124013525805 2.6809470124013525805 2.4554678692220979208 2.4554678692220979208 2.4554678692220979208 1.8782412626832016844 1.8782412626832016844 1.8782412626832016844 2.215332581736188633 2.215332581736188633 2.215332581736188633 2.6324689966178138611 2.6324689966178138611 2.6324689966178138611 2.7373167981961672446 2.7373167981961672446 2.7373167981961672446 1.7812852311161209151 1.7812852311161209151 1.7812852311161209151 1.7384441939120631737 1.7384441939120631737 1.7384441939120631737 1.8365276211950378737 1.8365276211950378737 1.8365276211950378737 2.0405862457722645509 2.0405862457722645509 2.0405862457722645509 1.9368658399098075407 1.9368658399098075407 1.9368658399098075407 2.2784667418263806482 2.2784667418263806482 2.2784667418263806482 1.8793686583990971695 1.8793686583990971695 1.8793686583990971695 2.0372040586245758753 2.0372040586245758753 2.0372040586245758753 2.4892897406989855646 2.4892897406989855646 2.4892897406989855646 2.5839909808342738096 2.5839909808342738096 2.5839909808342738096 2.7993235625704628866 2.7993235625704628866 2.7993235625704628866 2.2807215332581725065 2.2807215332581725065 2.2807215332581725065 2.317925591882749714 2.317925591882749714 2.317925591882749714 1.0281848928974057777 1.0281848928974057777 1.0281848928974057777 1.3077790304396843535 1.3077790304396843535 1.3077790304396843535 1.4712514092446451475 1.4712514092446451475 1.4712514092446451475 0.44983089064261527756 0.44983089064261527756 0.44983089064261527756 0.52874859075535474151 0.52874859075535474151 0.52874859075535474151 1.3043968432919950118 1.3043968432919950118 1.3043968432919950118 1.7046223224351735315 1.7046223224351735315 1.7046223224351735315 1.9188275084554655692 1.9188275084554655692 1.9188275084554655692 0.71364148816234418415 0.71364148816234418415 0.71364148816234418415 1.1668545659526488034 1.1668545659526488034 1.1668545659526488034 1.413754227733933222 1.413754227733933222 1.413754227733933222 2.1161217587373153393 2.1161217587373153393 2.1161217587373153393 2.4036076662908678614 2.4036076662908678614 2.4036076662908678614 1.9740698985343845262 1.9740698985343845262 1.9740698985343845262 2.1555806087936857374 2.1555806087936857374 2.1555806087936857374 1.9797068771138657262 1.9797068771138657262 1.9797068771138657262 1.4430665163472371493 1.4430665163472371493 1.4430665163472371493 1.5682074408117243625 1.5682074408117243625 1.5682074408117243625 1.2728297632468985601 1.2728297632468985601 1.2728297632468985601 1.6358511837655007604 1.6358511837655007604 1.6358511837655007604 1.3855693348365276663 1.3855693348365276663 1.3855693348365276663 1.2818489289740693238 1.2818489289740693238 1.2818489289740693238 1.7519729425028174319 1.7519729425028174319 1.7519729425028174319 1.5828635851183761041 1.5828635851183761041 1.5828635851183761041 1.0721533258173610026 1.0721533258173610026 1.0721533258173610026 0.98534385569334748123 0.98534385569334748123 0.98534385569334748123 1.1961668545659522866 1.1961668545659522866 1.1961668545659522866 1.4272829763246899226 1.4272829763246899226 1.4272829763246899226 1.3156708004509580778 1.3156708004509580778 1.3156708004509580778 0.99774520856820636538 0.99774520856820636538 0.99774520856820636538 0.87147688838782322307 0.87147688838782322307 0.87147688838782322307;3.4145408163265313917 3.4145408163265313917 3.4145408163265313917 5.7946428571428549859 5.7946428571428549859 5.7946428571428549859 6.1109693877550999019 6.1109693877550999019 6.1109693877550999019 5.8890306122448974335 5.8890306122448974335 5.8890306122448974335 6.0471938775510203357 6.0471938775510203357 6.0471938775510203357 6.0676020408163244824 6.0676020408163244824 6.0676020408163244824 6.2640306122448965453 6.2640306122448965453 6.2640306122448965453 6.1543367346938770979 6.1543367346938770979 6.1543367346938770979 6.0778061224489787762 6.0778061224489787762 6.0778061224489787762 6.0063775510204067132 6.0063775510204067132 6.0063775510204067132 6.2882653061224473845 6.2882653061224473845 6.2882653061224473845 6.2346938775510158948 6.2346938775510158948 6.2346938775510158948 5.0778061224489752234 5.0778061224489752234 5.0778061224489752234 5.8176020408163244824 5.8176020408163244824 5.8176020408163244824 6.0867346938775517273 6.0867346938775517273 6.0867346938775517273 3.8813775510204071573 3.8813775510204071573 3.8813775510204071573 4.3864795918367320837 4.3864795918367320837 4.3864795918367320837 5.5816326530612228041 5.5816326530612228041 5.5816326530612228041 6.3176020408163253705 6.3176020408163253705 6.3176020408163253705 6.3660714285714261607 6.3660714285714261607 6.3660714285714261607 4.7857142857142846992 4.7857142857142846992 4.7857142857142846992 4.966836734693877986 4.966836734693877986 4.966836734693877986 5.4642857142857117481 5.4642857142857117481 5.4642857142857117481 6.2806122448979584405 6.2806122448979584405 6.2806122448979584405 6.0191326530612236922 6.0191326530612236922 6.0191326530612236922 6.0459183673469381048 6.0459183673469381048 6.0459183673469381048 6.2742346938775490628 6.2742346938775490628 6.2742346938775490628 6.4604591836734694965 6.4604591836734694965 6.4604591836734694965 5.8061224489795915105 5.8061224489795915105 5.8061224489795915105 5.9591836734693863775 5.9591836734693863775 5.9591836734693863775 5.5280612244897939789 5.5280612244897939789 5.5280612244897939789 6.2397959183673430417 6.2397959183673430417 6.2397959183673430417 5.732142857142855874 5.732142857142855874 5.732142857142855874 5.4017857142857126362 5.4017857142857126362 5.4017857142857126362 6.2920918367346931888 6.2920918367346931888 6.2920918367346931888 6.320153061224488944 6.320153061224488944 6.320153061224488944 4.741071428571427937 4.741071428571427937 4.741071428571427937 4.3622448979591821328 4.3622448979591821328 4.3622448979591821328 4.3775510204081626853 4.3775510204081626853 4.3775510204081626853 5.9362244897959177692 5.9362244897959177692 5.9362244897959177692 5.2091836734693854893 5.2091836734693854893 5.2091836734693854893 3.6658163265306118461 3.6658163265306118461 3.6658163265306118461 2.7920918367346940769 2.7920918367346940769 2.7920918367346940769 1.2474489795918370927 1.2474489795918370927 1.2474489795918370927 1.5204081632653061451 1.5204081632653061451 1.5204081632653061451 1.5216836734693881539 1.5216836734693881539 1.5216836734693881539 1.8163265306122451381 1.8163265306122451381 1.8163265306122451381 1.2142857142857146346 1.2142857142857146346 1.2142857142857146346 1.4681122448979591066 1.4681122448979591066 1.4681122448979591066 1.9311224489795926207 1.9311224489795926207 1.9311224489795926207 2.1135204081632656958 2.1135204081632656958 2.1135204081632656958 2.2321428571428572063 2.2321428571428572063 2.2321428571428572063 1.6785714285714290472 1.6785714285714290472 1.6785714285714290472 1.6619897959183678182 1.6619897959183678182 1.6619897959183678182 0.92602040816326580686 0.92602040816326580686 0.92602040816326580686 0.90306122448979631034 0.90306122448979631034 0.90306122448979631034 1.0025510204081635734 1.0025510204081635734 1.0025510204081635734 0.76147959183673508132 0.76147959183673508132 0.76147959183673508132 0.84821428571428592047 0.84821428571428592047 0.84821428571428592047 1.0318877551020413375 1.0318877551020413375 1.0318877551020413375 1.2206632653061226801 1.2206632653061226801 1.2206632653061226801 1.3265306122448983217 1.3265306122448983217 1.3265306122448983217 0.70663265306122469145 0.70663265306122469145 0.70663265306122469145 0.70790816326530636715 0.70790816326530636715 0.70790816326530636715 1.2997448979591843532 1.2997448979591843532 1.2997448979591843532 1.8137755102040820088 1.8137755102040820088 1.8137755102040820088 2.0803571428571427937 2.0803571428571427937 2.0803571428571427937 1.8864795918367343042 1.8864795918367343042 1.8864795918367343042 1.6785714285714290472 1.6785714285714290472 1.6785714285714290472 1.6658163265306125123 1.6658163265306125123 1.6658163265306125123 1.5280612244897961993 1.5280612244897961993 1.5280612244897961993 1.6390306122448980997 1.6390306122448980997 1.6390306122448980997 1.3227040816326536277 1.3227040816326536277 1.3227040816326536277 1.3545918367346940769 1.3545918367346940769 1.3545918367346940769 1.7346938775510203357 1.7346938775510203357 1.7346938775510203357 1.0165816326530618952 1.0165816326530618952 1.0165816326530618952 1.2665816326530614511 1.2665816326530614511 1.2665816326530614511 1.2219387755102044668 1.2219387755102044668 1.2219387755102044668 0.64540816326530647817 0.64540816326530647817 0.64540816326530647817 0.76785714285714312677 0.76785714285714312677 0.76785714285714312677 1.12117346938775575 1.12117346938775575 1.12117346938775575 0.99872448979591899043 0.99872448979591899043 0.99872448979591899043 1.738520408163266362 1.738520408163266362 1.738520408163266362 1.05867346938775575 1.05867346938775575 1.05867346938775575 0.90306122448979642137 0.90306122448979642137 0.90306122448979642137;2.8333333333333357018 2.8333333333333357018 2.8333333333333357018 2.6275720164609066565 2.6275720164609066565 2.6275720164609066565 1.5596707818930044542 1.5596707818930044542 1.5596707818930044542 1.3827160493827157506 1.3827160493827157506 1.3827160493827157506 2.4835390946502058362 2.4835390946502058362 2.4835390946502058362 0.72839506172839496578 0.72839506172839496578 0.72839506172839496578 1.434156378600823345 1.434156378600823345 1.434156378600823345 5.0390946502057616385 5.0390946502057616385 5.0390946502057616385 4.6769547325102873714 4.6769547325102873714 4.6769547325102873714 5.6296296296296297612 5.6296296296296297612 5.6296296296296297612 3.9753086419753089764 3.9753086419753089764 3.9753086419753089764 5.5905349794238681227 5.5905349794238681227 5.5905349794238681227 0.81069958847736645069 0.81069958847736645069 0.81069958847736645069 0.55555555555555558023 0.55555555555555558023 0.55555555555555558023 0.95679012345679015361 0.95679012345679015361 0.95679012345679015361 0.67489711934156382256 0.67489711934156382256 0.67489711934156382256 0.92798353909464992295 0.92798353909464992295 0.92798353909464992295 3.0020576131687262134 3.0020576131687262134 3.0020576131687262134 2.3045267489711935838 2.3045267489711935838 2.3045267489711935838 4.9176954732510314017 4.9176954732510314017 4.9176954732510314017 1.3950617283950617065 1.3950617283950617065 1.3950617283950617065 3.2078189300411525942 3.2078189300411525942 3.2078189300411525942 5.0864197530864228014 5.0864197530864228014 5.0864197530864228014 6.2242798353909503106 6.2242798353909503106 6.2242798353909503106 6.3189300411522628664 6.3189300411522628664 6.3189300411522628664 6.1954732510288090808 6.1954732510288090808 6.1954732510288090808 6.0473251028806584983 6.0473251028806584983 6.0473251028806584983 6.2345679012345698311 6.2345679012345698311 6.2345679012345698311 5.9773662551440347457 5.9773662551440347457 5.9773662551440347457 6.2304526748971191807 6.2304526748971191807 6.2304526748971191807 5.8374485596707819113 5.8374485596707819113 5.8374485596707819113 6.2736625514403305814 6.2736625514403305814 6.2736625514403305814 5.5185185185185217094 5.5185185185185217094 5.5185185185185217094 4.1975308641975317414 4.1975308641975317414 4.1975308641975317414 4.956790123456792152 4.956790123456792152 4.956790123456792152 5.3127572016460904436 5.3127572016460904436 5.3127572016460904436 3.3189300411522641987 3.3189300411522641987 3.3189300411522641987 3.2489711934156395579 3.2489711934156395579 3.2489711934156395579 3.9012345679012367938 3.9012345679012367938 3.9012345679012367938 5.1872427983539113328 5.1872427983539113328 5.1872427983539113328 4.2201646090534996603 4.2201646090534996603 4.2201646090534996603 3.2860082304526763153 3.2860082304526763153 3.2860082304526763153 2.8251028806584379538 2.8251028806584379538 2.8251028806584379538 1.500000000000000222 1.500000000000000222 1.500000000000000222 1.3744855967078195569 1.3744855967078195569 1.3744855967078195569 0.99176954732510291812 0.99176954732510291812 0.99176954732510291812 1.4238683127572018261 1.4238683127572018261 1.4238683127572018261 1.2119341563786010241 1.2119341563786010241 1.2119341563786010241 1.6111111111111111605 1.6111111111111111605 1.6111111111111111605 2.4588477366255161449 2.4588477366255161449 2.4588477366255161449 2.0925925925925943361 2.0925925925925943361 2.0925925925925943361 2.7901234567901251893 2.7901234567901251893 2.7901234567901251893 2.2633744855967092846 2.2633744855967092846 2.2633744855967092846 2.6152263374485609226 2.6152263374485609226 2.6152263374485609226 0.88271604938271619467 0.88271604938271619467 0.88271604938271619467 0.85390946502057618606 0.85390946502057618606 0.85390946502057618606 1.0493827160493829354 1.0493827160493829354 1.0493827160493829354 0.76954732510288081926 0.76954732510288081926 0.76954732510288081926 0.90329218106995901039 0.90329218106995901039 0.90329218106995901039 1.3271604938271606144 1.3271604938271606144 1.3271604938271606144 1.3127572016460911097 1.3127572016460911097 1.3127572016460911097 1.7633744855967079523 1.7633744855967079523 1.7633744855967079523 1.0308641975308645566 1.0308641975308645566 1.0308641975308645566 1.218106995884774113 1.218106995884774113 1.218106995884774113 2.2530864197530866555 2.2530864197530866555 2.2530864197530866555 2.9814814814814836197 2.9814814814814836197 2.9814814814814836197 3.006172839506173311 3.006172839506173311 3.006172839506173311 2.8600823045267502742 2.8600823045267502742 2.8600823045267502742 2.8559670781893018443 2.8559670781893018443 2.8559670781893018443 2.9876543209876551543 2.9876543209876551543 2.9876543209876551543 2.4753086419753094205 2.4753086419753094205 2.4753086419753094205 2.6584362139917701029 2.6584362139917701029 2.6584362139917701029 2.2345679012345676107 2.2345679012345676107 2.2345679012345676107 2.7695473251028808193 2.7695473251028808193 2.7695473251028808193 2.5123456790123461779 2.5123456790123461779 2.5123456790123461779 1.6893004115226342154 1.6893004115226342154 1.6893004115226342154 1.9814814814814811772 1.9814814814814811772 1.9814814814814811772 2.0761316872427983959 2.0761316872427983959 2.0761316872427983959 1.4012345679012345734 1.4012345679012345734 1.4012345679012345734 1.4876543209876544882 1.4876543209876544882 1.4876543209876544882 1.8888888888888890616 1.8888888888888890616 1.8888888888888890616 1.930041152263374471 1.930041152263374471 1.930041152263374471 2.1419753086419746069 2.1419753086419746069 2.1419753086419746069 1.9465020576131688568 1.9465020576131688568 1.9465020576131688568 1.355967078189300512 1.355967078189300512 1.355967078189300512;3.0858823529411782971 3.0858823529411782971 3.0858823529411782971 4.2647058823529375715 4.2647058823529375715 4.2647058823529375715 4.9105882352941208069 4.9105882352941208069 4.9105882352941208069 4.9811764705882319859 4.9811764705882319859 4.9811764705882319859 5.8976470588235256898 5.8976470588235256898 5.8976470588235256898 3.891764705882353681 3.891764705882353681 3.891764705882353681 4.9000000000000021316 4.9000000000000021316 4.9000000000000021316 6.423529411764700825 6.423529411764700825 6.423529411764700825 6.3976470588235248016 6.3976470588235248016 6.3976470588235248016 6.5635294117647005052 6.5635294117647005052 6.5635294117647005052 6.083529411764705408 6.083529411764705408 6.083529411764705408 6.4717647058823519757 6.4717647058823519757 6.4717647058823519757 2.0917647058823534145 2.0917647058823534145 2.0917647058823534145 2.3035294117647064915 2.3035294117647064915 2.3035294117647064915 2.7576470588235291181 2.7576470588235291181 2.7576470588235291181 1.6117647058823527662 1.6117647058823527662 1.6117647058823527662 1.7600000000000000089 1.7600000000000000089 1.7600000000000000089 3.6376470588235303438 3.6376470588235303438 3.6376470588235303438 3.8717647058823549955 3.8717647058823549955 3.8717647058823549955 5.3023529411764691588 5.3023529411764691588 5.3023529411764691588 2.1882352941176468342 2.1882352941176468342 2.1882352941176468342 3.0129411764705884558 3.0129411764705884558 3.0129411764705884558 4.8117647058823509454 4.8117647058823509454 4.8117647058823509454 6.3447058823529420835 6.3447058823529420835 6.3447058823529420835 6.4199999999999999289 6.4199999999999999289 6.4199999999999999289 6.3294117647058802945 6.3294117647058802945 6.3294117647058802945 6.1952941176470588402 6.1952941176470588402 6.1952941176470588402 6.1823529411764672759 6.1823529411764672759 6.1823529411764672759 6.0999999999999996447 6.0999999999999996447 6.0999999999999996447 6.4094117647058794773 6.4094117647058794773 6.4094117647058794773 5.8811764705882350057 5.8811764705882350057 5.8811764705882350057 6.2058823529411712983 6.2058823529411712983 6.2058823529411712983 5.8000000000000007105 5.8000000000000007105 5.8000000000000007105 3.5305882352941173608 3.5305882352941173608 3.5305882352941173608 4.5658823529411778352 4.5658823529411778352 4.5658823529411778352 4.3764705882352963329 4.3764705882352963329 4.3764705882352963329 2.5729411764705885091 2.5729411764705885091 2.5729411764705885091 2.5388235294117658114 2.5388235294117658114 2.5388235294117658114 3.2411764705882366577 3.2411764705882366577 3.2411764705882366577 4.3529411764705878696 4.3529411764705878696 4.3529411764705878696 3.8870588235294136759 3.8870588235294136759 3.8870588235294136759 2.4470588235294123969 2.4470588235294123969 2.4470588235294123969 2.3235294117647060652 2.3235294117647060652 2.3235294117647060652 1.9152941176470579254 1.9152941176470579254 1.9152941176470579254 2.1152941176470587692 2.1152941176470587692 2.1152941176470587692 1.9258823529411768227 1.9258823529411768227 1.9258823529411768227 2.3482352941176469763 2.3482352941176469763 2.3482352941176469763 1.8835294117647052303 1.8835294117647052303 1.8835294117647052303 2.1341176470588236747 2.1341176470588236747 2.1341176470588236747 2.6294117647058836695 2.6294117647058836695 2.6294117647058836695 2.7176470588235304149 2.7176470588235304149 2.7176470588235304149 2.8317647058823536277 2.8317647058823536277 2.8317647058823536277 2.4423529411764710595 2.4423529411764710595 2.4423529411764710595 2.5435294117647058165 2.5435294117647058165 2.5435294117647058165 1.1964705882352939526 1.1964705882352939526 1.1964705882352939526 1.3870588235294121215 1.3870588235294121215 1.3870588235294121215 1.4694117647058824172 1.4694117647058824172 1.4694117647058824172 0.97058823529411697439 0.97058823529411697439 0.97058823529411697439 1.0823529411764702957 1.0823529411764702957 1.0823529411764702957 1.3811764705882347837 1.3811764705882347837 1.3811764705882347837 1.5552941176470587159 1.5552941176470587159 1.5552941176470587159 1.715294117647058636 1.715294117647058636 1.715294117647058636 1.079999999999999849 1.079999999999999849 1.079999999999999849 1.2270588235294115353 1.2270588235294115353 1.2270588235294115353 2.1776470588235290471 2.1776470588235290471 2.1776470588235290471 2.6470588235294139068 2.6470588235294139068 2.6470588235294139068 2.7658823529411762365 2.7658823529411762365 2.7658823529411762365 2.5964705882352943078 2.5964705882352943078 2.5964705882352943078 2.5635294117647071666 2.5635294117647071666 2.5635294117647071666 2.5752941176470600659 2.5752941176470600659 2.5752941176470600659 2.3517647058823532014 2.3517647058823532014 2.3517647058823532014 2.4011764705882354676 2.4011764705882354676 2.4011764705882354676 2.1905882352941170588 2.1905882352941170588 2.1905882352941170588 2.377647058823530557 2.377647058823530557 2.377647058823530557 2.6635294117647072554 2.6635294117647072554 2.6635294117647072554 1.6141176470588227687 1.6141176470588227687 1.6141176470588227687 1.7835294117647051415 1.7835294117647051415 1.7835294117647051415 1.9258823529411768227 1.9258823529411768227 1.9258823529411768227 1.3105882352941176094 1.3105882352941176094 1.3105882352941176094 1.4152941176470588136 1.4152941176470588136 1.4152941176470588136 1.9141176470588225911 1.9141176470588225911 1.9141176470588225911 1.8905882352941179025 1.8905882352941179025 1.8905882352941179025 2.4117647058823532547 2.4117647058823532547 2.4117647058823532547 1.9376470588235288339 1.9376470588235288339 1.9376470588235288339 1.4988235294117642216 1.4988235294117642216 1.4988235294117642216;3.0698795180722897591 3.0698795180722897591 3.0698795180722897591 4.9253012048192772454 4.9253012048192772454 4.9253012048192772454 6.0168674698795205913 6.0168674698795205913 6.0168674698795205913 5.9325301204819300693 5.9325301204819300693 5.9325301204819300693 6.4120481927710883951 6.4120481927710883951 6.4120481927710883951 5.1542168674698807251 5.1542168674698807251 5.1542168674698807251 6.1638554216867493807 6.1638554216867493807 6.1638554216867493807 6.4891566265060243168 6.4891566265060243168 6.4891566265060243168 6.3012048192771086264 6.3012048192771086264 6.3012048192771086264 6.3710843373493970532 6.3710843373493970532 6.3710843373493970532 6.3060240963855429541 6.3060240963855429541 6.3060240963855429541 6.6000000000000031974 6.6000000000000031974 6.6000000000000031974 2.5445783132530124249 2.5445783132530124249 2.5445783132530124249 3.1156626506024100998 3.1156626506024100998 3.1156626506024100998 4.4939759036144577564 4.4939759036144577564 4.4939759036144577564 1.0072289156626508255 1.0072289156626508255 1.0072289156626508255 1.4216867469879517216 1.4216867469879517216 1.4216867469879517216 4.884337349397588568 4.884337349397588568 4.884337349397588568 5.9301204819277115732 5.9301204819277115732 5.9301204819277115732 6.561445783132532128 6.561445783132532128 6.561445783132532128 2.8626506024096394221 2.8626506024096394221 2.8626506024096394221 4.5084337349397598516 4.5084337349397598516 4.5084337349397598516 5.5036144578313246356 5.5036144578313246356 5.5036144578313246356 6.3662650602409636136 6.3662650602409636136 6.3662650602409636136 6.3012048192771077382 6.3012048192771077382 6.3012048192771077382 6.014457831325301207 6.014457831325301207 6.014457831325301207 6.4843373493975935418 6.4843373493975935418 6.4843373493975935418 6.5927710843373512617 6.5927710843373512617 6.5927710843373512617 6.1469879518072287894 6.1469879518072287894 6.1469879518072287894 6.1566265060240938922 6.1566265060240938922 6.1566265060240938922 6.1180722891566263755 6.1180722891566263755 6.1180722891566263755 6.4698795180722896703 6.4698795180722896703 6.4698795180722896703 6.0698795180722875386 6.0698795180722875386 6.0698795180722875386 5.0867469879518081299 5.0867469879518081299 5.0867469879518081299 6.4433734939759048643 6.4433734939759048643 6.4433734939759048643 6.3566265060240958462 6.3566265060240958462 6.3566265060240958462 4.1590361445783141647 4.1590361445783141647 4.1590361445783141647 3.6626506024096388003 3.6626506024096388003 3.6626506024096388003 4.3710843373493979414 4.3710843373493979414 4.3710843373493979414 5.9373493975903617326 5.9373493975903617326 5.9373493975903617326 5.2578313253012058937 5.2578313253012058937 5.2578313253012058937 3.361445783132530174 3.361445783132530174 3.361445783132530174 2.8650602409638552537 2.8650602409638552537 2.8650602409638552537 1.1710843373493977637 1.1710843373493977637 1.1710843373493977637 1.2506024096385539579 1.2506024096385539579 1.2506024096385539579 1.0578313253012050499 1.0578313253012050499 1.0578313253012050499 1.4216867469879519437 1.4216867469879519437 1.4216867469879519437 1.1349397590361445243 1.1349397590361445243 1.1349397590361445243 1.4024096385542172971 1.4024096385542172971 1.4024096385542172971 1.8481927710843379931 1.8481927710843379931 1.8481927710843379931 1.766265060240964857 1.766265060240964857 1.766265060240964857 2.2072289156626507811 2.2072289156626507811 2.2072289156626507811 1.8144578313253010293 1.8144578313253010293 1.8144578313253010293 1.8192771084337344689 1.8192771084337344689 1.8192771084337344689 0.79277108433734966297 0.79277108433734966297 0.79277108433734966297 0.80000000000000015543 0.80000000000000015543 0.80000000000000015543 0.85783132530120498327 0.85783132530120498327 0.85783132530120498327 0.72289156626506023695 0.72289156626506023695 0.72289156626506023695 0.80000000000000015543 0.80000000000000015543 0.80000000000000015543 1.0506024096385542244 1.0506024096385542244 1.0506024096385542244 1.1012048192771086708 1.1012048192771086708 1.1012048192771086708 1.3277108433734943205 1.3277108433734943205 1.3277108433734943205 0.71566265060240963347 0.71566265060240963347 0.71566265060240963347 0.71807228915662646429 0.71807228915662646429 0.71807228915662646429 1.262650602409638223 1.262650602409638223 1.262650602409638223 1.8626506024096385339 1.8626506024096385339 1.8626506024096385339 1.987951807228916179 1.987951807228916179 1.987951807228916179 1.6674698795180731281 1.6674698795180731281 1.6674698795180731281 1.8024096385542165422 1.8024096385542165422 1.8024096385542165422 1.7879518072289151132 1.7879518072289151132 1.7879518072289151132 1.457831325301204739 1.457831325301204739 1.457831325301204739 1.4987951807228916401 1.4987951807228916401 1.4987951807228916401 1.262650602409638223 1.262650602409638223 1.262650602409638223 1.5301204819277109959 1.5301204819277109959 1.5301204819277109959 1.6530120481927714771 1.6530120481927714771 1.6530120481927714771 1.0915662650602409034 1.0915662650602409034 1.0915662650602409034 1.2819277108433735357 1.2819277108433735357 1.2819277108433735357 1.2987951807228916845 1.2987951807228916845 1.2987951807228916845 0.70120481927710853753 0.70120481927710853753 0.70120481927710853753 0.80000000000000015543 0.80000000000000015543 0.80000000000000015543 1.1999999999999999556 1.1999999999999999556 1.1999999999999999556 1.1879518072289156905 1.1879518072289156905 1.1879518072289156905 1.8457831325301206071 1.8457831325301206071 1.8457831325301206071 1.1831325301204820288 1.1831325301204820288 1.1831325301204820288 0.98072289156626502038 0.98072289156626502038 0.98072289156626502038;3.4941520467836229003 3.4941520467836229003 3.4941520467836229003 4.7514619883040989379 4.7514619883040989379 4.7514619883040989379 4.5779727095516609126 4.5779727095516609126 4.5779727095516609126 4.1257309941520441399 4.1257309941520441399 4.1257309941520441399 4.454191033138402922 4.454191033138402922 4.454191033138402922 4.7144249512670572955 4.7144249512670572955 4.7144249512670572955 4.939571150097466834 4.939571150097466834 4.939571150097466834 5.2085769980506873011 5.2085769980506873011 5.2085769980506873011 4.8226120857699834588 4.8226120857699834588 4.8226120857699834588 5.1218323586744611831 5.1218323586744611831 5.1218323586744611831 5.2485380116959108321 5.2485380116959108321 5.2485380116959108321 5.4853801169590683529 5.4853801169590683529 5.4853801169590683529 4.2446393762183269871 4.2446393762183269871 4.2446393762183269871 4.6306042884990272768 4.6306042884990272768 4.6306042884990272768 5.2816764132553615241 5.2816764132553615241 5.2816764132553615241 3.2144249512670564073 3.2144249512670564073 3.2144249512670564073 3.8489278752436644204 3.8489278752436644204 3.8489278752436644204 5.2446393762183260989 5.2446393762183260989 5.2446393762183260989 5.6081871345029172815 5.6081871345029172815 5.6081871345029172815 5.818713450292390732 5.818713450292390732 5.818713450292390732 4.5360623781676423505 4.5360623781676423505 4.5360623781676423505 5.0477582846003912209 5.0477582846003912209 5.0477582846003912209 5.0584795321637470167 5.0584795321637470167 5.0584795321637470167 5.4844054580896628437 5.4844054580896628437 5.4844054580896628437 5.226120857699801725 5.226120857699801725 5.226120857699801725 5.392787524366465135 5.392787524366465135 5.392787524366465135 5.6423001949317708181 5.6423001949317708181 5.6423001949317708181 5.6374269005847894576 5.6374269005847894576 5.6374269005847894576 5.18226120857699879 5.18226120857699879 5.18226120857699879 5.4541910331383949284 5.4541910331383949284 5.4541910331383949284 4.931773879142299144 4.931773879142299144 4.931773879142299144 5.3888888888888848427 5.3888888888888848427 5.3888888888888848427 4.898635477582848452 4.898635477582848452 4.898635477582848452 5.2290448343079898308 5.2290448343079898308 5.2290448343079898308 5.880116959064318749 5.880116959064318749 5.880116959064318749 5.7426900584795248506 5.7426900584795248506 5.7426900584795248506 4.7748538011695886851 4.7748538011695886851 4.7748538011695886851 4.4220272904483444165 4.4220272904483444165 4.4220272904483444165 4.375243664717349823 4.375243664717349823 4.375243664717349823 5.4405458089668599087 5.4405458089668599087 5.4405458089668599087 4.8352826510721271802 4.8352826510721271802 4.8352826510721271802 4.0857699805068232735 4.0857699805068232735 4.0857699805068232735 3.2309941520467844178 3.2309941520467844178 3.2309941520467844178 1.8723196881091614951 1.8723196881091614951 1.8723196881091614951 2.1900584795321624831 2.1900584795321624831 2.1900584795321624831 2.0653021442495123061 2.0653021442495123061 2.0653021442495123061 2.5409356725146179379 2.5409356725146179379 2.5409356725146179379 1.7884990253411308103 1.7884990253411308103 1.7884990253411308103 2.313840155945417365 2.313840155945417365 2.313840155945417365 2.9317738791422973677 2.9317738791422973677 2.9317738791422973677 2.915204678362568913 2.915204678362568913 2.915204678362568913 3.1822612085769952373 3.1822612085769952373 3.1822612085769952373 2.7329434697855723435 2.7329434697855723435 2.7329434697855723435 2.8031189083820633456 2.8031189083820633456 2.8031189083820633456 0.98343079922027287765 0.98343079922027287765 0.98343079922027287765 0.85282651072124759928 0.85282651072124759928 0.85282651072124759928 1.2787524366471734183 1.2787524366471734183 1.2787524366471734183 0.70955165692007793332 0.70955165692007793332 0.70955165692007793332 0.79337231968810917326 0.79337231968810917326 0.79337231968810917326 1.5428849902534114147 1.5428849902534114147 1.5428849902534114147 1.7592592592592590783 1.7592592592592590783 1.7592592592592590783 2.0750487329434683659 2.0750487329434683659 2.0750487329434683659 0.86354775828460039744 0.86354775828460039744 0.86354775828460039744 1.1052631578947362812 1.1052631578947362812 1.1052631578947362812 2.1793372319688089078 2.1793372319688089078 2.1793372319688089078 2.9922027290448296455 2.9922027290448296455 2.9922027290448296455 3.0955165692007762246 3.0955165692007762246 3.0955165692007762246 2.8771929824561373046 2.8771929824561373046 2.8771929824561373046 2.9912280701754356826 2.9912280701754356826 2.9912280701754356826 3.0155945419103278304 3.0155945419103278304 3.0155945419103278304 2.2027290448343075369 2.2027290448343075369 2.2027290448343075369 2.5828460038986351677 2.5828460038986351677 2.5828460038986351677 1.6959064327485378065 1.6959064327485378065 1.6959064327485378065 2.5643274853801161228 2.5643274853801161228 2.5643274853801161228 1.9015594541910330051 1.9015594541910330051 1.9015594541910330051 1.913255360623779211 1.913255360623779211 1.913255360623779211 2.2495126705653007981 2.2495126705653007981 2.2495126705653007981 2.403508771929821819 2.403508771929821819 2.403508771929821819 1.382066276803117777 1.382066276803117777 1.382066276803117777 1.5974658869395683691 1.5974658869395683691 1.5974658869395683691 1.688109161793372115 1.688109161793372115 1.688109161793372115 2.1773879142300192058 2.1773879142300192058 2.1773879142300192058 1.5769980506822611765 1.5769980506822611765 1.5769980506822611765 1.9551656920077968849 1.9551656920077968849 1.9551656920077968849 1.2329434697855754521 1.2329434697855754521 1.2329434697855754521];

% ===== SIMULATION ========

% Input 1
x1 = x1';
% no processing

% Layer 1
z1 = negdist_apply(IW1_1,x1);
a1 = compet_apply(z1);

% Output 1
y1 = a1;
y1 = y1';
end

% ===== MODULE FUNCTIONS ========

% Negative Distance Weight Function
function z = negdist_apply(w,p,~)
[S,R] = size(w);
Q = size(p,2);
if isa(w,'gpuArray')
    z = iNegDistApplyGPU(w,p,R,S,Q);
else
    z = iNegDistApplyCPU(w,p,S,Q);
end
end
function z = iNegDistApplyCPU(w,p,S,Q)
z = zeros(S,Q);
if (Q<S)
    pt = p';
    for q=1:Q
        z(:,q) = sum(bsxfun(@minus,w,pt(q,:)).^2,2);
    end
else
    wt = w';
    for i=1:S
        z(i,:) = sum(bsxfun(@minus,wt(:,i),p).^2,1);
    end
end
z = -sqrt(z);
end
function z = iNegDistApplyGPU(w,p,R,S,Q)
p = reshape(p,1,R,Q);
sd = arrayfun(@iNegDistApplyGPUHelper,w,p);
z = -sqrt(reshape(sum(sd,2),S,Q));
end
function sd = iNegDistApplyGPUHelper(w,p)
sd = (w-p) .^ 2;
end

% Competitive Transfer Function
function a = compet_apply(n,~)
if isempty(n)
    a = n;
else
    [S,Q] = size(n);
    nanInd = any(isnan(n),1);
    a = zeros(S,Q,'like',n);
    [~,maxRows] = max(n,[],1);
    onesInd = maxRows + S*(0:(Q-1));
    a(onesInd) = 1;
    a(:,nanInd) = NaN;
end
end
