function [y1] = Ktest(x1)
%MYNEURALNETWORKFUNCTION neural network simulation function.
%
% Auto-generated by MATLAB, 25-Dec-2021 23:21:18.
%
% [y1] = myNeuralNetworkFunction(x1) takes these arguments:
%   x = Qx90 matrix, input #1
% and returns:
%   y = Qx100 matrix, output #1
% where Q is the number of samples.

%#ok<*RPMT0>

% ===== NEURAL NETWORK CONSTANTS =====

% Layer 1
IW1_1 = [0 0 0 0.037037037037037034981 0.81481481481481465856 0.81481481481481465856 0.99999999999999955591 0.99999999999999955591 0.99999999999999955591 0.96296296296296257644 0.77777777777777767909 0.44444444444444441977 0.99999999999999955591 0.85185185185185163803 0.037037037037037034981 0.55555555555555558023 0.25925925925925924487 0 0.92592592592592559697 0.96296296296296257644 0.99999999999999955591 0.96296296296296257644 0.7407407407407405886 0.074074074074074069962 0.074074074074074069962 0 0 0.037037037037037034981 0.37037037037037034981 0.99999999999999955591 0.11111111111111110494 0.81481481481481465856 0.99999999999999955591 0.22222222222222220989 0.7407407407407405886 0.85185185185185163803 0.074074074074074069962 0 0.11111111111111110494 0.5925925925925925597 0.62962962962962965019 0.55555555555555558023 0.99999999999999955591 0.92592592592592559697 0.81481481481481465856 0.037037037037037034981 0 0.037037037037037034981 0.18518518518518517491 0.81481481481481454754 0.88888888888888850648 0.96296296296296257644 0.96296296296296257644 0.96296296296296257644 0 0.074074074074074069962 0.074074074074074069962 0.22222222222222220989 0.29629629629629627985 0.66666666666666674068 0.62962962962962953917 0.85185185185185163803 0.99999999999999955591 0.037037037037037034981 0 0.037037037037037034981 0.29629629629629627985 0.44444444444444441977 0.44444444444444441977 0.92592592592592559697 0.88888888888888839546 0.8888888888888886175 0 0.074074074074074069962 0.33333333333333331483 0.18518518518518517491 0.25925925925925924487 0.48148148148148145475 0.48148148148148145475 0.92592592592592559697 0.96296296296296257644 0 0.48148148148148145475 0.5925925925925925597 0.11111111111111110494 0.40740740740740738479 0.81481481481481465856 0.29629629629629627985 0.74074074074074069962 0.96296296296296257644;0 0 0 0 1 1 1 1 1 1 1 1 1 1 0 0 0 0 1 1 0 1 0 0 1 0 0 1 1 0 1 1 0 1 1 1 1 0 0 1 1 1 1 0 0 0 0 1 0 1 1 1 1 1 0 0 0 1 0 0 1 1 0 1 0 0 0 1 1 1 0 0 1 0 0 1 0 0 0 1 1 0 0 0 0 1 0 1 1 0;0 0.066666666666666665741 0 0.99999999999999988898 0.99999999999999988898 0.99999999999999988898 0.93333333333333323711 0.93333333333333323711 0.73333333333333328152 0.86666666666666658525 0.79999999999999993339 0.79999999999999993339 0.39999999999999996669 0.33333333333333331483 0.66666666666666662966 0.2000000000000000111 0.2000000000000000111 0.066666666666666665741 0.93333333333333323711 0.66666666666666662966 0.73333333333333328152 0.93333333333333323711 0.26666666666666666297 0.066666666666666665741 0.66666666666666662966 0.066666666666666665741 0.066666666666666665741 0.53333333333333332593 0.79999999999999993339 0.46666666666666667407 0.73333333333333328152 0.53333333333333332593 0.13333333333333333148 0.53333333333333332593 0.4000000000000000222 0.33333333333333331483 0.53333333333333332593 0 0 0.93333333333333323711 0.79999999999999993339 0 0.79999999999999993339 0.99999999999999988898 0.73333333333333328152 0.79999999999999993339 0.66666666666666662966 0.066666666666666665741 0.5999999999999999778 0.66666666666666662966 0.5999999999999999778 0.33333333333333331483 0.39999999999999996669 0.33333333333333331483 0.13333333333333333148 0.79999999999999993339 0.73333333333333328152 0.53333333333333332593 0.99999999999999988898 0.79999999999999993339 0.46666666666666661856 0.39999999999999996669 0.66666666666666662966 0.26666666666666666297 0.066666666666666665741 0.066666666666666665741 0.39999999999999996669 0.13333333333333333148 0.066666666666666665741 0.93333333333333323711 0.93333333333333323711 0.79999999999999993339 0.39999999999999996669 0.13333333333333333148 0 0.46666666666666667407 0.26666666666666666297 0.2000000000000000111 0.86666666666666658525 0.99999999999999988898 0.73333333333333328152 0 0.73333333333333328152 0.79999999999999993339 0 0.79999999999999993339 0.79999999999999993339 0.26666666666666666297 0.79999999999999993339 0.99999999999999988898;0 0 0 1 1 1 1 1 1 1 1 1 0 0 1 0 0 1 0 1 0 1 1 0 1 0 0 1 0 1 0 0 1 1 0 0 0 0 0 1 0 0 1 1 0 1 1 0 1 1 1 0 0 0 0 1 1 0 0 1 1 0 0 1 0 0 1 1 0 1 0 0 1 0 0 0 1 0 0 1 1 0 0 1 0 1 0 0 1 1;0 0 0 0.9375 0.9375 0.1875 0.9375 1 0.375 0.625 0.125 0.3125 0.75 0.4375 0.375 0.8125 0.5 0.625 1 0.4375 0.125 0.875 0.4375 0.1875 0.8125 0.4375 0.125 0 0.375 0.875 0.1875 0.6875 0.875 0.125 0.75 0.8125 0.5625 0.3125 0.25 0.75 0.3125 0.1875 0.75 0.3125 0.3125 0.5625 0.375 0.0625 1 0.6875 0.0625 0.9375 0.6875 0.25 0.1875 0.3125 0.5 0.1875 0.6875 0.875 0.3125 0.6875 0.875 0.875 0.5 0.25 0.75 0.375 0.1875 0.75 0.5 0.3125 0.3125 0.4375 0.1875 0.0625 0.375 0.25 0.875 0.8125 0.4375 0.125 0.0625 0.125 0.3125 0.25 0.0625 0.6875 0.875 0.9375;0 1 0 1 1 0 1 1 0 1 0 0 1 0 0 1 0 0 1 1 1 1 1 0 0 0 0 1 1 1 0 0 1 0 0 0 1 1 0 1 1 0 1 0 0 0 0 0 0 0 0 1 1 1 0 0 0 0 0 1 1 1 1 1 1 0 0 0 0 0 0 1 1 1 0 1 0 0 1 1 0 0 1 1 0 0 0 0 1 1;0.11764705882352941013 0.058823529411764705066 0.11764705882352941013 0.35294117647058820264 0.2941176470588234837 0.2941176470588234837 1 0.88235294117647056211 0.88235294117647056211 0.82352941176470584317 0.94117647058823528106 0.52941176470588235947 0.82352941176470595419 0.7058823529411765163 0.058823529411764705066 0.58823529411764707842 0.17647058823529410132 0.058823529411764705066 0.88235294117647056211 0.76470588235294112422 0.88235294117647056211 0.88235294117647056211 0.47058823529411764053 0.11764705882352941013 0.35294117647058825815 0.23529411764705882026 0.11764705882352941013 0.82352941176470584317 0.94117647058823528106 0.82352941176470584317 0.47058823529411769604 1 0.29411764705882353921 0.11764705882352941013 0.2941176470588234837 0 0.47058823529411769604 0.64705882352941179736 0.17647058823529410132 0.17647058823529410132 0 0.058823529411764705066 0.88235294117647056211 0.82352941176470584317 0.76470588235294112422 0.47058823529411769604 0.23529411764705882026 0.29411764705882353921 0.17647058823529410132 0.17647058823529410132 0.058823529411764705066 0.76470588235294123525 0.82352941176470584317 0.94117647058823528106 0.11764705882352941013 0.17647058823529410132 0.23529411764705882026 0.11764705882352941013 0.11764705882352941013 0.11764705882352941013 0.88235294117647056211 0.94117647058823528106 0.94117647058823528106 0.17647058823529410132 0.52941176470588235947 0 0.82352941176470595419 0.4117647058823529771 0.058823529411764705066 0.82352941176470584317 0.82352941176470584317 0.58823529411764707842 0.35294117647058820264 0.058823529411764705066 0 0.70588235294117640528 0.23529411764705882026 0.41176470588235292158 0.76470588235294123525 0.88235294117647056211 0.52941176470588235947 0.23529411764705882026 0.058823529411764705066 0.52941176470588235947 0.47058823529411764053 0.47058823529411769604 0.52941176470588235947 0.41176470588235292158 0.88235294117647056211 0.82352941176470595419;0.38888888888888889506 0.5 0.27777777777777779011 0.5 0.055555555555555552472 0.11111111111111110494 0.88888888888888906159 0.72222222222222232091 0.61111111111111116045 0.27777777777777779011 0.55555555555555558023 0.55555555555555558023 0.44444444444444441977 0.77777777777777790114 0.5 0.38888888888888883955 0.55555555555555558023 0.5 0.33333333333333331483 0.44444444444444441977 0.11111111111111110494 0.94444444444444464182 0.94444444444444464182 0.4444444444444445308 0.55555555555555558023 0.44444444444444441977 0.27777777777777779011 0.55555555555555558023 0.83333333333333348136 0.44444444444444441977 0.44444444444444441977 0.77777777777777790114 0.77777777777777790114 0.22222222222222220989 0.33333333333333337034 0.22222222222222220989 0.94444444444444464182 0.72222222222222232091 0.44444444444444441977 0.16666666666666665741 0.22222222222222220989 0.16666666666666665741 0.22222222222222220989 0.33333333333333331483 0.72222222222222232091 0.88888888888888906159 0.88888888888888906159 0.94444444444444464182 0.4444444444444445308 0.16666666666666665741 0.055555555555555552472 0.33333333333333331483 0.27777777777777779011 0.055555555555555552472 0.11111111111111110494 0.44444444444444441977 0.61111111111111116045 0.33333333333333331483 0.44444444444444441977 0.16666666666666665741 0.88888888888888906159 0.94444444444444464182 0.5 0.33333333333333337034 0 0.055555555555555552472 0.83333333333333348136 0.44444444444444441977 0.22222222222222220989 1.000000000000000222 1.000000000000000222 0.4444444444444445308 0.33333333333333331483 0.22222222222222220989 0.16666666666666665741 0.88888888888888906159 0.22222222222222220989 0.33333333333333331483 0.83333333333333348136 0.72222222222222232091 0.66666666666666674068 0.11111111111111110494 0.38888888888888883955 0.5 0.27777777777777779011 0.77777777777777790114 0.83333333333333348136 0.4444444444444445308 0.77777777777777790114 0.88888888888888906159;0 0 0 0 1 0 1 1 1 1 1 0 1 0 0 1 1 1 1 1 1 1 0 0 0 0 0 0 0 1 0 1 1 0 0 1 0 1 0 0 1 0 1 0 0 0 0 0 0 0 0 1 1 1 0 0 1 0 0 0 1 0 1 1 0 0 1 1 0 1 1 0 0 0 0 0 1 0 1 1 1 0 0 0 1 1 1 0 1 1;0.66666666666666674068 1.000000000000000222 0.77777777777777790114 0.22222222222222220989 0.33333333333333337034 0 0.5 0.94444444444444464182 0.16666666666666665741 0.27777777777777779011 0.055555555555555552472 0.33333333333333331483 0.5 0.55555555555555558023 0.44444444444444441977 0.83333333333333348136 0.83333333333333348136 0.72222222222222232091 0.72222222222222232091 0.16666666666666665741 0.055555555555555552472 0.77777777777777790114 0.5 0.44444444444444447528 0.55555555555555558023 0.66666666666666674068 0.5 0 0.22222222222222220989 0.77777777777777790114 0.055555555555555552472 0.55555555555555558023 0.88888888888888906159 0.11111111111111110494 0.5 1.000000000000000222 0.94444444444444464182 0.77777777777777790114 0.5 0.55555555555555558023 0.16666666666666665741 0.27777777777777779011 0.38888888888888883955 0.11111111111111110494 0.22222222222222220989 0.94444444444444464182 1.000000000000000222 0.61111111111111116045 0.38888888888888895057 0.22222222222222220989 0 0.61111111111111116045 0.16666666666666665741 0.055555555555555552472 0.44444444444444441977 0.5 0.83333333333333348136 0.11111111111111110494 0.055555555555555552472 0.5 0.16666666666666665741 0.33333333333333331483 0.77777777777777790114 0.77777777777777790114 0.33333333333333331483 0.22222222222222220989 0.94444444444444464182 0.83333333333333348136 0.5 0.88888888888888906159 0.44444444444444447528 0 0 0.055555555555555552472 0.055555555555555552472 0.61111111111111116045 0.38888888888888889506 0.38888888888888889506 1.000000000000000222 0.94444444444444464182 0.94444444444444464182 0.16666666666666665741 0.61111111111111116045 0.55555555555555558023 0.055555555555555552472 0.66666666666666674068 0.83333333333333348136 0.22222222222222220989 0.44444444444444441977 0.88888888888888906159;0 0 0 0.94736842105263152636 0.99999999999999988898 0.89473684210526316374 0.99999999999999988898 0.99999999999999988898 0.89473684210526316374 0.99999999999999988898 0.89473684210526316374 0.68421052631578949121 0.99999999999999988898 0.73684210526315785383 0.21052631578947367252 0.21052631578947367252 0 0 0.94736842105263141534 0.94736842105263141534 0.89473684210526316374 0.84210526315789457907 0.63157894736842101757 0.47368421052631576318 0 0 0 0.89473684210526305272 0.89473684210526316374 0.94736842105263141534 0.31578947368421050879 0.73684210526315785383 0.63157894736842101757 0.052631578947368418131 0.10526315789473683626 0.10526315789473683626 0.052631578947368418131 0.15789473684210525439 0.21052631578947367252 0.89473684210526316374 0.68421052631578938019 0.52631578947368418131 0.99999999999999988898 0.78947368421052632748 0.63157894736842101757 0 0 0 0.8421052631578946901 0.89473684210526305272 0.73684210526315785383 0.89473684210526305272 0.89473684210526305272 0.94736842105263152636 0.21052631578947367252 0.15789473684210525439 0.21052631578947367252 0.73684210526315796486 0.73684210526315785383 0.89473684210526316374 0.8421052631578946901 0.73684210526315796486 0.78947368421052632748 0.15789473684210525439 0.052631578947368418131 0.052631578947368418131 0.15789473684210525439 0.21052631578947367252 0.31578947368421050879 0.89473684210526316374 0.99999999999999988898 0.94736842105263141534 0.21052631578947367252 0.31578947368421050879 0.26315789473684209065 0.21052631578947367252 0.052631578947368418131 0.15789473684210525439 0.73684210526315785383 0.89473684210526305272 0.8421052631578946901 0.10526315789473683626 0.15789473684210525439 0.57894736842105265495 0.10526315789473683626 0.36842105263157892692 0.47368421052631576318 0.63157894736842101757 0.94736842105263152636 0.94736842105263152636;0.14285714285714284921 0 0 0.71428571428571419055 0.99999999999999988898 0.57142857142857139685 0.99999999999999988898 0.99999999999999988898 0.85714285714285698425 0.28571428571428569843 0.42857142857142854764 0.28571428571428569843 0 0.71428571428571419055 0.85714285714285709528 0.14285714285714284921 0.85714285714285709528 0.99999999999999988898 0.85714285714285709528 0.99999999999999988898 0.99999999999999988898 0.28571428571428569843 0.28571428571428569843 0.14285714285714284921 0 0.14285714285714284921 0.14285714285714284921 0.71428571428571419055 0.99999999999999988898 0.99999999999999988898 0.14285714285714284921 0 0.99999999999999988898 0 0.14285714285714284921 0 0.85714285714285709528 0.71428571428571419055 0.42857142857142854764 0.99999999999999988898 0.14285714285714284921 0.14285714285714284921 0.71428571428571419055 0.14285714285714284921 0.28571428571428569843 0.14285714285714284921 0.71428571428571419055 0.57142857142857139685 0.42857142857142854764 0.57142857142857139685 0.14285714285714284921 0.85714285714285709528 0.28571428571428569843 0.28571428571428569843 0 0.14285714285714284921 0.28571428571428569843 0.71428571428571419055 0.57142857142857139685 0.71428571428571419055 0.71428571428571419055 0.71428571428571419055 0.99999999999999988898 0 0.14285714285714284921 0 0.14285714285714284921 0 0.14285714285714284921 0.99999999999999988898 0.85714285714285698425 0.99999999999999988898 0 0 0 0.28571428571428569843 0 0 0.85714285714285709528 0.85714285714285698425 0.71428571428571419055 0.71428571428571419055 0.42857142857142854764 0.85714285714285709528 0.14285714285714284921 0.42857142857142854764 0.85714285714285709528 0 0.28571428571428569843 0.71428571428571419055;0 0 0 1 1 1 1 1 1 0 1 1 0 0 1 0 0 0 1 1 0 1 1 0 1 1 0 0 1 0 0 1 1 0 1 1 0 0 0 1 1 1 0 1 1 1 0 0 1 1 0 0 1 0 0 0 1 1 1 1 1 1 0 0 0 0 0 0 0 1 1 0 0 0 0 0 0 1 1 1 1 0 0 1 0 0 1 0 1 1;0 0.041666666666666664354 0 0.83333333333333325932 0.99999999999999977796 0.8333333333333331483 0.95833333333333325932 0.99999999999999977796 0.79166666666666651864 0.875 0.87499999999999988898 0.66666666666666674068 0.75 0.37499999999999994449 0.041666666666666664354 0.54166666666666662966 0.16666666666666665741 0.041666666666666664354 0.75 0.79166666666666662966 0.083333333333333328707 0.83333333333333325932 0.625 0.083333333333333328707 0.91666666666666651864 0.58333333333333337034 0.16666666666666665741 0.125 0.75 0.75 0.29166666666666662966 0.58333333333333325932 0.75 0.25 0.58333333333333337034 0.87499999999999988898 0.625 0.083333333333333328707 0.041666666666666664354 0.91666666666666651864 0.87499999999999988898 0.49999999999999994449 0.99999999999999977796 0.95833333333333325932 0.95833333333333325932 0.16666666666666665741 0.29166666666666662966 0.16666666666666665741 0.75 0.75 0.70833333333333337034 0.70833333333333337034 0.58333333333333325932 0.49999999999999994449 0 0.33333333333333331483 0.70833333333333325932 0.083333333333333328707 0.875 0.95833333333333325932 0.16666666666666665741 0.70833333333333337034 0.91666666666666651864 0.79166666666666662966 0.54166666666666674068 0.125 0.875 0.625 0.20833333333333331483 0.75 0.37499999999999994449 0.041666666666666664354 0.29166666666666662966 0.16666666666666665741 0.125 0.25 0.33333333333333331483 0.29166666666666662966 0.79166666666666662966 0.83333333333333325932 0.75 0.041666666666666664354 0.16666666666666665741 0.375 0.083333333333333328707 0.33333333333333331483 0.58333333333333325932 0.29166666666666662966 0.87499999999999988898 0.95833333333333325932;0 0 0 1 0 0 1 1 0 0 0 0 0 0 0 1 1 0 1 0 0 1 1 0 1 1 1 0 0 1 0 1 1 0 1 1 0 1 1 0 1 1 0 1 1 1 0 0 1 0 0 1 0 0 0 0 0 0 1 1 0 1 1 0 0 0 1 1 1 1 1 1 0 0 0 1 0 0 1 1 1 0 0 0 1 1 1 0 1 1;0 0 0 0 0 0 0.99999999999999988898 0.99999999999999988898 0.99999999999999988898 0.83333333333333325932 0 0 0.99999999999999988898 0.99999999999999988898 0.99999999999999988898 0.99999999999999988898 0.99999999999999988898 0.99999999999999988898 0.99999999999999988898 0 0.66666666666666662966 0.5 0 0.99999999999999988898 0 0 0.99999999999999988898 0.33333333333333331483 0 0.99999999999999988898 0 0.99999999999999988898 0.99999999999999988898 0 0.83333333333333325932 0.99999999999999988898 0.99999999999999988898 0 0 0.33333333333333331483 0 0.66666666666666662966 0.99999999999999988898 0.16666666666666665741 0.83333333333333325932 0 0.16666666666666665741 0.83333333333333325932 0.16666666666666665741 0.99999999999999988898 0.83333333333333325932 0.99999999999999988898 0 0 0 0 0.99999999999999988898 0 0 0.99999999999999988898 0.83333333333333325932 0.66666666666666662966 0.99999999999999988898 0.5 0 0 0.99999999999999988898 0.83333333333333325932 0 0.99999999999999988898 0.99999999999999988898 0.83333333333333325932 0 0 0 0.16666666666666665741 0.83333333333333325932 0.66666666666666662966 0.99999999999999988898 0.83333333333333325932 0.99999999999999988898 0.99999999999999988898 0 0 0.99999999999999988898 0.66666666666666662966 0 0.33333333333333331483 0.83333333333333325932 0.99999999999999988898;0 0 0 0.66666666666666662966 1 1 1 1 1 1 0.66666666666666662966 0 1 0.66666666666666662966 0 0.66666666666666662966 0 0 0 0 0 1 0.66666666666666662966 0.33333333333333331483 0.66666666666666662966 1 0.66666666666666662966 0.66666666666666662966 1 0.66666666666666662966 0 1 1 0 0.33333333333333331483 1 0.33333333333333331483 1 0 1 1 0 1 0 0 0.66666666666666662966 1 0.33333333333333331483 0 0 1 1 1 1 0 0 0.66666666666666662966 0.33333333333333331483 0.33333333333333331483 0 1 1 1 0 0 0 0.33333333333333331483 0 0 1 1 1 0.33333333333333331483 0 0 0.33333333333333331483 0 0 1 1 1 1 0 0.33333333333333331483 0 0 0.33333333333333331483 0 0.66666666666666662966 1;0.42105263157894734505 0.42105263157894734505 0.36842105263157892692 0.052631578947368418131 0.73684210526315774281 0.052631578947368418131 0.57894736842105265495 0.99999999999999955591 0.63157894736842101757 0.84210526315789446805 0.36842105263157892692 0.052631578947368418131 0.94736842105263119329 0.57894736842105265495 0.21052631578947367252 0.99999999999999955591 0.78947368421052610543 0.21052631578947367252 0.47368421052631576318 0.99999999999999955591 0.89473684210526283067 0.99999999999999955591 0.89473684210526283067 0.052631578947368418131 0.57894736842105265495 0.10526315789473683626 0 0 0.052631578947368418131 0.31578947368421050879 0.21052631578947367252 0.21052631578947367252 0.99999999999999955591 0.31578947368421050879 0.89473684210526283067 0.94736842105263119329 0.94736842105263119329 0.99999999999999955591 0.52631578947368418131 0.21052631578947367252 0.15789473684210525439 0 0.47368421052631576318 0.42105263157894734505 0.052631578947368418131 0.42105263157894734505 0.68421052631578938019 0.73684210526315774281 0.052631578947368418131 0 0.15789473684210525439 0.36842105263157892692 0.94736842105263119329 0.84210526315789446805 0.68421052631578938019 0.84210526315789446805 0.94736842105263119329 0.10526315789473683626 0.052631578947368418131 0.10526315789473683626 0.21052631578947367252 0 0.42105263157894734505 0.26315789473684209065 0.52631578947368418131 0.052631578947368418131 0.84210526315789446805 0.31578947368421050879 0.10526315789473683626 0.99999999999999955591 0.73684210526315774281 0.52631578947368418131 0.10526315789473683626 0 0 0.89473684210526283067 0.21052631578947367252 0.10526315789473683626 0.84210526315789446805 0.99999999999999955591 0.99999999999999955591 0.26315789473684209065 0.15789473684210525439 0.26315789473684209065 0.42105263157894734505 0.78947368421052610543 0.78947368421052610543 0.26315789473684209065 0.57894736842105265495 0.89473684210526283067;0.2999999999999999889 0.90000000000000024425 0.80000000000000015543 0 0.85000000000000019984 0 0.050000000000000002776 1.000000000000000222 0.44999999999999995559 0.2999999999999999889 0.25 0.10000000000000000555 0.85000000000000019984 0.39999999999999996669 0.050000000000000002776 1.000000000000000222 0.75000000000000011102 0.1500000000000000222 0.050000000000000002776 1.000000000000000222 0.5999999999999999778 0.2999999999999999889 1.000000000000000222 0.85000000000000019984 0.6500000000000000222 0.85000000000000019984 0.49999999999999994449 0.1500000000000000222 0.2000000000000000111 0.1500000000000000222 0.2000000000000000111 0.5999999999999999778 0.5999999999999999778 0.25 0.75000000000000011102 0.85000000000000019984 1.000000000000000222 0.90000000000000024425 0.80000000000000015543 0.2999999999999999889 0.10000000000000000555 0 0.10000000000000000555 0.10000000000000000555 0.1500000000000000222 0.25 0.90000000000000024425 1.000000000000000222 0 0.2000000000000000111 0.10000000000000000555 0.2000000000000000111 0.95000000000000028866 0.44999999999999995559 0.49999999999999994449 0.75000000000000011102 0.70000000000000006661 0.5999999999999999778 0.3499999999999999778 0.1500000000000000222 0.54999999999999993339 0.1500000000000000222 0.050000000000000002776 0.1500000000000000222 0.2000000000000000111 0.10000000000000000555 0.80000000000000015543 0.70000000000000006661 0.2000000000000000111 0.95000000000000028866 0.70000000000000006661 0.44999999999999995559 0.3499999999999999778 0.050000000000000002776 0.2000000000000000111 0.6500000000000000222 0.2999999999999999889 0.2999999999999999889 0.90000000000000024425 0.95000000000000028866 0.80000000000000015543 0.49999999999999994449 0.75000000000000011102 0.95000000000000028866 0.10000000000000000555 0.75000000000000011102 0.95000000000000028866 0 0.10000000000000000555 0.80000000000000015543;1 1 1 0 0.083333333333333328707 0 0.25 0.41666666666666662966 0.16666666666666665741 0.083333333333333328707 0 0.16666666666666665741 0.41666666666666662966 0 0.41666666666666662966 1 0.66666666666666662966 0.66666666666666662966 0 0.16666666666666665741 0.33333333333333331483 0.25 0.41666666666666662966 0.66666666666666662966 0.83333333333333337034 0.91666666666666674068 0.91666666666666662966 0.083333333333333328707 0.083333333333333328707 0.33333333333333331483 0.41666666666666662966 0 0.49999999999999994449 0.75 0.75 1 1 1 0.91666666666666662966 0.33333333333333331483 0 0 0 0 0.083333333333333328707 0.91666666666666674068 0.91666666666666662966 0.91666666666666662966 0.16666666666666665741 0.33333333333333331483 0.41666666666666662966 0 0.083333333333333328707 0.16666666666666665741 0.91666666666666662966 1 1 0.16666666666666665741 0.49999999999999994449 0.25 0.083333333333333328707 0 0.083333333333333328707 0.41666666666666662966 0.25 0 0.83333333333333325932 0.91666666666666662966 0.33333333333333331483 0.91666666666666662966 0.91666666666666662966 0.66666666666666662966 0.16666666666666665741 0.16666666666666665741 0.16666666666666665741 1 0.58333333333333325932 0.16666666666666665741 0.83333333333333325932 0.74999999999999988898 0.5 0.25 0.41666666666666662966 0.74999999999999988898 0.25 0.83333333333333337034 1 0.083333333333333328707 0.33333333333333331483 0.75;0 0 0 0.85714285714285687323 0.89285714285714268268 0.78571428571428547638 0.89285714285714257166 0.99999999999999966693 0.85714285714285687323 0.96428571428571396851 0.78571428571428547638 0.49999999999999988898 0.96428571428571407953 0.78571428571428547638 0.071428571428571424606 0.32142857142857139685 0.10714285714285713691 0.035714285714285712303 0.89285714285714268268 0.92857142857142827008 0.96428571428571407953 0.6785714285714283811 0.49999999999999988898 0.42857142857142849213 0.035714285714285712303 0 0.071428571428571424606 0.78571428571428547638 0.99999999999999966693 0.92857142857142827008 0.24999999999999994449 0.82142857142857117481 0.71428571428571419055 0.071428571428571424606 0 0.071428571428571424606 0.21428571428571427382 0.10714285714285713691 0.21428571428571427382 0.57142857142857128583 0.74999999999999988898 0.6785714285714283811 0.85714285714285687323 0.82142857142857128583 0.82142857142857128583 0.035714285714285712303 0.035714285714285712303 0 0.74999999999999988898 0.71428571428571407953 0.71428571428571407953 0.92857142857142827008 0.85714285714285687323 0.96428571428571407953 0.21428571428571427382 0.071428571428571424606 0.071428571428571424606 0.64285714285714268268 0.96428571428571407953 0.78571428571428547638 0.82142857142857128583 0.78571428571428547638 0.92857142857142827008 0.5357142857142855874 0.32142857142857139685 0.10714285714285713691 0.7857142857142855874 0.92857142857142827008 0.42857142857142849213 0.89285714285714268268 0.3928571428571427937 0.14285714285714284921 0.10714285714285713691 0.17857142857142854764 0.42857142857142849213 0.46428571428571419055 0.49999999999999988898 0.78571428571428547638 0.32142857142857139685 0.74999999999999988898 0.92857142857142827008 0.28571428571428569843 0.49999999999999988898 0.96428571428571407953 0.071428571428571424606 0.35714285714285709528 0.92857142857142827008 0.32142857142857139685 0.32142857142857134134 0.6785714285714283811;0 0 0 0 1 1 1 1 1 1 1 1 1 1 0 0 0 0 0 1 1 0 1 1 0 0 0 1 0 0 1 0 0 1 0 0 0 1 1 1 1 0 1 0 0 0 0 0 1 1 1 1 1 1 0 0 0 0 0 1 1 1 1 0 0 0 0 0 0 1 1 1 1 1 1 0 0 0 0 1 1 1 1 1 0 0 0 0 0 0;0 0 0 1 1 0 1 1 1 0.5 1 1 0 0 1 0 0.5 1 1 0 0 1 1 0 1 1 1 0 0 1 1 1 0 1 1 0 0 0 0 0 0 1 1 1 1 1 0 0 1 0 0 1 1 0 0 0 1 0 1 1 1 1 1 0 0 0.5 0 0 1 1 1 1 0.5 0 0 0.5 0 0 1 1 1 1 0.5 0.5 1 0 1 0 0 0.5;0 0 0 0.85714285714285698425 0.85714285714285698425 0.57142857142857139685 0.99999999999999977796 0.99999999999999977796 0.9285714285714283811 0.21428571428571427382 0.49999999999999988898 0.071428571428571424606 0.35714285714285709528 0.85714285714285698425 0.35714285714285709528 0.57142857142857139685 0.9285714285714283811 0.7857142857142855874 0.49999999999999988898 0.28571428571428569843 0.071428571428571424606 0.99999999999999977796 0.71428571428571419055 0.071428571428571424606 0.99999999999999977796 0.85714285714285698425 0.35714285714285709528 0.35714285714285709528 0.57142857142857139685 0.71428571428571419055 0.28571428571428569843 0.6428571428571427937 0.9285714285714283811 0.35714285714285709528 0.57142857142857139685 0.85714285714285698425 0.14285714285714284921 0.21428571428571427382 0 0.57142857142857139685 0.7857142857142855874 0.6428571428571427937 0.7857142857142855874 0.7857142857142855874 0.85714285714285698425 0 0.071428571428571424606 0 0.85714285714285698425 0.85714285714285698425 0.71428571428571419055 0.7857142857142855874 0.9285714285714283811 0.85714285714285698425 0 0 0.071428571428571424606 0.5 0.9285714285714283811 0.9285714285714283811 0.7857142857142855874 0.99999999999999977796 0.99999999999999977796 0.49999999999999994449 0.28571428571428569843 0 0.7857142857142855874 0.71428571428571419055 0.14285714285714284921 0.7857142857142855874 0.42857142857142849213 0.21428571428571427382 0.35714285714285709528 0 0 0.85714285714285698425 0.35714285714285709528 0.35714285714285709528 0.71428571428571419055 0.7857142857142855874 0.7857142857142855874 0.6428571428571427937 0.5 0.85714285714285698425 0.14285714285714284921 0.14285714285714284921 0.85714285714285698425 0.071428571428571424606 0.21428571428571427382 0.85714285714285698425;0 0 0 0.60000000000000008882 1 1 1 1 1 0 0 0.2000000000000000111 1 0 0 1 1 0.4000000000000000222 1 1 0.4000000000000000222 0.2000000000000000111 0.2000000000000000111 0.80000000000000004441 0.2000000000000000111 0.4000000000000000222 0.80000000000000004441 0 0.2000000000000000111 0.60000000000000008882 0 1 1 0 1 0.60000000000000008882 0.80000000000000004441 0.2000000000000000111 0 1 0.80000000000000004441 0.4000000000000000222 0 0.4000000000000000222 1 0 0 0.4000000000000000222 0.4000000000000000222 0.80000000000000004441 1 0.60000000000000008882 1 0.60000000000000008882 0 0 0.2000000000000000111 1 1 1 1 0.80000000000000004441 1 0.60000000000000008882 0 0 0.80000000000000004441 0.60000000000000008882 0.2000000000000000111 0.80000000000000004441 0.60000000000000008882 0.2000000000000000111 0.60000000000000008882 0 0 1 0 0.60000000000000008882 0.4000000000000000222 1 1 0.2000000000000000111 0.80000000000000004441 0.80000000000000004441 0 0.80000000000000004441 1 0 0.2000000000000000111 0.80000000000000004441;0 0 0 0.28571428571428569843 0.99999999999999977796 0.99999999999999977796 0.99999999999999977796 0.99999999999999977796 0.99999999999999977796 0 0.57142857142857139685 0.71428571428571419055 0.14285714285714284921 0.99999999999999977796 0.99999999999999977796 0 0.85714285714285698425 0.99999999999999977796 0 0 0.85714285714285698425 0 0.71428571428571419055 0.99999999999999977796 0.14285714285714284921 0.99999999999999977796 0.99999999999999977796 0.14285714285714284921 0.71428571428571419055 0 0.28571428571428569843 0.99999999999999977796 0.57142857142857139685 0.28571428571428569843 0.99999999999999977796 0.85714285714285698425 0.85714285714285698425 0.71428571428571419055 0.57142857142857139685 0.57142857142857139685 0 0.28571428571428569843 0.85714285714285698425 0.28571428571428569843 0.71428571428571419055 0.14285714285714284921 0.71428571428571419055 0.14285714285714284921 0.71428571428571419055 0.85714285714285698425 0.99999999999999977796 0 0 0.99999999999999977796 0 0 0.42857142857142854764 0.28571428571428569843 0.85714285714285698425 0.99999999999999977796 0.57142857142857139685 0.99999999999999977796 0.99999999999999977796 0.14285714285714284921 0.14285714285714284921 0 0.28571428571428569843 0.14285714285714284921 0.14285714285714284921 0.99999999999999977796 0.99999999999999977796 0.71428571428571419055 0.14285714285714284921 0 0.14285714285714284921 0.42857142857142854764 0 0 0.85714285714285698425 0.99999999999999977796 0.99999999999999977796 0.99999999999999977796 0 0.28571428571428569843 0.99999999999999977796 0.57142857142857139685 0.57142857142857139685 0.14285714285714284921 0.28571428571428569843 0.71428571428571419055;0.25 0.16666666666666665741 0.25 0.083333333333333328707 0.83333333333333337034 0.66666666666666662966 0 1 0.66666666666666662966 0.91666666666666674068 0 0 1 0.25 0.083333333333333328707 1 0.66666666666666662966 0.16666666666666665741 0.083333333333333328707 0.41666666666666662966 0.83333333333333337034 0.083333333333333328707 0.75 0.83333333333333337034 0 0.83333333333333337034 0.91666666666666674068 0.41666666666666662966 0.66666666666666662966 0.41666666666666662966 0.33333333333333331483 0.33333333333333331483 0.58333333333333325932 0.16666666666666665741 0.41666666666666662966 0.66666666666666662966 1 0.91666666666666674068 0.66666666666666662966 0.83333333333333337034 0.16666666666666665741 0.083333333333333328707 0.58333333333333325932 0.083333333333333328707 0.16666666666666665741 0.16666666666666665741 0.33333333333333331483 0.83333333333333337034 0.083333333333333328707 0.083333333333333328707 0.83333333333333337034 0.083333333333333328707 0.49999999999999994449 1 0.41666666666666662966 0.66666666666666662966 0.83333333333333337034 0.16666666666666665741 0.16666666666666665741 0.33333333333333331483 0.16666666666666665741 0.58333333333333325932 0.58333333333333325932 0.083333333333333328707 0 0 0.49999999999999994449 0.33333333333333331483 0.41666666666666662966 0.91666666666666674068 1 0.91666666666666674068 0.083333333333333328707 0.083333333333333328707 0 0.41666666666666662966 0.25 0.33333333333333331483 0.91666666666666674068 0.83333333333333337034 0.91666666666666674068 0 0.25 0.16666666666666665741 0.33333333333333331483 0.41666666666666662966 0.49999999999999994449 0.49999999999999994449 0.58333333333333325932 0.83333333333333337034;0.071428571428571424606 0.28571428571428569843 0.14285714285714284921 0.071428571428571424606 0.57142857142857139685 0.92857142857142827008 0.35714285714285709528 0.9285714285714283811 0.9285714285714283811 0.99999999999999977796 0.99999999999999977796 0.35714285714285709528 0.71428571428571407953 0.9285714285714283811 0.14285714285714284921 0.57142857142857128583 0.071428571428571424606 0 0.35714285714285709528 0.85714285714285698425 0.99999999999999977796 0.49999999999999988898 0.92857142857142827008 0.85714285714285687323 0.35714285714285709528 0.57142857142857139685 0.42857142857142854764 0.21428571428571427382 0.21428571428571427382 0.14285714285714284921 0.42857142857142849213 0.71428571428571407953 0.64285714285714268268 0.6428571428571427937 0.85714285714285687323 0.78571428571428547638 0.21428571428571427382 0.35714285714285709528 0.21428571428571427382 0.14285714285714284921 0.28571428571428569843 0.42857142857142849213 0.9285714285714283811 0.9285714285714283811 0.6428571428571427937 0.14285714285714284921 0.42857142857142849213 0.49999999999999988898 0.071428571428571424606 0.28571428571428569843 0.57142857142857128583 0.21428571428571427382 0.7857142857142855874 0.9285714285714283811 0.85714285714285698425 0.99999999999999977796 0.9285714285714283811 0.21428571428571427382 0.21428571428571427382 0.14285714285714284921 0.14285714285714284921 0.35714285714285709528 0.071428571428571424606 0.35714285714285709528 0.42857142857142849213 0.14285714285714284921 0.7857142857142855874 0.42857142857142849213 0 0.9285714285714283811 0.64285714285714268268 0.57142857142857128583 0 0.071428571428571424606 0.21428571428571427382 0.49999999999999994449 0.49999999999999988898 0.49999999999999988898 0.7857142857142855874 0.85714285714285698425 0.7857142857142855874 0 0.21428571428571427382 0.71428571428571419055 0.14285714285714284921 0.57142857142857128583 0.9285714285714283811 0.35714285714285709528 0.57142857142857128583 0.85714285714285687323;0.16666666666666665741 0.44444444444444441977 0.33333333333333331483 0 0 0.33333333333333331483 0.38888888888888883955 0.88888888888888906159 1.000000000000000222 0.33333333333333331483 0.27777777777777779011 0.22222222222222220989 0.88888888888888906159 0.83333333333333348136 0.27777777777777779011 0.77777777777777790114 0.83333333333333348136 0.33333333333333331483 0 0.11111111111111110494 0.72222222222222232091 0.44444444444444441977 0.61111111111111116045 0.88888888888888906159 0.72222222222222232091 0.88888888888888906159 0.94444444444444464182 0.11111111111111110494 0.055555555555555552472 0.27777777777777779011 0.44444444444444441977 0.61111111111111116045 0.72222222222222232091 0.61111111111111116045 0.77777777777777790114 0.94444444444444464182 0.72222222222222232091 0.55555555555555558023 0.55555555555555558023 0.11111111111111110494 0.055555555555555552472 0.38888888888888883955 0.44444444444444441977 0.55555555555555558023 0.88888888888888906159 0.77777777777777790114 1.000000000000000222 0.94444444444444464182 0 0 0.27777777777777779011 0.055555555555555552472 0.33333333333333331483 0.83333333333333348136 0.72222222222222232091 0.77777777777777790114 0.88888888888888906159 0.11111111111111110494 0.11111111111111110494 0.22222222222222220989 0.38888888888888883955 0.27777777777777779011 0.22222222222222220989 0.16666666666666665741 0.11111111111111110494 0 0.61111111111111116045 0.55555555555555558023 0.55555555555555558023 0.94444444444444464182 0.83333333333333348136 0.55555555555555558023 0.11111111111111110494 0.11111111111111110494 0.11111111111111110494 0.88888888888888906159 0.61111111111111116045 0.27777777777777779011 0.77777777777777790114 0.88888888888888906159 0.77777777777777790114 0.44444444444444441977 0.61111111111111116045 0.66666666666666674068 0.5 0.61111111111111116045 0.77777777777777790114 0.16666666666666665741 0.11111111111111110494 0.61111111111111116045;0 1 1 0 1 0 0 1 0 1 0 1 1 0 0 1 0 1 0 1 0 0 1 1 1 1 1 1 0 0 1 0 1 0 0 1 1 1 1 0 1 0 0 0 0 1 1 1 0 0 0 0 1 0 0 1 1 0 0 1 1 0 0 1 1 0 1 1 1 1 0 0 0 0 1 0 0 1 0 0 1 0 0 0 1 1 0 0 1 0;0 0 0 0 0.5 0.5 1 1 1 1 1 1 0 0 0 0 0 0 1 1 1 0 0 0 0 0 0 1 1 1 0 1 1 0 0 0 0 0 0 0.5 1 1 0.5 1 1 0 0 0 0.5 0.5 1 1 1 1 0 0 0 1 0.5 0 1 1 1 1 0.5 0 1 1 0 0.5 1 0 1 1 1 1 1 0.5 0.5 0 0 0 0.5 0.5 1 1 1 0 0 0;0 0 0 0.27272727272727270709 1.000000000000000222 0.81818181818181834331 1.000000000000000222 1.000000000000000222 1.000000000000000222 1.000000000000000222 0.90909090909090928267 0.81818181818181834331 0.27272727272727270709 0.27272727272727270709 0.45454545454545458583 0 0.090909090909090911614 0.45454545454545458583 1.000000000000000222 1.000000000000000222 1.000000000000000222 0.5454545454545455252 0 0.27272727272727270709 0.27272727272727270709 0.090909090909090911614 0.27272727272727270709 0 0 0.5454545454545455252 0.090909090909090911614 1.000000000000000222 0.5454545454545455252 0.90909090909090928267 1.000000000000000222 1.000000000000000222 0 0 0 0.63636363636363646457 0.90909090909090928267 0.90909090909090928267 1.000000000000000222 1.000000000000000222 1.000000000000000222 0 0 0 0.90909090909090928267 1.000000000000000222 1.000000000000000222 1.000000000000000222 1.000000000000000222 1.000000000000000222 0 0 0 0.45454545454545458583 0.63636363636363646457 1.000000000000000222 0.81818181818181834331 1.000000000000000222 1.000000000000000222 0.090909090909090911614 0.090909090909090911614 0.72727272727272740394 0.090909090909090911614 0.90909090909090928267 0.72727272727272740394 0.90909090909090928267 0.90909090909090928267 0.27272727272727270709 0 0 0 0.90909090909090928267 0 0 1.000000000000000222 1.000000000000000222 0.63636363636363646457 1.000000000000000222 0.27272727272727270709 0.18181818181818182323 0.90909090909090928267 0.45454545454545458583 0.63636363636363646457 0.090909090909090911614 0.090909090909090911614 0.27272727272727270709;0 0 0 0.71428571428571407953 0.99999999999999966693 0.57142857142857128583 0.99999999999999966693 0.99999999999999966693 0.99999999999999966693 0.99999999999999966693 0.21428571428571427382 0.14285714285714284921 0.85714285714285687323 0.28571428571428569843 0.57142857142857128583 0.42857142857142849213 0.21428571428571427382 0.92857142857142827008 0 0.071428571428571424606 0.92857142857142827008 0.071428571428571424606 0.99999999999999966693 0.99999999999999966693 0.071428571428571424606 0.92857142857142827008 0.85714285714285687323 0.92857142857142827008 0.92857142857142827008 0.99999999999999966693 0.85714285714285687323 0.85714285714285687323 0.57142857142857128583 0.64285714285714268268 0.071428571428571424606 0 0.071428571428571424606 0 0 0.92857142857142827008 0.57142857142857128583 0.42857142857142849213 0.99999999999999966693 0.85714285714285687323 0.71428571428571407953 0 0 0 0.85714285714285687323 0.92857142857142827008 0.99999999999999966693 0.99999999999999966693 0.99999999999999966693 0.99999999999999966693 0 0 0 0.78571428571428547638 0.78571428571428547638 0.92857142857142827008 0.99999999999999966693 0.99999999999999966693 0.99999999999999966693 0 0.071428571428571424606 0.21428571428571427382 0.92857142857142827008 0.99999999999999966693 0.49999999999999988898 0.92857142857142827008 0.71428571428571407953 0.28571428571428569843 0 0 0 0.21428571428571427382 0.071428571428571424606 0.49999999999999988898 0.99999999999999966693 0.99999999999999966693 0.92857142857142827008 0.99999999999999966693 0 0 0.99999999999999966693 0 0 0.57142857142857128583 0.28571428571428569843 0.64285714285714268268;0 0 0 1 0.80000000000000004441 0.4000000000000000222 1 1 1 0.2000000000000000111 0 0 1 1 0.4000000000000000222 0.60000000000000008882 1 0.60000000000000008882 0.80000000000000004441 0.80000000000000004441 0.80000000000000004441 0.4000000000000000222 0.60000000000000008882 0.80000000000000004441 0.2000000000000000111 0.4000000000000000222 0.60000000000000008882 1 1 1 0.2000000000000000111 0.2000000000000000111 0.80000000000000004441 0 0 0.60000000000000008882 0.80000000000000004441 0.4000000000000000222 0 0.60000000000000008882 0.60000000000000008882 0.4000000000000000222 0.80000000000000004441 1 0.80000000000000004441 0 0 0.4000000000000000222 0.80000000000000004441 0 0 1 0.80000000000000004441 0.60000000000000008882 0 0 0 1 0.80000000000000004441 0.2000000000000000111 1 1 0.80000000000000004441 0.60000000000000008882 0.4000000000000000222 0.2000000000000000111 1 0.60000000000000008882 0.4000000000000000222 1 0.60000000000000008882 0.2000000000000000111 0.2000000000000000111 0 0 0 0 0.4000000000000000222 0.80000000000000004441 1 1 0.2000000000000000111 0 0.2000000000000000111 0 0.4000000000000000222 0.60000000000000008882 0.4000000000000000222 1 1;0 0 0 1 1 1 1 1 1 1 0 0 1 1 0 1 0 0 0 0 1 0 1 1 1 1 1 1 1 0 1 1 0 1 0.75 0 1 0 0 1 1 0 1 1 0 0 0 0 1 1 0 0 1 1 0 0 1 0.75 0 1 0.75 1 1 1 0.25 0 0.5 0 0 1 0.25 0 0 0 0 0 0 0 1 1 1 0 1 1 0 0 1 0 0.25 1;0 0 0 0 0 1 1 1 1 0 0 1 1 1 0 1 1 0 0 1 1 0 1 1 0 1 1 0 1 1 0 1 1 0 1 1 0 0 1 1 1 1 0 0 1 0 0 0 0 1 1 0 1 1 0 0 0 0 1 1 0 1 1 0 0 0 0 0 0 1 1 1 1 1 0 0 0 1 0 0 1 0 0 0 0 1 1 0 1 1;0 0 0.66666666666666662966 0 1 0.66666666666666662966 0 1 1 0 0.33333333333333331483 0.66666666666666662966 0 1 1 1 1 1 0 0.66666666666666662966 1 0.33333333333333331483 1 1 0.66666666666666662966 1 0.66666666666666662966 0 0.33333333333333331483 0.66666666666666662966 0.33333333333333331483 0.33333333333333331483 1 0.33333333333333331483 0.33333333333333331483 1 1 0.66666666666666662966 0.33333333333333331483 0 0 0.33333333333333331483 0 0.66666666666666662966 0.66666666666666662966 0.33333333333333331483 0.66666666666666662966 1 0 0.33333333333333331483 0.66666666666666662966 0 1 1 0 1 0.33333333333333331483 0.33333333333333331483 0.66666666666666662966 0.66666666666666662966 0 0.33333333333333331483 0.66666666666666662966 0 0 0.33333333333333331483 0 0 0.33333333333333331483 0.33333333333333331483 1 1 1 1 0.33333333333333331483 0 0 0 1 0.33333333333333331483 0.33333333333333331483 1 1 1 0 1 1 0 0 0.33333333333333331483;0.045454545454545455807 0.72727272727272718189 0.95454545454545425276 0 0.13636363636363635354 0.63636363636363635354 0 0.99999999999999966693 0.90909090909090883859 0.59090909090909093937 0.5454545454545455252 0.18181818181818182323 0.86363636363636342441 0.72727272727272718189 0 0.81818181818181801024 0.72727272727272718189 0.36363636363636370197 0 0.36363636363636370197 0.90909090909090883859 0 0.81818181818181801024 0.99999999999999966693 0.13636363636363635354 0.95454545454545425276 0.99999999999999966693 0.31818181818181823228 0.13636363636363635354 0.5454545454545455252 0.31818181818181823228 0.18181818181818182323 0.72727272727272718189 0.31818181818181823228 0.31818181818181823228 0.81818181818181801024 0.90909090909090883859 0.81818181818181801024 0.36363636363636370197 0.36363636363636370197 0.22727272727272729291 0.090909090909090911614 0.45454545454545464134 0.5454545454545455252 0.2727272727272727626 0.18181818181818182323 0.5454545454545455252 0.99999999999999966693 0 0.045454545454545455807 0.90909090909090883859 0 0.36363636363636370197 0.90909090909090883859 0.45454545454545464134 0.63636363636363635354 0.81818181818181801024 0.31818181818181823228 0.36363636363636370197 0.40909090909090917165 0.36363636363636370197 0.2727272727272727626 0.31818181818181823228 0.045454545454545455807 0.13636363636363635354 0.045454545454545455807 0.63636363636363635354 0.68181818181818176772 0.2727272727272727626 0.90909090909090883859 0.95454545454545425276 0.68181818181818176772 0.45454545454545464134 0.45454545454545464134 0.81818181818181801024 0.31818181818181823228 0.45454545454545464134 0.90909090909090883859 0.18181818181818182323 0.40909090909090917165 0.81818181818181801024 0.40909090909090917165 0.77272727272727259606 0.90909090909090883859 0.090909090909090911614 0.40909090909090917165 0.90909090909090883859 0.090909090909090911614 0.13636363636363635354 0.40909090909090917165;0 0 0 0 0 0 1 1 1 0 0.5 1 1 1 1 0.5 0.5 0 0 0 0 0.5 1 1 0.5 1 1 0.5 0.5 0 0 1 1 0.5 0 0.5 1 1 1 0 0 0 0 0 0.5 1 0.5 1 0 0 0 0 1 0 1 0.5 1 0.5 0 0 1 0.5 0 1 1 1 0.5 0 1 0 0 0.5 0.5 0 0.5 1 0.5 1 1 0 1 0 0.5 0 1 1 1 0 1 1;0.875 0.91666666666666662966 0.70833333333333325932 0.20833333333333331483 0.33333333333333331483 0.20833333333333331483 0.5 0.625 0.29166666666666662966 0.62499999999999988898 0.24999999999999997224 0.20833333333333331483 0.58333333333333325932 0.375 0.33333333333333331483 0.875 0.58333333333333325932 0.41666666666666662966 0.083333333333333328707 0.24999999999999997224 0.70833333333333325932 0.083333333333333328707 0.75 0.83333333333333337034 0.16666666666666665741 0.83333333333333337034 0.91666666666666674068 0.74999999999999988898 0.625 0.125 0.74999999999999988898 0.66666666666666662966 0.20833333333333331483 0.58333333333333325932 0.41666666666666662966 0.125 0.79166666666666662966 0.79166666666666662966 0.45833333333333331483 0.54166666666666662966 0.29166666666666668517 0.33333333333333331483 0.45833333333333325932 0.16666666666666665741 0.33333333333333331483 0.83333333333333337034 0.91666666666666662966 0.875 0.083333333333333328707 0.16666666666666665741 0.45833333333333331483 0.041666666666666664354 0.16666666666666665741 0.49999999999999994449 0.375 0.58333333333333325932 0.74999999999999988898 0.25 0.41666666666666662966 0.25 0.58333333333333325932 0.70833333333333325932 0.29166666666666662966 0.58333333333333325932 0.49999999999999994449 0.16666666666666665741 0.91666666666666662966 0.49999999999999994449 0.16666666666666665741 0.83333333333333337034 0.58333333333333325932 0.375 0.083333333333333328707 0.083333333333333328707 0.041666666666666657415 0.62499999999999988898 0.54166666666666662966 0.45833333333333331483 0.79166666666666662966 1 0.70833333333333337034 0.041666666666666664354 0.41666666666666668517 0.375 0.125 0.625 0.75 0.33333333333333331483 0.875 0.87499999999999988898;0.058823529411764705066 0.23529411764705882026 0.058823529411764705066 0.29411764705882353921 0.88235294117647056211 0.94117647058823528106 0.23529411764705882026 0.88235294117647056211 0.88235294117647056211 1 1 0.94117647058823528106 0.23529411764705882026 0.35294117647058820264 0.11764705882352941013 0 0.058823529411764705066 0.11764705882352941013 0.94117647058823528106 1 0.94117647058823528106 0.11764705882352941013 0.23529411764705882026 0.29411764705882353921 0 0 0.058823529411764705066 0.35294117647058825815 0.7058823529411765163 0.88235294117647056211 0.23529411764705882026 0.2941176470588234837 0.7058823529411765163 0.29411764705882353921 0.47058823529411764053 0.29411764705882353921 0.47058823529411769604 0.17647058823529410132 0.058823529411764705066 0.94117647058823528106 0.88235294117647056211 0.47058823529411764053 0.94117647058823528106 0.94117647058823528106 0.82352941176470595419 0 0.17647058823529410132 0.35294117647058825815 0.41176470588235292158 0.94117647058823528106 0.23529411764705882026 0.82352941176470595419 0.94117647058823528106 0.82352941176470584317 0.11764705882352941013 0.23529411764705882026 0.58823529411764707842 0.23529411764705882026 0.52941176470588235947 0.76470588235294112422 0.2941176470588234837 0.76470588235294123525 0.94117647058823528106 0.82352941176470584317 0.58823529411764707842 0 0.94117647058823528106 0.82352941176470595419 0.11764705882352941013 0.82352941176470595419 0.47058823529411764053 0.11764705882352941013 0.11764705882352941013 0 0.2941176470588234837 0.35294117647058820264 0.52941176470588235947 0.88235294117647067313 0.35294117647058825815 0.88235294117647056211 0.94117647058823528106 0.58823529411764707842 0.11764705882352941013 0.35294117647058820264 0.35294117647058825815 0.7058823529411765163 0.7058823529411765163 0.23529411764705882026 0.58823529411764707842 0.82352941176470595419;0 0 0 0 1 1 1 1 1 1 0 0.5 1 0 0 1 0.5 0 0.5 1 1 0 0 0.5 0 0 0 0 0 0 0 1 0.5 0 1 1 0.5 0 0 1 1 1 1 0 1 0 0 0 1 1 1 0 1 1 0 0 1 0 0 1 0 1 1 0 0 0 1 1 0 1 1 0 0 0 0 0.5 0 0.5 0.5 1 1 0.5 0.5 1 0 0.5 1 0 0.5 1;0 0 0 0.27272727272727270709 1.000000000000000222 0.45454545454545458583 1.000000000000000222 1.000000000000000222 1.000000000000000222 0.90909090909090928267 0.27272727272727270709 0.81818181818181834331 0.27272727272727270709 0.90909090909090928267 0.90909090909090928267 0.36363636363636364646 0.090909090909090911614 0.18181818181818182323 0 0.72727272727272740394 0.90909090909090928267 0.27272727272727270709 1.000000000000000222 1.000000000000000222 0 0.090909090909090911614 1.000000000000000222 0.45454545454545458583 1.000000000000000222 0.90909090909090928267 0.090909090909090911614 0.90909090909090928267 0.36363636363636364646 0.27272727272727270709 0.36363636363636364646 0.18181818181818182323 0 0 0 1.000000000000000222 0.5454545454545455252 0.63636363636363646457 1.000000000000000222 0.90909090909090928267 0.81818181818181834331 0 0 0 0.72727272727272740394 0.81818181818181834331 0.72727272727272740394 1.000000000000000222 0.90909090909090928267 1.000000000000000222 0 0 0 0.27272727272727270709 0.5454545454545455252 0.81818181818181834331 0.90909090909090928267 1.000000000000000222 1.000000000000000222 0.090909090909090911614 0 0.63636363636363646457 0.5454545454545455252 0.90909090909090928267 0.27272727272727270709 1.000000000000000222 0.72727272727272740394 0.090909090909090911614 0.18181818181818182323 0 0 0.81818181818181834331 0.5454545454545455252 0.18181818181818182323 0.81818181818181834331 1.000000000000000222 0.72727272727272740394 1.000000000000000222 0.63636363636363646457 0.18181818181818182323 0.72727272727272740394 0.18181818181818182323 1.000000000000000222 0 0.090909090909090911614 0.36363636363636364646;0 0 0 0.26666666666666666297 0.5999999999999999778 0.2000000000000000111 0.99999999999999988898 0.99999999999999988898 0.99999999999999988898 0.5999999999999999778 0.39999999999999996669 0.13333333333333333148 0.79999999999999993339 0.39999999999999996669 0.66666666666666662966 0.99999999999999988898 0.86666666666666658525 0.66666666666666662966 0.2000000000000000111 0.13333333333333333148 0.99999999999999988898 0.13333333333333333148 0.86666666666666658525 0.99999999999999988898 0.066666666666666665741 0.73333333333333328152 0.99999999999999988898 0.39999999999999996669 0.79999999999999993339 0.79999999999999993339 0.5999999999999999778 0.86666666666666658525 0.39999999999999996669 0.13333333333333333148 0.33333333333333331483 0.26666666666666666297 0 0 0.066666666666666665741 0.13333333333333333148 0.46666666666666661856 0.33333333333333331483 0.93333333333333323711 0.99999999999999988898 0.86666666666666658525 0.066666666666666665741 0.13333333333333333148 0 0.46666666666666661856 0.13333333333333333148 0.26666666666666666297 0.99999999999999988898 0.86666666666666658525 0.99999999999999988898 0.066666666666666665741 0.066666666666666665741 0.13333333333333333148 0.13333333333333333148 0.13333333333333333148 0.79999999999999993339 0.66666666666666662966 0.99999999999999988898 0.99999999999999988898 0.79999999999999993339 0.066666666666666665741 0 0.93333333333333323711 0.86666666666666658525 0.066666666666666665741 0.99999999999999988898 0.5999999999999999778 0.39999999999999996669 0.066666666666666665741 0.066666666666666665741 0.13333333333333333148 0.86666666666666658525 0.66666666666666662966 0.79999999999999993339 0.5999999999999999778 0.73333333333333328152 0.93333333333333323711 0.99999999999999988898 0.53333333333333332593 0.79999999999999993339 0.13333333333333333148 0 0.86666666666666658525 0.39999999999999996669 0.5999999999999999778 0.33333333333333331483;0 0 0 0 0.88888888888888906159 0.055555555555555552472 0.94444444444444464182 1.000000000000000222 0.94444444444444464182 0.72222222222222232091 0.16666666666666665741 0.11111111111111110494 1.000000000000000222 0.33333333333333331483 0.11111111111111110494 1.000000000000000222 0.72222222222222232091 0.055555555555555552472 0.055555555555555552472 0.88888888888888906159 1.000000000000000222 0.16666666666666665741 1.000000000000000222 0.94444444444444464182 0.27777777777777779011 0.83333333333333348136 0.83333333333333348136 0.5 0.33333333333333331483 0.11111111111111110494 0.72222222222222232091 0.72222222222222232091 0.33333333333333337034 0.77777777777777790114 0.77777777777777790114 0.66666666666666674068 0.77777777777777790114 0.055555555555555552472 0 0.77777777777777790114 0.11111111111111110494 0 1.000000000000000222 0.72222222222222232091 0.33333333333333337034 0 0.055555555555555552472 0.22222222222222220989 0.16666666666666665741 0.61111111111111116045 0.77777777777777790114 0.44444444444444441977 1.000000000000000222 1.000000000000000222 0 0 0.11111111111111110494 0.16666666666666665741 0.27777777777777779011 0.61111111111111116045 0.88888888888888906159 0.88888888888888906159 0.83333333333333348136 0.44444444444444441977 0.33333333333333331483 0.11111111111111110494 0.77777777777777790114 0.33333333333333331483 0.27777777777777779011 1.000000000000000222 0.83333333333333348136 0.11111111111111110494 0.055555555555555552472 0.11111111111111110494 0.055555555555555552472 0.27777777777777779011 0.33333333333333331483 0.55555555555555558023 0.38888888888888883955 1.000000000000000222 1.000000000000000222 0.11111111111111110494 0.33333333333333337034 0.77777777777777790114 0 0.66666666666666674068 0.94444444444444464182 0.16666666666666665741 0.44444444444444441977 0.88888888888888906159;0 0 0 0.57142857142857139685 0.95238095238095255013 0.42857142857142854764 0.8571428571428572063 1.000000000000000222 0.95238095238095255013 0.66666666666666662966 0.23809523809523808202 0 1.000000000000000222 0.66666666666666662966 0.047619047619047616404 0.95238095238095255013 0.61904761904761906877 0.19047619047619046562 0 0.76190476190476197349 0.76190476190476208451 0.14285714285714284921 1.000000000000000222 0.90476190476190487821 0.19047619047619046562 0.90476190476190487821 0.8571428571428572063 0.66666666666666662966 0.23809523809523808202 0.23809523809523808202 0.61904761904761906877 0.52380952380952372494 0.33333333333333331483 0.57142857142857139685 0.61904761904761906877 0.47619047619047616404 0.14285714285714284921 0.095238095238095232808 0.047619047619047616404 0.61904761904761906877 0.71428571428571419055 0.38095238095238093123 0.90476190476190487821 0.80952380952380953438 0.66666666666666662966 0.047619047619047616404 0.23809523809523808202 0 0.19047619047619046562 0.95238095238095255013 0.71428571428571419055 0.28571428571428569843 0.95238095238095255013 0.80952380952380964541 0.19047619047619046562 0.095238095238095232808 0.047619047619047616404 0.90476190476190487821 0.76190476190476186247 0.47619047619047616404 0.95238095238095255013 0.8571428571428572063 0.61904761904761906877 0.19047619047619046562 0.19047619047619046562 0.047619047619047616404 0.90476190476190487821 0.76190476190476197349 0.57142857142857139685 0.8571428571428572063 0.76190476190476186247 0.52380952380952372494 0.047619047619047616404 0 0.14285714285714284921 0.33333333333333331483 0.52380952380952372494 0.71428571428571430157 0.66666666666666662966 1.000000000000000222 0.95238095238095255013 0.047619047619047616404 0.095238095238095232808 0.23809523809523808202 0.095238095238095232808 0.42857142857142854764 0.80952380952380953438 0.57142857142857139685 0.8571428571428572063 1.000000000000000222;0 0.0625 0.0625 0 0.875 0.5 0.5625 1 1 0.25 0.375 0.8125 0.875 0.5 0.4375 0.8125 0.25 0.3125 0.0625 0.875 0.75 0.1875 1 0.875 0.3125 0.9375 0.8125 0.8125 0.3125 0.125 0.75 0.5 0.25 0.6875 0.4375 0.5625 0.0625 0.125 0.5 0.0625 0.4375 0.8125 0.5625 0.8125 0.875 0 0.0625 0.0625 0.0625 0.875 0.625 0.25 1 0.9375 0 0.0625 0.1875 0.6875 0.4375 0.375 0.9375 0.75 0.6875 0.25 0.125 0.375 0.25 0.125 0.4375 0.6875 0.6875 0.8125 0 0.1875 0.1875 0.25 0.625 0.8125 0.125 0.9375 0.9375 0 0.5 0.75 0.125 0.5 0.9375 0.3125 0.5625 0.5625;0 0 0 0.25 1 1 0.5 1 1 0.25 0.25 1 0 0 1 0.25 0.75 1 0.5 0.75 0 0.75 1 0.25 1 0.75 0.75 0.25 0.5 0.5 0 0 0.5 0.25 0.25 0.5 1 1 0.5 0.25 0.75 0.75 0 0.5 1 0 0.5 1 0.25 1 0.75 0.5 1 0.5 0 0 0.5 0.5 1 0.75 0.75 1 1 0.5 0 0 0 0 0 1 1 0.5 0 0.25 0 0.25 0.5 1 0 1 0.75 1 0 1 0.75 0 0.5 0 0 0;0 1 1 0 0 0 0 1 0 0 1 1 0 0 1 0 0 1 0 1 0 1 1 0 1 1 0 1 0 1 1 0 0 1 0 0 1 1 1 0 1 0 0 1 0 0 1 1 0 1 1 0 1 0 0 0 0 1 1 1 1 0 0 0 0 0 1 1 1 1 1 1 0 0 0 0 1 1 0 1 1 1 1 1 0 1 1 0 0 0;0.99999999999999988898 0.99999999999999988898 0.99999999999999988898 0.33333333333333331483 0 0 0.83333333333333325932 0.16666666666666665741 0.33333333333333331483 0 0.16666666666666665741 0.83333333333333325932 0 0.16666666666666665741 0.99999999999999988898 0.33333333333333331483 0.5 0.83333333333333325932 0.16666666666666665741 0.16666666666666665741 0 0.66666666666666662966 0.33333333333333331483 0 0.83333333333333325932 0.66666666666666662966 0.66666666666666662966 0.66666666666666662966 0.66666666666666662966 0.16666666666666665741 0.5 0.66666666666666662966 0.16666666666666665741 0.33333333333333331483 0.5 0.33333333333333331483 0.83333333333333325932 0.99999999999999988898 0.66666666666666662966 0.16666666666666665741 0 0.16666666666666665741 0 0.16666666666666665741 0.5 0.66666666666666662966 0.99999999999999988898 0.83333333333333325932 0 0.33333333333333331483 0 0.16666666666666665741 0.33333333333333331483 0.33333333333333331483 0.66666666666666662966 0.5 0.66666666666666662966 0.5 0.16666666666666665741 0 0.66666666666666662966 0.66666666666666662966 0.16666666666666665741 0.83333333333333325932 0.66666666666666662966 0.66666666666666662966 0.83333333333333325932 0.99999999999999988898 0.83333333333333325932 0.16666666666666665741 0 0.33333333333333331483 0.83333333333333325932 0.99999999999999988898 0.83333333333333325932 0.83333333333333325932 0.99999999999999988898 0.83333333333333325932 0.16666666666666665741 0 0 0.16666666666666665741 0.83333333333333325932 0.83333333333333325932 0.16666666666666665741 0.33333333333333331483 0.83333333333333325932 0.33333333333333331483 0.66666666666666662966 0.66666666666666662966;0 0 0 1 1 0.66666666666666662966 1 1 1 1 0 1 0 0.66666666666666662966 1 0 1 0.33333333333333331483 1 1 1 0 0 0 0 0 0 0 0 0 1 1 0 0.66666666666666662966 0.33333333333333331483 0.66666666666666662966 0 0 0 0.66666666666666662966 0.66666666666666662966 1 1 1 1 0 0 0 1 1 0.66666666666666662966 1 1 1 0 0 0 1 1 1 1 1 1 1 0.33333333333333331483 0 0.66666666666666662966 1 0 1 0.33333333333333331483 0 0 0 1 0 1 1 0.33333333333333331483 0 0.66666666666666662966 1 0 0.66666666666666662966 0 0 1 0 0.66666666666666662966 1;0 0.125 0.0625 0 1 0.5625 0.9375 1 1 0.9375 0.75 0.3125 1 0.875 0 0.625 0.375 0.0625 0.9375 0.875 1 0.8125 0.8125 0.1875 0.25 0 0 0.125 0.1875 0.6875 0.625 0.3125 1 0.6875 0.6875 1 0.0625 0 0 0.8125 0.375 0.25 1 0.9375 0.6875 0.0625 0.0625 0 0.1875 0.875 0.8125 0.875 1 1 0.0625 0 0.125 0.3125 0.0625 0.4375 0.8125 0.75 0.9375 0.5625 0.625 0.625 0.75 0.875 0.375 0.875 0.25 0.1875 0.0625 0.0625 0.25 0.4375 0.6875 0.9375 0.125 0.8125 1 0.5 0.9375 1 0.125 0.375 0.9375 0.1875 0.0625 0.25;0 0.19047619047619046562 0.14285714285714284921 0 0.80952380952380942336 0.76190476190476186247 0.23809523809523808202 1 1 0.85714285714285709528 0.71428571428571419055 0.23809523809523808202 1 0.61904761904761906877 0.42857142857142854764 0.66666666666666662966 0.52380952380952372494 0.23809523809523808202 0.047619047619047616404 0.71428571428571419055 0.95238095238095243911 0.047619047619047616404 0.90476190476190476719 1 0.38095238095238093123 0.80952380952380953438 0.80952380952380942336 0.047619047619047616404 0.33333333333333331483 0.90476190476190465617 0.28571428571428569843 0.38095238095238093123 0.95238095238095232808 0.38095238095238093123 0.47619047619047616404 0.95238095238095232808 0.28571428571428569843 0.095238095238095232808 0.047619047619047616404 0.76190476190476186247 0.71428571428571419055 0.33333333333333331483 0.95238095238095232808 0.95238095238095232808 0.57142857142857139685 0.047619047619047616404 0.14285714285714284921 0.19047619047619046562 0.28571428571428569843 0.61904761904761906877 0.66666666666666662966 0.42857142857142854764 0.8571428571428572063 1 0.095238095238095232808 0.23809523809523808202 0.71428571428571419055 0.33333333333333331483 0.14285714285714284921 0.90476190476190465617 0.28571428571428569843 0.42857142857142854764 0.90476190476190465617 0.42857142857142854764 0.19047619047619046562 0.047619047619047616404 0.95238095238095232808 0.76190476190476186247 0.28571428571428569843 0.8571428571428572063 0.47619047619047616404 0.23809523809523808202 0.33333333333333331483 0.14285714285714284921 0.047619047619047616404 0.57142857142857139685 0.95238095238095232808 0.90476190476190465617 0.095238095238095232808 0.66666666666666651864 0.76190476190476197349 0.71428571428571419055 0.23809523809523808202 0.80952380952380942336 0.28571428571428569843 0.28571428571428569843 0.90476190476190465617 0.047619047619047616404 0.14285714285714284921 0.57142857142857139685;0.090909090909090911614 0.36363636363636364646 0.090909090909090911614 0.045454545454545455807 0.95454545454545469685 0.090909090909090911614 0.77272727272727270709 0.95454545454545469685 0.72727272727272729291 0.95454545454545469685 0.13636363636363635354 0 1 0.31818181818181817677 0 1 0.59090909090909082835 0.18181818181818182323 0.090909090909090911614 0.68181818181818187874 0.81818181818181823228 0.18181818181818182323 0.81818181818181823228 0.72727272727272729291 0.40909090909090911614 0.72727272727272729291 0.54545454545454541417 0.045454545454545455807 0.36363636363636370197 0.95454545454545469685 0 0.59090909090909105039 1 0.090909090909090911614 0.68181818181818187874 0.95454545454545469685 0.63636363636363635354 0.18181818181818182323 0.090909090909090911614 0.95454545454545469685 0.13636363636363635354 0.045454545454545455807 0.95454545454545469685 0.59090909090909093937 0.18181818181818182323 0 0.18181818181818182323 0.18181818181818182323 0.18181818181818182323 0.68181818181818187874 0.54545454545454541417 0.5 0.95454545454545469685 0.86363636363636375748 0.090909090909090911614 0.13636363636363635354 0.45454545454545458583 0.090909090909090911614 0.13636363636363635354 1 0.045454545454545455807 0.90909090909090917165 1 0.68181818181818187874 0.27272727272727270709 0.090909090909090911614 1 0.72727272727272729291 0.18181818181818182323 0.90909090909090928267 0.45454545454545458583 0.045454545454545455807 0.18181818181818182323 0.31818181818181823228 0.22727272727272729291 0.31818181818181817677 0.72727272727272740394 0.68181818181818187874 0.31818181818181823228 0.86363636363636375748 0.90909090909090917165 0.36363636363636370197 0.68181818181818187874 1 0.045454545454545455807 0.50000000000000011102 1 0.090909090909090911614 0.13636363636363635354 0.72727272727272740394;0 0 0 0 0.80769230769230748734 0.65384615384615374367 0.88461538461538435918 0.99999999999999966693 0.99999999999999966693 0.99999999999999966693 0.5 0.11538461538461539102 0.99999999999999966693 0.7692307692307689404 0.076923076923076927347 0.96153846153846123102 0.5384615384615383249 0.15384615384615385469 0 0.96153846153846123102 0.96153846153846123102 0.5384615384615383249 0.96153846153846123102 0.96153846153846123102 0.65384615384615374367 0.84615384615384581224 0.73076923076923061551 0.19230769230769231837 0.23076923076923078204 0.38461538461538463674 0.15384615384615385469 0.61538461538461519673 0.73076923076923061551 0.34615384615384614531 0.84615384615384581224 0.92307692307692268407 0.076923076923076927347 0.076923076923076927347 0.076923076923076927347 0.80769230769230737632 0.46153846153846145306 0.30769230769230770939 0.99999999999999966693 0.96153846153846123102 0.69230769230769206857 0 0.076923076923076927347 0.11538461538461539102 0.038461538461538463674 0.84615384615384581224 0.80769230769230737632 0.15384615384615385469 0.99999999999999966693 0.99999999999999966693 0.076923076923076927347 0 0.038461538461538463674 0.42307692307692301714 0.076923076923076927347 0.46153846153846145306 0.76923076923076905143 0.88461538461538435918 0.96153846153846123102 0.23076923076923078204 0.076923076923076927347 0.15384615384615385469 0.42307692307692301714 0.5384615384615383249 0.65384615384615374367 0.80769230769230748734 0.84615384615384592326 0.46153846153846145306 0.15384615384615385469 0.23076923076923078204 0.26923076923076927347 0.15384615384615385469 0.80769230769230748734 0.73076923076923061551 0.038461538461538463674 0.84615384615384581224 0.99999999999999966693 0.34615384615384614531 0.96153846153846123102 0.96153846153846123102 0 0.61538461538461519673 0.99999999999999966693 0.076923076923076927347 0.11538461538461539102 0.30769230769230770939;0 0 0 0.4000000000000000222 1 0 0.80000000000000004441 1 1 0.2000000000000000111 0 0.2000000000000000111 1 0.60000000000000008882 0.60000000000000008882 1 1 0.2000000000000000111 0 1 1 0.2000000000000000111 1 1 0.4000000000000000222 1 0.60000000000000008882 0.80000000000000004441 0 0 1 0.2000000000000000111 0 1 0.4000000000000000222 0.2000000000000000111 0 0 0 0.60000000000000008882 0.2000000000000000111 0.4000000000000000222 0.80000000000000004441 0.80000000000000004441 0.80000000000000004441 0 0 0 0 1 0.60000000000000008882 0.2000000000000000111 1 1 0.4000000000000000222 0 0 1 0.60000000000000008882 0 1 0.60000000000000008882 0 0 0 0.2000000000000000111 0.60000000000000008882 0.4000000000000000222 0 1 0.80000000000000004441 0.60000000000000008882 0 0.2000000000000000111 0 0.2000000000000000111 0.80000000000000004441 0.80000000000000004441 0 1 1 1 1 0.4000000000000000222 1 0.2000000000000000111 0 1 0.2000000000000000111 0;0.10000000000000000555 0.30000000000000004441 0.10000000000000000555 0 0.69999999999999995559 0.5 0.10000000000000000555 1 0.9000000000000000222 0 0.5 0.2000000000000000111 0.5999999999999999778 0.69999999999999995559 0.30000000000000004441 0.9000000000000000222 1 0.4000000000000000222 0 0.80000000000000004441 0.30000000000000004441 0.10000000000000000555 0.80000000000000004441 0.80000000000000004441 0.4000000000000000222 1 0.89999999999999991118 0.5999999999999999778 0.5999999999999999778 0 0.5 0.5999999999999999778 0.30000000000000004441 0.69999999999999995559 0.80000000000000004441 0.5999999999999999778 0 0.4000000000000000222 0.30000000000000004441 0 0.80000000000000004441 0.5 0.2000000000000000111 0.89999999999999991118 0.70000000000000006661 0.2000000000000000111 0.30000000000000004441 0.10000000000000000555 0.10000000000000000555 1 0.10000000000000000555 0.4000000000000000222 0.9000000000000000222 0.9000000000000000222 0.5999999999999999778 0.5 0.30000000000000004441 0.80000000000000004441 0.69999999999999995559 0 0.80000000000000004441 0.9000000000000000222 0.10000000000000000555 0.90000000000000013323 0.90000000000000013323 0.10000000000000000555 0.89999999999999991118 0.30000000000000004441 0 0.4000000000000000222 0.30000000000000004441 0.2000000000000000111 0.10000000000000000555 0.4000000000000000222 0.69999999999999995559 0.4000000000000000222 0.89999999999999991118 0.80000000000000004441 0.10000000000000000555 0.60000000000000008882 0.5 0.2000000000000000111 0.5999999999999999778 1 0 0.4000000000000000222 1 0.10000000000000000555 0.30000000000000004441 1;0.10000000000000000555 0.89999999999999991118 0.60000000000000008882 0.10000000000000000555 0 0.10000000000000000555 0.80000000000000004441 1 0.5 0 0.2000000000000000111 0.80000000000000004441 0 0.30000000000000004441 0.80000000000000004441 0.30000000000000004441 0.4000000000000000222 0.9000000000000000222 0.4000000000000000222 0.89999999999999991118 0.5 0.4000000000000000222 0.89999999999999991118 0.5 0.2000000000000000111 0.60000000000000008882 0.5 0.30000000000000004441 0.5999999999999999778 0.4000000000000000222 0.69999999999999995559 0.5 0.10000000000000000555 0.69999999999999995559 0.80000000000000004441 0.30000000000000004441 0.2000000000000000111 0.10000000000000000555 0.2000000000000000111 0.10000000000000000555 0.4000000000000000222 1 0.2000000000000000111 0.5 1 0 0 0.10000000000000000555 0.4000000000000000222 0.5999999999999999778 0.5 0.5999999999999999778 1 0.69999999999999995559 0.10000000000000000555 0.2000000000000000111 0.5 0.30000000000000004441 0.10000000000000000555 0.5 0.4000000000000000222 0.69999999999999995559 0.80000000000000004441 0.69999999999999995559 0.30000000000000004441 0 1 0.89999999999999991118 0.30000000000000004441 0.69999999999999995559 0.2000000000000000111 0.30000000000000004441 0 0 0.2000000000000000111 1 1 1 0.10000000000000000555 0.79999999999999993339 0.69999999999999995559 0.5 0.89999999999999991118 0.89999999999999991118 0.2000000000000000111 0.9000000000000000222 1 0 0.10000000000000000555 0.10000000000000000555;1 1 1 0 0.25 0 0.25 0 0.25 0.25 0.5 0 1 1 0 1 1 0 0 0 0.75 0 0 1 0 0 1 0.5 0.5 0 0.5 0.5 0 1 0.75 0 0.75 0.75 0.5 0.25 0.5 0 0 0.5 0 0 1 1 0 0.25 1 0 0 0 1 0.25 0 0.5 0.5 0.25 0.5 0 0.25 0.75 0.25 0 1 0.5 0 1 0.75 0 0.75 0.75 1 0.75 1 1 0.25 0.25 0.5 0.5 1 1 0.5 1 1 0.5 0.5 0.25;0.9000000000000000222 0.80000000000000004441 0.70000000000000006661 0.10000000000000000555 0.30000000000000004441 0.10000000000000000555 0 0.9000000000000000222 0.2000000000000000111 0.80000000000000004441 0 0.2000000000000000111 1 0 0.2000000000000000111 1 0.4000000000000000222 0.2000000000000000111 0 0 0.9000000000000000222 0 0.2000000000000000111 0.9000000000000000222 0.10000000000000000555 0.60000000000000008882 0.9000000000000000222 0.2000000000000000111 0 0.4000000000000000222 0 0.30000000000000004441 0.80000000000000004441 0.10000000000000000555 0.80000000000000004441 1 0.9000000000000000222 0.69999999999999995559 0.30000000000000004441 0.80000000000000004441 0 0.10000000000000000555 0.70000000000000006661 0.2000000000000000111 0.10000000000000000555 0.60000000000000008882 0.60000000000000008882 0.9000000000000000222 0.30000000000000004441 0.2000000000000000111 0.70000000000000006661 0 0.10000000000000000555 0.80000000000000004441 0.69999999999999995559 0.9000000000000000222 1 0.2000000000000000111 0.2000000000000000111 0.4000000000000000222 0.2000000000000000111 0.10000000000000000555 0.30000000000000004441 0.9000000000000000222 0.80000000000000004441 0.30000000000000004441 0.60000000000000008882 0.70000000000000006661 0.4000000000000000222 0.5 0.4000000000000000222 0.10000000000000000555 0.80000000000000004441 0.80000000000000004441 1 0.69999999999999995559 0.80000000000000004441 0.5 0.30000000000000004441 0.30000000000000004441 0.4000000000000000222 0.10000000000000000555 0.69999999999999995559 0.80000000000000004441 0 0.30000000000000004441 0.9000000000000000222 0.5 0.60000000000000008882 0.4000000000000000222;0 0 0 0.99999999999999977796 0.99999999999999977796 0.99999999999999977796 0.99999999999999977796 0.99999999999999977796 0.99999999999999977796 0.99999999999999977796 0.99999999999999977796 0.99999999999999977796 0 0.35714285714285709528 0.85714285714285698425 0 0 0 0.9285714285714283811 0.9285714285714283811 0.85714285714285687323 0.57142857142857128583 0 0.071428571428571424606 0.57142857142857128583 0.14285714285714284921 0.14285714285714284921 0.21428571428571427382 0.35714285714285709528 0.85714285714285698425 0.14285714285714284921 0.49999999999999994449 0.71428571428571419055 0.42857142857142849213 0.99999999999999977796 0.64285714285714268268 0.14285714285714284921 0 0 0.99999999999999977796 0.78571428571428547638 0.14285714285714284921 0.99999999999999977796 0.99999999999999977796 0.99999999999999977796 0 0.071428571428571424606 0.071428571428571424606 0.9285714285714283811 0.9285714285714283811 0.35714285714285709528 0.85714285714285687323 0.9285714285714283811 0.92857142857142827008 0 0 0 0.85714285714285687323 0.9285714285714283811 0.9285714285714283811 0.9285714285714283811 0.99999999999999977796 0.99999999999999977796 0.85714285714285687323 0.78571428571428547638 0 0.99999999999999977796 0.71428571428571407953 0.071428571428571424606 0.7857142857142855874 0.57142857142857139685 0.14285714285714284921 0.64285714285714268268 0.64285714285714268268 0.42857142857142849213 0.64285714285714268268 0.9285714285714283811 0.57142857142857139685 0.28571428571428569843 0.14285714285714284921 0.35714285714285709528 0.85714285714285698425 0.78571428571428547638 0.99999999999999977796 0.35714285714285709528 0.99999999999999977796 0.99999999999999977796 0.071428571428571424606 0.071428571428571424606 0;0 0 0 0.25 0.75 0.875 1 1 1 1 1 0.75 0.875 0.625 0.125 0.375 0.125 0 0.375 1 0.625 0.625 0.875 0.125 0.75 0.25 0 0.25 0.375 0 0.5 0.875 0.375 0.875 1 1 0.25 0 0.125 1 0.625 0.125 0.875 0.875 0.875 0 0.25 0.5 0.125 1 1 0.375 1 1 0 0.125 0 0.625 0.625 0.125 1 0.875 0.5 0.875 0.625 0.125 0.625 0.25 0.125 0.625 0.625 0.625 1 0.875 0.875 0.375 0.875 0.875 0 0.125 0.25 0.375 0.75 1 0.125 0.625 0.75 0.125 0.25 0.375;0 0.2000000000000000111 0.13333333333333333148 0.066666666666666665741 1 0.66666666666666674068 0.26666666666666666297 1 0.93333333333333334814 0.93333333333333334814 0.73333333333333328152 0.33333333333333337034 1 0.93333333333333334814 0.066666666666666665741 0.73333333333333328152 0.53333333333333332593 0 0.73333333333333339255 0.73333333333333339255 0.5999999999999999778 0.73333333333333328152 0.4000000000000000222 0.4000000000000000222 0.33333333333333331483 0.26666666666666666297 0.2000000000000000111 0.066666666666666665741 0 0.93333333333333334814 0.066666666666666665741 0.13333333333333333148 0.93333333333333334814 0.2000000000000000111 0.80000000000000004441 1 0.73333333333333339255 0.2000000000000000111 0.066666666666666665741 0.93333333333333334814 0.66666666666666662966 0.26666666666666666297 0.80000000000000004441 0.66666666666666674068 0.13333333333333333148 0 0.26666666666666666297 0.4000000000000000222 0.60000000000000008882 0.53333333333333332593 0.80000000000000004441 0.73333333333333339255 0.80000000000000004441 0.86666666666666669627 0 0.13333333333333333148 0.80000000000000004441 0.066666666666666665741 0.4000000000000000222 1 0.26666666666666666297 0.2000000000000000111 1 0.80000000000000004441 0.26666666666666666297 0.066666666666666665741 0.80000000000000004441 0.73333333333333339255 0.066666666666666665741 0.73333333333333339255 0.46666666666666667407 0.13333333333333333148 0.46666666666666661856 0.80000000000000004441 0.93333333333333334814 0.26666666666666666297 0.66666666666666662966 0.80000000000000004441 0 0.33333333333333337034 0.80000000000000004441 0.53333333333333332593 0.73333333333333339255 0.93333333333333334814 0.33333333333333337034 0.46666666666666667407 1 0 0.13333333333333333148 0.53333333333333343695;1 1 0 1 0 0 1 1 0 1 0 0 1 0.66666666666666662966 0 1 0.33333333333333331483 0 1 1 1 0 0 0 0 0 0 0 1 1 0 0.33333333333333331483 1 0 0 0 0.66666666666666662966 0 0 1 0 0 1 1 0 0 0 0 0 0 0 1 1 1 1 1 0 0 0 1 0 1 1 1 1 0 1 0 0 1 0 0 0 0 0 1 1 1 0 1 0.33333333333333331483 0.66666666666666662966 1 1 0 0.33333333333333331483 1 0 1 0.66666666666666662966;0 0.071428571428571424606 0 0.42857142857142849213 0.49999999999999994449 0 0.99999999999999977796 0.99999999999999977796 0.9285714285714283811 0.9285714285714283811 0.42857142857142849213 0 0.99999999999999977796 0.7857142857142855874 0.14285714285714284921 0.9285714285714283811 0.71428571428571419055 0.21428571428571427382 0.49999999999999988898 0.7857142857142855874 0.85714285714285698425 0.64285714285714268268 0.85714285714285698425 0.42857142857142854764 0.6428571428571427937 0.35714285714285709528 0.14285714285714284921 0.14285714285714284921 0.7857142857142855874 0.99999999999999977796 0.14285714285714284921 0.64285714285714268268 0.9285714285714283811 0.14285714285714284921 0.57142857142857128583 0.85714285714285698425 0.28571428571428569843 0.14285714285714284921 0.071428571428571424606 0.9285714285714283811 0.14285714285714284921 0.071428571428571424606 0.99999999999999977796 0.71428571428571419055 0.21428571428571427382 0 0 0.14285714285714284921 0 0.28571428571428569843 0.7857142857142855874 0.85714285714285698425 0.9285714285714283811 0.99999999999999977796 0 0.071428571428571424606 0.49999999999999994449 0.071428571428571424606 0.21428571428571427382 0.64285714285714268268 0.49999999999999988898 0.9285714285714283811 0.99999999999999977796 0.71428571428571419055 0.7857142857142855874 0.35714285714285709528 0.99999999999999977796 0.71428571428571407953 0.28571428571428569843 0.9285714285714283811 0 0.071428571428571424606 0.85714285714285698425 0.28571428571428569843 0.21428571428571427382 0.7857142857142855874 0.35714285714285709528 0.28571428571428569843 0.64285714285714268268 0.28571428571428569843 0.35714285714285709528 0.071428571428571424606 0 0.85714285714285698425 0.14285714285714284921 0.57142857142857128583 0.85714285714285698425 0 0.85714285714285698425 0.7857142857142855874;0 0 0 0 1 0 1 1 1 1 0 0 1 1 0 1 1 0 0 1 1 1 1 1 0 1 0 1 0 1 1 0 1 1 0 1 0 0 0 1 0 0 1 0 0 0 0 0 0 1 1 1 1 1 0 0 0 1 0 0 1 1 1 1 1 1 0 1 0 1 0 0 0 0 1 0 0 0 0 1 1 0 0 1 0 0 1 1 1 1;0 0 0 0.25 0.375 0.375 1 1 0.875 0.875 0.375 0 1 0.625 0 1 0.625 0 0.125 1 1 0.5 1 0.75 0.75 0.75 0.25 1 0.25 0 1 0.5 0.125 1 0.625 0.5 0 0.125 0.125 0.75 0.625 0.25 0.875 1 0.5 0 0 0 0 0.875 0.875 0.125 1 1 1 0 0 1 0.125 0 1 0.75 0 1 0.875 0.5 1 0.5 0.25 0.25 0 0.25 0.5 0.5 0.875 0.75 0.875 0.875 0 0.125 0.375 0.75 0.375 0.125 1 0.125 0.25 1 0.625 0.125;0 0 0 0.80000000000000004441 1 0.60000000000000008882 1 1 1 0.2000000000000000111 0.2000000000000000111 0.80000000000000004441 0 0.4000000000000000222 1 0.60000000000000008882 1 0.80000000000000004441 1 1 1 0 0 0.80000000000000004441 0 0 0.60000000000000008882 0 0 0 1 1 0 1 1 0 1 0 0 1 0.60000000000000008882 0.2000000000000000111 0.80000000000000004441 0.80000000000000004441 0.60000000000000008882 0 0 0.80000000000000004441 0.4000000000000000222 1 0.80000000000000004441 1 1 0.80000000000000004441 0.2000000000000000111 0 0 0.80000000000000004441 0.80000000000000004441 0.4000000000000000222 0.60000000000000008882 1 1 1 1 0 1 0 0 1 0.4000000000000000222 0.2000000000000000111 0.60000000000000008882 0.4000000000000000222 0.60000000000000008882 0.2000000000000000111 0.2000000000000000111 1 0 0 0.80000000000000004441 0.60000000000000008882 0.80000000000000004441 1 0 0.4000000000000000222 0.4000000000000000222 0.2000000000000000111 0.2000000000000000111 0.4000000000000000222;0 0.33333333333333331483 0.33333333333333331483 0.66666666666666662966 1 0.66666666666666662966 0.66666666666666662966 1 1 0 0 0 0.66666666666666662966 0 0.33333333333333331483 0.66666666666666662966 1 0.66666666666666662966 0 0.66666666666666662966 0 1 1 0 0 1 0.66666666666666662966 0.33333333333333331483 0 0.33333333333333331483 1 0.33333333333333331483 0.33333333333333331483 1 0.66666666666666662966 0 1 0.33333333333333331483 0 1 1 0 0.66666666666666662966 1 1 0.66666666666666662966 0.66666666666666662966 1 0.66666666666666662966 0.33333333333333331483 0 1 0 0 0.33333333333333331483 0 0.66666666666666662966 1 0 1 0.66666666666666662966 0 1 1 0 0 1 1 0 0.66666666666666662966 0.66666666666666662966 0 0.66666666666666662966 1 0.33333333333333331483 0 1 1 0 0.33333333333333331483 0.66666666666666662966 0 1 1 0 1 1 0 0.66666666666666662966 0.33333333333333331483;0.83333333333333325932 0.99999999999999988898 0.99999999999999988898 0 0.16666666666666665741 0.16666666666666665741 0 0.33333333333333331483 0.5 0 0.33333333333333331483 0.83333333333333325932 0 0.5 0.66666666666666662966 0.83333333333333325932 0.5 0.83333333333333325932 0 0 0.83333333333333325932 0 0.16666666666666665741 0.99999999999999988898 0 0.16666666666666665741 0.99999999999999988898 0.33333333333333331483 0 0.33333333333333331483 0.66666666666666662966 0.33333333333333331483 0.66666666666666662966 0.5 0.33333333333333331483 0.83333333333333325932 0.83333333333333325932 0.33333333333333331483 0.5 0.16666666666666665741 0.33333333333333331483 0.66666666666666662966 0.16666666666666665741 0.5 0.66666666666666662966 0.16666666666666665741 0.99999999999999988898 0.99999999999999988898 0.16666666666666665741 0.33333333333333331483 0.99999999999999988898 0 0.16666666666666665741 0.5 0.99999999999999988898 0.5 0.99999999999999988898 0.16666666666666665741 0.16666666666666665741 0.83333333333333325932 0.33333333333333331483 0 0.16666666666666665741 0.66666666666666662966 0.83333333333333325932 0 0.99999999999999988898 0.66666666666666662966 0.16666666666666665741 0.99999999999999988898 0.33333333333333331483 0.33333333333333331483 0.16666666666666665741 0.33333333333333331483 0.83333333333333325932 0 0.99999999999999988898 0.99999999999999988898 0.16666666666666665741 0.5 0.99999999999999988898 0.33333333333333331483 0.66666666666666662966 0.99999999999999988898 0.16666666666666665741 0.66666666666666662966 0.99999999999999988898 0.5 0.16666666666666665741 0.16666666666666665741;0 0.043478260869565216185 0 0.47826086956521735027 0.9565217391304344785 0.65217391304347804848 0.91304347826086929008 0.99999999999999966693 0.73913043478260853636 0.99999999999999966693 0.73913043478260853636 0.69565217391304323691 0.78260869565217372479 0.13043478260869564855 0.34782608695652172948 0.78260869565217372479 0.17391304347826086474 0 0.91304347826086929008 0.39130434782608697342 0.26086956521739129711 0.82608695652173891322 0.39130434782608697342 0.13043478260869564855 0.78260869565217361377 0.34782608695652172948 0.43478260869565216185 0.043478260869565216185 0.73913043478260853636 0.73913043478260853636 0.21739130434782608092 0.69565217391304334793 0.78260869565217372479 0.30434782608695654105 0.78260869565217372479 0.73913043478260842534 0.52173913043478248319 0.086956521739130432369 0 0.9565217391304344785 0.78260869565217361377 0.13043478260869564855 0.9565217391304344785 0.91304347826086929008 0.78260869565217372479 0.13043478260869564855 0.34782608695652172948 0.39130434782608691791 0.47826086956521735027 0.73913043478260842534 0.78260869565217361377 0.86956521739130410165 0.78260869565217372479 0.73913043478260853636 0 0.43478260869565216185 0.52173913043478248319 0.39130434782608691791 0.69565217391304323691 0.6521739130434781595 0.47826086956521729476 0.86956521739130410165 0.9565217391304344785 0.91304347826086929008 0.34782608695652172948 0.043478260869565216185 0.9565217391304344785 0.56521739130434778264 0.13043478260869564855 0.69565217391304323691 0.52173913043478259421 0 0.9565217391304344785 0.86956521739130410165 0.17391304347826086474 0.69565217391304323691 0.91304347826086917905 0.52173913043478248319 0.043478260869565216185 0.13043478260869564855 0.26086956521739129711 0.043478260869565216185 0.86956521739130399062 0.99999999999999966693 0 0.56521739130434767162 0.99999999999999966693 0.043478260869565216185 0.17391304347826086474 0.34782608695652172948;0 0 0 0 0.33333333333333331483 0.77777777777777790114 1 1 1 0.88888888888888883955 0.66666666666666674068 0.55555555555555558023 0.22222222222222220989 0.22222222222222220989 0.77777777777777790114 0.11111111111111110494 0.11111111111111110494 0.55555555555555558023 0 0.11111111111111110494 0.55555555555555558023 0.44444444444444441977 0.66666666666666662966 0.44444444444444441977 0.55555555555555558023 1 0.44444444444444441977 0.33333333333333331483 0.33333333333333331483 0.77777777777777767909 0.22222222222222220989 0.55555555555555558023 1 0.11111111111111110494 0.66666666666666674068 1 0.11111111111111110494 0.22222222222222220989 0 0.77777777777777790114 0.77777777777777779011 0.11111111111111110494 1 1 0.44444444444444441977 0 0 1 0.11111111111111110494 0.33333333333333331483 1 0.77777777777777790114 0.66666666666666662966 1 0 0 0.22222222222222220989 0.22222222222222220989 0.55555555555555558023 0.44444444444444441977 0.44444444444444441977 0.88888888888888883955 1 0.88888888888888883955 0.44444444444444441977 0.44444444444444441977 0.88888888888888883955 0.66666666666666674068 0.33333333333333331483 0.33333333333333331483 0.22222222222222220989 0.22222222222222220989 0.66666666666666674068 1 0.88888888888888883955 0.11111111111111110494 0.88888888888888883955 0.88888888888888883955 0 0 0.55555555555555558023 0.77777777777777779011 0.55555555555555558023 1 0.22222222222222220989 0.44444444444444441977 0.55555555555555558023 0 0.11111111111111110494 0.55555555555555558023;0 0.045454545454545455807 0 0.045454545454545455807 1 0.27272727272727270709 0.90909090909090917165 1 1 0.95454545454545458583 0.5 0.045454545454545455807 0.81818181818181834331 0.90909090909090917165 0.18181818181818182323 0.86363636363636375748 0.86363636363636375748 0.36363636363636364646 0.63636363636363646457 0.81818181818181823228 0.86363636363636375748 0.18181818181818182323 0.22727272727272726516 0.90909090909090917165 0.13636363636363635354 0.18181818181818182323 0.77272727272727292913 0 0.5454545454545455252 0.63636363636363646457 0.18181818181818182323 0.90909090909090917165 0.72727272727272740394 0.40909090909090917165 0.86363636363636375748 0.81818181818181834331 0.27272727272727270709 0.18181818181818182323 0 0.86363636363636375748 0.5454545454545455252 0.13636363636363635354 1 0.90909090909090917165 0.36363636363636364646 0.045454545454545455807 0.18181818181818182323 0.27272727272727270709 0.72727272727272740394 0.72727272727272740394 0.77272727272727281811 1 0.95454545454545458583 0.90909090909090917165 0 0 0.40909090909090911614 0.045454545454545455807 0.31818181818181817677 0.90909090909090917165 0.22727272727272726516 0.90909090909090917165 1 0.95454545454545458583 0.90909090909090917165 0.68181818181818176772 0.95454545454545458583 0.77272727272727292913 0.18181818181818182323 0 0.045454545454545455807 0.045454545454545455807 0.95454545454545458583 0.77272727272727292913 0.72727272727272740394 0.36363636363636364646 0.72727272727272740394 0.81818181818181834331 0.090909090909090911614 0.40909090909090917165 0.40909090909090917165 0.72727272727272729291 0.68181818181818187874 0.95454545454545458583 0.2727272727272727626 0.40909090909090911614 0.81818181818181834331 0 0 0.36363636363636364646;0 0 0 0 0.66666666666666662966 0.20833333333333331483 0.83333333333333325932 1 0.95833333333333325932 0.95833333333333325932 0.375 0 1 0.79166666666666651864 0.083333333333333328707 1 0.87499999999999988898 0.33333333333333331483 0.041666666666666664354 0.29166666666666662966 0.58333333333333325932 0.58333333333333325932 0.625 0.62499999999999988898 0.70833333333333325932 0.91666666666666662966 0.70833333333333325932 0.125 0.58333333333333325932 0.625 0.125 0.54166666666666662966 0.95833333333333325932 0.375 0.66666666666666662966 0.95833333333333325932 0.375 0.16666666666666665741 0.041666666666666664354 1 0.20833333333333331483 0.041666666666666664354 1 0.625 0.25 0 0.125 0.41666666666666662966 0.041666666666666664354 0.45833333333333325932 1 0.45833333333333331483 0.91666666666666651864 1 0 0.041666666666666664354 0.29166666666666662966 0.083333333333333328707 0.58333333333333325932 0.79166666666666651864 0.625 0.91666666666666662966 0.95833333333333325932 1 0.79166666666666662966 0.5 0.91666666666666662966 0.70833333333333325932 0.29166666666666668517 0.20833333333333331483 0.125 0.083333333333333328707 0.83333333333333325932 0.66666666666666651864 0.875 0.74999999999999988898 0.95833333333333325932 0.91666666666666651864 0 0.041666666666666664354 0.29166666666666662966 0.70833333333333325932 0.70833333333333325932 0.95833333333333325932 0.16666666666666665741 0.66666666666666662966 0.91666666666666651864 0 0.16666666666666665741 0.25;0 0 0 0.85714285714285698425 0.28571428571428569843 0 0.99999999999999977796 0.99999999999999977796 0.28571428571428569843 0.99999999999999977796 0 0 0.99999999999999977796 0.14285714285714284921 0.14285714285714284921 0.85714285714285698425 0.71428571428571419055 0.28571428571428569843 0 0.14285714285714284921 0.99999999999999977796 0.28571428571428569843 0.99999999999999977796 0.99999999999999977796 0 0.99999999999999977796 0.85714285714285698425 0.42857142857142854764 0.85714285714285698425 0.99999999999999977796 0.85714285714285698425 0.71428571428571419055 0.28571428571428569843 0 0.14285714285714284921 0 0.99999999999999977796 0.71428571428571419055 0.57142857142857139685 0 0.14285714285714284921 0.14285714285714284921 0.99999999999999977796 0 0 0 0 0.14285714285714284921 0.14285714285714284921 0.42857142857142854764 0.99999999999999977796 0.42857142857142854764 0.99999999999999977796 0.99999999999999977796 0 0 0 0 0.42857142857142854764 0.57142857142857139685 0.71428571428571419055 0.99999999999999977796 0.99999999999999977796 0.99999999999999977796 0.42857142857142854764 0 0.99999999999999977796 0.99999999999999977796 0.14285714285714284921 0.42857142857142854764 0.14285714285714284921 0.28571428571428569843 0.42857142857142854764 0.14285714285714284921 0.14285714285714284921 0.85714285714285698425 0.99999999999999977796 0.85714285714285698425 0.28571428571428569843 0.28571428571428569843 0.28571428571428569843 0.85714285714285698425 0.28571428571428569843 0.71428571428571419055 0.28571428571428569843 0.57142857142857139685 0.85714285714285698425 0 0.42857142857142854764 0.85714285714285698425;0 0 0 0.80000000000000004441 0.80000000000000004441 0 0.80000000000000004441 1 0.80000000000000004441 1 0 0 1 0 0 1 1 0.4000000000000000222 0 0.4000000000000000222 1 0 0.60000000000000008882 1 0.60000000000000008882 1 1 0.4000000000000000222 1 0.2000000000000000111 0.4000000000000000222 1 0.4000000000000000222 0.4000000000000000222 1 0.60000000000000008882 0.60000000000000008882 0 0 1 0 0 1 0.60000000000000008882 0.2000000000000000111 0 0 0 0.4000000000000000222 0.2000000000000000111 0.80000000000000004441 0.2000000000000000111 1 1 0 0 0.2000000000000000111 0.4000000000000000222 1 0.4000000000000000222 0.4000000000000000222 1 0.60000000000000008882 1 1 0.80000000000000004441 1 0.4000000000000000222 0 0.4000000000000000222 0.2000000000000000111 0 0 1 0.60000000000000008882 0 0.60000000000000008882 1 0.60000000000000008882 0.80000000000000004441 0.80000000000000004441 0 0 0 0.2000000000000000111 0.4000000000000000222 0 1 1 0.80000000000000004441;0 0.125 0.0625 0.21875 0.6875 0.1875 0.84375 1 0.8125 0.59375 0.1875 0.0625 0.96875 0.3125 0.03125 0.9375 0.5625 0.28125 0 0.46875 0.9375 0.03125 0.78125 1 0.125 0.9375 0.96875 0.75 0.4375 0.03125 0.8125 0.46875 0.125 0.6875 0.625 0.46875 0.25 0.125 0.125 0.78125 0.28125 0.28125 0.9375 0.625 0.5 0 0.03125 0.25 0.09375 0.71875 0.875 0.25 0.8125 0.96875 0.125 0.09375 0.03125 0.6875 0.5 0.25 0.96875 0.875 0.8125 0.9375 0.75 0.1875 0.9375 0.78125 0.125 0.59375 0.03125 0 0.46875 0.6875 0.8125 0.21875 0.46875 0.75 0 0.3125 0.78125 0.34375 0.6875 0.84375 0.1875 0.46875 0.71875 0.1875 0.34375 0.53125;0 0 0.125 0.125 0.75 1 0.25 1 1 0.75 0.625 0 0.875 0.25 0.5 0.875 0.5 0.75 0 0.625 0.875 0 0.75 1 0 0.75 0.875 0.875 0 0.125 0.875 0 0.125 0.875 0.75 0.375 0.625 0 0 0.875 0.625 0.25 1 0.75 0.25 0 0.25 0.625 0.25 0.375 1 0.125 0.5 1 0 0.625 0.875 0.625 0.125 0.625 0.875 0.25 0.125 1 1 0.375 0.875 0.875 0.25 0.375 0.25 0.125 0.75 0.875 0.875 0 0.375 0.75 0 0.25 0.625 0.375 0.625 1 0 0.5 1 0 0.25 0.375;0 0 0 0 0 1 0 0.75 1 1 1 0.5 1 0.5 0 0.25 0.25 0 0 0 0.75 1 0.25 0.5 1 1 1 0 0 0.25 0 0 1 0.25 0.75 1 0.25 0 0 0.25 0.5 0 1 1 0.75 0.25 0.25 0.25 0.25 0 1 0 0.75 1 1 1 1 0 0 1 0 0 0.25 1 0 0 1 0 0 0.75 0.5 0.75 0.75 1 1 0 0 1 0 0 0.75 0.25 0 0.75 0.25 0.75 0 1 0.75 0.75;0.69230769230769229061 0.30769230769230770939 0.69230769230769229061 0 0.30769230769230770939 0.46153846153846156408 0.23076923076923078204 0.99999999999999977796 0.76923076923076916245 0.46153846153846156408 0.15384615384615385469 0.076923076923076927347 0.76923076923076916245 0.46153846153846156408 0.30769230769230770939 0.99999999999999977796 0.76923076923076916245 0.38461538461538463674 0 0.46153846153846156408 0.92307692307692290612 0 0.69230769230769229061 0.92307692307692290612 0.076923076923076927347 0.92307692307692290612 0.99999999999999977796 0.69230769230769229061 0.69230769230769229061 0.15384615384615385469 0.92307692307692290612 0.61538461538461541878 0.076923076923076927347 0.69230769230769229061 0.46153846153846156408 0.15384615384615385469 0.99999999999999977796 0.99999999999999977796 0.92307692307692290612 0.30769230769230770939 0.15384615384615385469 0.076923076923076927347 0.15384615384615385469 0.076923076923076927347 0.076923076923076927347 0 0.30769230769230770939 0.84615384615384603428 0 0.23076923076923078204 0.76923076923076916245 0 0.76923076923076916245 0.92307692307692290612 0.61538461538461541878 0.61538461538461541878 0.53846153846153854694 0.53846153846153854694 0.076923076923076927347 0.15384615384615385469 0.69230769230769229061 0.38461538461538463674 0.15384615384615385469 0.30769230769230770939 0.23076923076923078204 0.076923076923076927347 0.38461538461538463674 0.23076923076923078204 0.23076923076923078204 0.23076923076923078204 0.92307692307692290612 0.99999999999999977796 0.92307692307692290612 0.84615384615384603428 0.76923076923076916245 0.46153846153846156408 0.61538461538461541878 0.61538461538461541878 0 0 0.38461538461538463674 0.69230769230769229061 0.92307692307692290612 0.46153846153846156408 0.38461538461538463674 0.61538461538461541878 0.61538461538461541878 0.38461538461538463674 0.23076923076923078204 0.076923076923076927347;0 0 0 0.33333333333333331483 1 0.22222222222222220989 1 1 0.33333333333333331483 1 0.11111111111111110494 0 1 0.55555555555555558023 0 1 0.77777777777777779011 0.22222222222222220989 0.55555555555555558023 0 0.11111111111111110494 0.55555555555555558023 0.22222222222222220989 0 0.88888888888888883955 1 1 0 0.66666666666666662966 0.66666666666666662966 0 1 1 0.33333333333333331483 0.77777777777777779011 1 0.22222222222222220989 0.11111111111111110494 0.11111111111111110494 0.88888888888888895057 0.33333333333333331483 0.22222222222222220989 1 0.44444444444444441977 0.44444444444444441977 0.33333333333333331483 0.77777777777777779011 0.11111111111111110494 0.88888888888888895057 1 0.66666666666666662966 0.66666666666666662966 0.66666666666666662966 0.33333333333333331483 0 0.22222222222222220989 0.33333333333333331483 0.11111111111111110494 0.77777777777777767909 0.88888888888888895057 0.77777777777777779011 1 1 1 0.77777777777777779011 0.22222222222222220989 0.88888888888888895057 0.66666666666666674068 0.11111111111111110494 0.22222222222222220989 0.22222222222222220989 0.11111111111111110494 0.88888888888888895057 0.66666666666666674068 0 0.55555555555555558023 0.88888888888888895057 0.33333333333333331483 0.55555555555555558023 1 0.11111111111111110494 0.66666666666666662966 0.55555555555555558023 0.77777777777777779011 0.33333333333333331483 0.44444444444444441977 1 0 0.11111111111111110494 0.55555555555555558023;0 0.10000000000000000555 0 0.5999999999999999778 0.80000000000000004441 0.10000000000000000555 1 1 0.4000000000000000222 0.5 0.30000000000000004441 0.5 0.80000000000000004441 0.5999999999999999778 0.5999999999999999778 0.60000000000000008882 0.2000000000000000111 0.4000000000000000222 0.5 1 0.2000000000000000111 1 0.80000000000000004441 0.10000000000000000555 0.9000000000000000222 0.60000000000000008882 0 0.4000000000000000222 0.70000000000000006661 0.69999999999999995559 0.4000000000000000222 1 0.80000000000000004441 0.2000000000000000111 0.70000000000000006661 0.70000000000000006661 0.30000000000000004441 0.2000000000000000111 0.2000000000000000111 0.4000000000000000222 0.4000000000000000222 0.79999999999999993339 0.69999999999999995559 0.9000000000000000222 0.60000000000000008882 0 0.10000000000000000555 0.10000000000000000555 0.5999999999999999778 0.80000000000000004441 0.30000000000000004441 0.79999999999999993339 1 0.70000000000000006661 0.10000000000000000555 0 0 0.5999999999999999778 0.4000000000000000222 0.5 1 0.9000000000000000222 1 1 0.9000000000000000222 0.80000000000000004441 1 0.70000000000000006661 0.5 0 0 0.10000000000000000555 1 1 0.9000000000000000222 0.30000000000000004441 0.80000000000000004441 0.60000000000000008882 0.10000000000000000555 0.2000000000000000111 0.10000000000000000555 0.2000000000000000111 0.69999999999999995559 1 0.10000000000000000555 0.79999999999999993339 0.80000000000000004441 0 0.30000000000000004441 0.2000000000000000111;0 0 0 1 1 0.33333333333333331483 1 1 0.33333333333333331483 1 0.33333333333333331483 0 1 0.33333333333333331483 0 1 0.33333333333333331483 0 0.66666666666666662966 0.66666666666666662966 1 1 1 0.33333333333333331483 0.33333333333333331483 0.33333333333333331483 0 1 1 0.33333333333333331483 0.33333333333333331483 1 0.66666666666666662966 0 0 0.33333333333333331483 0.33333333333333331483 0 0 1 0 0 1 0 0 0 0 0 1 1 1 1 1 1 0 0 0 0.66666666666666662966 1 1 1 1 1 1 1 1 1 1 0 0 0 0 0 1 1 0 1 1 0 0 0 0.33333333333333331483 1 1 0 0 1 0 0 0.33333333333333331483;0 0 0 0 1 0 1 1 1 1 1 0 0.66666666666666662966 1 0.33333333333333331483 0 0 0 1 1 1 0 1 0.66666666666666662966 0 0 0 0.33333333333333331483 1 0.66666666666666662966 1 0.66666666666666662966 0 0.66666666666666662966 0.33333333333333331483 0 0 0.33333333333333331483 0 1 0.66666666666666662966 0 1 1 0 0 0 0 0.33333333333333331483 0.66666666666666662966 1 1 1 1 0 0 0 0 1 1 0.66666666666666662966 1 1 1 1 0.66666666666666662966 1 0.66666666666666662966 0 0.33333333333333331483 0 0 1 0.33333333333333331483 0.33333333333333331483 1 1 0.33333333333333331483 0.33333333333333331483 0.33333333333333331483 0 1 1 1 1 0.66666666666666662966 1 0 0 0;0 0 0 0.5 1 0.5 1 1 1 0.75 0.5 0.5 1 0.5 0.5 0.5 0.5 0 0 0 1 1 0 1 0.75 1 1 1 1 0.75 0 0.25 1 0 0 0 0 0 0 1 0 0.25 1 1 0.75 0 1 0.75 0 0.25 1 0.5 0.5 1 0 0 0.25 0.25 1 1 1 1 1 1 1 1 0.5 0.75 1 0 0 0 0.75 0 0.5 1 1 0.75 0 0.25 0 1 0.5 0.75 1 0 0 0 0 0;0 0 0 1 0 0 1 1 1 0.5 1 0.5 1 1 0 1 0 0 0 0 0.5 0 0 1 0.5 0.5 1 1 1 0 0.5 1 0 0 0.5 0.5 0 0 0.5 0 0 0 1 1 1 0 0 0 0.5 1 1 1 1 1 0 0 0 0 0 0 1 1 1 0.5 0.5 0.5 0.5 0.5 1 0 1 1 1 1 1 0.5 1 0.5 0.5 0 0 0 0 0 0.5 1 0 0.5 1 1;0 1 1 0 0 1 0 1 1 1 0 0 1 1 0 1 1 1 0 1 1 0 1 1 0 1 1 1 0 0 1 0 0 1 0 0 0 1 1 1 0 0 1 0 0 0 1 0 0 1 1 0 1 1 1 0 0 1 0 0 1 1 0 1 1 0 1 1 0 0 0 0 0 1 1 0 1 1 0 0 0 1 1 1 1 0 1 0 0 0;0 0.39999999999999996669 0.13333333333333333148 0 0.93333333333333323711 0.39999999999999996669 0 0.99999999999999988898 0.93333333333333323711 0.46666666666666661856 0 0.066666666666666665741 0.86666666666666658525 0.33333333333333331483 0.33333333333333331483 0.99999999999999988898 0.66666666666666662966 0.5999999999999999778 0 0.99999999999999988898 0.93333333333333323711 0 0.99999999999999988898 0.99999999999999988898 0.2000000000000000111 0.86666666666666658525 0.99999999999999988898 0 0 0.13333333333333333148 0.33333333333333331483 0.33333333333333331483 0.53333333333333332593 0.53333333333333332593 0.79999999999999993339 0.73333333333333328152 0.26666666666666666297 0 0.2000000000000000111 0.73333333333333328152 0.2000000000000000111 0.26666666666666666297 0.93333333333333323711 0.5999999999999999778 0.5999999999999999778 0 0.2000000000000000111 0.13333333333333333148 0 0.99999999999999988898 0.93333333333333323711 0 0.99999999999999988898 0.99999999999999988898 0.066666666666666665741 0.066666666666666665741 0.53333333333333332593 0.2000000000000000111 0.46666666666666667407 0.93333333333333323711 0.4000000000000000222 0.86666666666666658525 0.93333333333333323711 0.93333333333333323711 0.66666666666666662966 0.39999999999999996669 0.99999999999999988898 0.86666666666666658525 0.066666666666666665741 0.66666666666666662966 0 0.066666666666666665741 0 0.79999999999999993339 0.86666666666666658525 0 0.93333333333333323711 0.99999999999999988898 0 0.79999999999999993339 0.86666666666666658525 0.33333333333333331483 0.86666666666666658525 0.99999999999999988898 0.066666666666666665741 0.46666666666666661856 0.93333333333333323711 0.066666666666666665741 0.066666666666666665741 0.5999999999999999778;0.15384615384615385469 0.84615384615384614531 0.30769230769230770939 0 0.92307692307692312816 0 0.15384615384615385469 1 0.76923076923076927347 1 0.076923076923076927347 0 1 0.076923076923076927347 0 1 0.46153846153846156408 